{"learner":{"attributes":{"best_iteration":"2","best_score":"0.6828047714450143","scikit_learn":"{\"_estimator_type\": \"classifier\"}"},"feature_names":["Fed_Rate","Yield_Curve","10Y_Yield","Junk_Bonds","VIX","Credit_Risk","Real_Rates","VIX_Stress","Inverted_Curve","Mom_5","Mom_10","Mom_20","Mom_50","Mom_200","Vol_10","Vol_20","Vol_30","Vol_60","Vol_Ratio","Rates_x_Mom","VIX_x_Vol"],"feature_types":["float","float","float","float","float","float","float","float","int","float","float","float","float","float","float","float","float","float","float","float","float"],"gradient_booster":{"model":{"cats":{"enc":[],"feature_segments":[],"sorted_idx":[]},"gbtree_model_param":{"num_parallel_tree":"1","num_trees":"53"},"iteration_indptr":[0,1,2,3,4,5,6,7,8,9,10,11,12,13,14,15,16,17,18,19,20,21,22,23,24,25,26,27,28,29,30,31,32,33,34,35,36,37,38,39,40,41,42,43,44,45,46,47,48,49,50,51,52,53],"tree_info":[0,0,0,0,0,0,0,0,0,0,0,0,0,0,0,0,0,0,0,0,0,0,0,0,0,0,0,0,0,0,0,0,0,0,0,0,0,0,0,0,0,0,0,0,0,0,0,0,0,0,0,0,0],"trees":[{"base_weights":[-3.0046219E-2,6.980956E-2,-2.736773E-1,9.525857E-2,-7.5838876E-1,-8.755E-2,-7.05034E-1,1.3024206E-1,-5.1431686E-1,-1.0985417E0,2.8019026E-3,-9.527468E-1,-1.4847055E-2,-2.873464E-1,-1.3590643E0,-8.366826E-4,1.0922187E-3,-4.46257E-3,-8.7543414E-4,-7.041956E-3,5.6766963E-4,1.4180202E-3,-7.276664E-3,1.2817719E-3,-1.1606531E-3,-3.14879E-3,2.516117E-3,5.6766963E-4,-7.70398E-3],"categories":[],"categories_nodes":[],"categories_segments":[],"categories_sizes":[],"default_left":[0,0,0,0,0,0,0,0,0,0,0,0,0,0,0,0,0,0,0,0,0,0,0,0,0,0,0,0,0],"id":0,"left_children":[1,3,5,7,9,11,13,15,17,19,-1,21,23,25,27,-1,-1,-1,-1,-1,-1,-1,-1,-1,-1,-1,-1,-1,-1],"loss_changes":[8.704711E0,5.42634E0,8.287641E0,5.3415933E0,4.0628223E0,4.627343E0,8.134037E0,6.197139E0,1.5919721E0,2.581061E0,0E0,3.9570713E0,4.1305075E0,5.8151865E0,3.3578625E0,0E0,0E0,0E0,0E0,0E0,0E0,0E0,0E0,0E0,0E0,0E0,0E0,0E0,0E0],"parents":[2147483647,0,0,1,1,2,2,3,3,4,4,5,5,6,6,7,7,8,8,9,9,11,11,12,12,13,13,14,14],"right_children":[2,4,6,8,10,12,14,16,18,20,-1,22,24,26,28,-1,-1,-1,-1,-1,-1,-1,-1,-1,-1,-1,-1,-1,-1],"split_conditions":[2.87E0,6.476203E0,1.2761622E-2,3.343804E-2,1.117299E0,1.232E1,7.2214017E-3,4.231028E-3,2.362E1,1.133431E-2,2.8019026E-3,4.5534834E-2,1.51E1,-2.2473861E-3,-1.0291251E-1,-8.366826E-4,1.0922187E-3,-4.46257E-3,-8.7543414E-4,-7.041956E-3,5.6766963E-4,1.4180202E-3,-7.276664E-3,1.2817719E-3,-1.1606531E-3,-3.14879E-3,2.516117E-3,5.6766963E-4,-7.70398E-3],"split_indices":[2,5,16,9,18,4,9,14,4,14,0,12,4,9,12,0,0,0,0,0,0,0,0,0,0,0,0,0,0],"split_type":[0,0,0,0,0,0,0,0,0,0,0,0,0,0,0,0,0,0,0,0,0,0,0,0,0,0,0,0,0],"sum_hessian":[3.5602133E2,2.5302768E2,1.0299365E2,2.46343E2,6.6846843E0,7.278879E1,3.020487E1,2.3371637E2,1.2626626E1,5.4467797E0,1.2379045E0,4.704037E0,6.808475E1,1.931131E1,1.0893559E1,5.3229893E1,1.8048648E2,5.1991987E0,7.427427E0,4.208875E0,1.2379045E0,1.4854854E0,3.2185516E0,3.020487E1,3.787988E1,1.3616949E1,5.6943607E0,1.2379045E0,9.655655E0],"tree_param":{"num_deleted":"0","num_feature":"21","num_nodes":"29","size_leaf_vector":"1"}},{"base_weights":[-1.2597783E-2,7.5323284E-1,-5.4934938E-2,-3.90405E-3,9.077752E-1,2.0204628E-1,-2.2182418E-1,1.0505617E0,-6.6289824E-4,-2.4876295E-2,4.719472E-1,1.4662753E-1,-4.0542415E-1,1.7717656E-3,5.9445677E-3,1.9029417E-3,-1.4809609E-3,7.816545E-4,3.6645855E-3,1.1323746E-3,-5.2528274E-3,-6.3266074E-3,-1.527935E-3],"categories":[],"categories_nodes":[],"categories_segments":[],"categories_sizes":[],"default_left":[0,0,0,0,0,0,0,0,0,0,0,0,0,0,0,0,0,0,0,0,0,0,0],"id":1,"left_children":[1,3,5,-1,7,9,11,13,-1,15,17,19,21,-1,-1,-1,-1,-1,-1,-1,-1,-1,-1],"loss_changes":[1.1496813E1,5.112871E0,1.4443588E1,0E0,2.714962E0,8.139839E0,1.3861158E1,1.0580616E0,0E0,8.148398E0,4.882209E0,6.794439E0,1.1326263E1,0E0,0E0,0E0,0E0,0E0,0E0,0E0,0E0,0E0,0E0],"parents":[2147483647,0,0,1,1,2,2,4,4,5,5,6,6,7,7,9,9,10,10,11,11,12,12],"right_children":[2,4,6,-1,8,10,12,14,-1,16,18,20,22,-1,-1,-1,-1,-1,-1,-1,-1,-1,-1],"split_conditions":[7E-1,5.600769E-1,4.300973E0,-3.90405E-3,4.964235E0,6.4494153E-3,1.569E1,4.5284057E0,-6.6289824E-4,4.2789103E-3,-1.5507498E-2,1.102596E0,4.6700125E0,1.7717656E-3,5.9445677E-3,1.9029417E-3,-1.4809609E-3,7.816545E-4,3.6645855E-3,1.1323746E-3,-5.2528274E-3,-6.3266074E-3,-1.527935E-3],"split_indices":[2,18,5,0,5,14,4,5,0,15,12,7,5,0,0,0,0,0,0,0,0,0,0],"split_type":[0,0,0,0,0,0,0,0,0,0,0,0,0,0,0,0,0,0,0,0,0,0,0],"sum_hessian":[3.52311E2,1.7576735E1,3.3473428E2,1.2377712E0,1.6338963E1,1.3171098E2,2.0302328E2,1.435848E1,1.9804817E0,7.2045586E1,5.9665394E1,6.758795E1,1.3543533E2,2.9706986E0,1.1387782E1,2.8721039E1,4.332455E1,2.7729029E1,3.1936367E1,6.4122116E1,3.4658298E0,1.2874385E1,1.2256095E2],"tree_param":{"num_deleted":"0","num_feature":"21","num_nodes":"23","size_leaf_vector":"1"}},{"base_weights":[-3.0640263E-2,7.398443E-1,-7.464449E-2,-3.892427E-3,8.869236E-1,3.010311E-2,-3.5086647E-1,1.0445974E0,-2.6129198E-3,-3.0571574E-1,1.2406274E-1,2.4007803E-1,-5.2732646E-1,6.013505E-3,8.799459E-5,-2.5581275E-3,7.9458184E-4,5.3088767E-3,4.2324062E-4,-7.513244E-4,4.1549234E-3,-2.8427928E-3,5.0431234E-3],"categories":[],"categories_nodes":[],"categories_segments":[],"categories_sizes":[],"default_left":[0,0,0,0,0,0,0,0,0,0,0,0,0,0,0,0,0,0,0,0,0,0,0],"id":2,"left_children":[1,3,5,-1,7,9,11,13,-1,15,17,19,21,-1,-1,-1,-1,-1,-1,-1,-1,-1,-1],"loss_changes":[1.2118144E1,5.0035295E0,9.774965E0,0E0,4.563055E0,7.7877064E0,9.810717E0,2.6726665E0,0E0,5.2461143E0,7.0294204E0,5.2089067E0,5.1222687E0,0E0,0E0,0E0,0E0,0E0,0E0,0E0,0E0,0E0,0E0],"parents":[2147483647,0,0,1,1,2,2,4,4,5,5,6,6,7,7,9,9,10,10,11,11,12,12],"right_children":[2,4,6,-1,8,10,12,14,-1,16,18,20,22,-1,-1,-1,-1,-1,-1,-1,-1,-1,-1],"split_conditions":[7.2E-1,5.600769E-1,1.0874198E-2,-3.892427E-3,3.6319748E-2,4.081586E-3,4.167693E0,4.964235E0,-2.6129198E-3,3.2834865E-2,4.093169E-3,1.3620871E-2,4.14E0,6.013505E-3,8.799459E-5,-2.5581275E-3,7.9458184E-4,5.3088767E-3,4.2324062E-4,-7.513244E-4,4.1549234E-3,-2.8427928E-3,5.0431234E-3],"split_indices":[2,18,17,0,9,14,5,5,0,11,15,17,2,0,0,0,0,0,0,0,0,0,0],"split_type":[0,0,0,0,0,0,0,0,0,0,0,0,0,0,0,0,0,0,0,0,0,0,0],"sum_hessian":[3.5479025E2,1.8313858E1,3.364764E2,1.2382445E0,1.7075613E1,2.4460823E2,9.186817E1,1.5590485E1,1.4851282E0,5.298437E1,1.9162386E2,2.1041628E1,7.082654E1,1.33623085E1,2.2281759E0,3.6643864E1,1.6340504E1,6.6832857E0,1.8494058E2,1.3120291E1,7.921337E0,6.95883E1,1.2382414E0],"tree_param":{"num_deleted":"0","num_feature":"21","num_nodes":"23","size_leaf_vector":"1"}},{"base_weights":[1.5182693E-2,5.0630968E-2,-5.976647E-1,-5.4384756E-1,9.037515E-2,9.9671185E-2,-1.1175417E0,1.1173429E-2,-9.929313E-1,-2.2388403E-1,1.7559998E-1,-7.594768E-1,8.9883715E-1,-2.7704555E-1,-1.3562598E0,-2.137523E-3,5.044767E-3,-1.886823E-3,-8.109359E-3,-4.7310195E-3,-4.5134476E-4,1.3138987E-3,-1.189375E-3,2.805245E-3,-6.745E-3,5.572437E-3,5.7223137E-4,1.4229284E-3,-3.884647E-3,-2.30622E-3,-7.7992873E-3],"categories":[],"categories_nodes":[],"categories_segments":[],"categories_sizes":[],"default_left":[0,0,0,0,0,0,0,0,0,0,0,0,0,0,0,0,0,0,0,0,0,0,0,0,0,0,0,0,0,0,0],"id":3,"left_children":[1,3,5,7,9,11,13,15,17,19,21,23,25,27,29,-1,-1,-1,-1,-1,-1,-1,-1,-1,-1,-1,-1,-1,-1,-1,-1],"loss_changes":[7.6789055E0,7.934613E0,7.1188345E0,5.2595916E0,8.440776E0,6.98137E0,1.8625307E0,4.9863486E0,3.8984995E0,6.4158216E0,8.97788E0,4.620448E0,7.538743E-1,1.2666974E0,8.169031E-1,0E0,0E0,0E0,0E0,0E0,0E0,0E0,0E0,0E0,0E0,0E0,0E0,0E0,0E0,0E0,0E0],"parents":[2147483647,0,0,1,1,2,2,3,3,4,4,5,5,6,6,7,7,8,8,9,9,10,10,11,11,12,12,13,13,14,14],"right_children":[2,4,6,8,10,12,14,16,18,20,22,24,26,28,30,-1,-1,-1,-1,-1,-1,-1,-1,-1,-1,-1,-1,-1,-1,-1,-1],"split_conditions":[3.6319748E-2,-6.6E-1,1.3237831E-2,-1.06E0,4.3576784E-3,4.0847987E-2,7.2966546E-1,1.0709146E0,5.154379E-3,9.2187926E-2,6.1872287E0,1.577E1,6.3725166E0,5.4103676E-3,-8.04482E-2,-2.137523E-3,5.044767E-3,-1.886823E-3,-8.109359E-3,-4.7310195E-3,-4.5134476E-4,1.3138987E-3,-1.189375E-3,2.805245E-3,-6.745E-3,5.572437E-3,5.7223137E-4,1.4229284E-3,-3.884647E-3,-2.30622E-3,-7.7992873E-3],"split_indices":[9,1,16,6,14,9,18,18,9,13,5,4,5,19,13,0,0,0,0,0,0,0,0,0,0,0,0,0,0,0,0],"split_type":[0,0,0,0,0,0,0,0,0,0,0,0,0,0,0,0,0,0,0,0,0,0,0,0,0,0,0,0,0,0,0],"sum_hessian":[3.5107648E2,3.3274713E2,1.8329351E1,2.0057085E1,3.1269006E2,8.173766E0,1.0155585E1,9.40661E0,1.06504755E1,6.636135E1,2.463287E2,3.962992E0,4.210774E0,2.7242842E0,7.431301E0,6.930939E0,2.4756708E0,6.191062E0,4.459414E0,9.409929E0,5.695142E1,2.0373611E2,4.259259E1,1.2380571E0,2.7249348E0,2.9726741E0,1.2380998E0,1.4857292E0,1.2385551E0,1.9823507E0,5.448951E0],"tree_param":{"num_deleted":"0","num_feature":"21","num_nodes":"31","size_leaf_vector":"1"}},{"base_weights":[-6.661722E-2,-3.356812E-2,-6.260025E-1,-1.5140349E-2,-9.418842E-1,4.366436E-3,-8.506096E-1,2.0069245E-1,-8.270762E-2,1.4219193E-3,-1.3663567E0,-9.964854E-1,2.816976E-3,6.542391E-4,5.034883E-3,-1.9384283E-3,2.6790443E-4,-1.650359E-3,-8.112133E-3,-6.220854E-3,-1.2563287E-3],"categories":[],"categories_nodes":[],"categories_segments":[],"categories_sizes":[],"default_left":[0,0,0,0,0,0,0,0,0,0,0,0,0,0,0,0,0,0,0,0,0],"id":4,"left_children":[1,3,5,7,9,-1,11,13,15,-1,17,19,-1,-1,-1,-1,-1,-1,-1,-1,-1],"loss_changes":[6.3231373E0,5.426975E0,7.170354E0,4.6778436E0,3.7446842E0,0E0,4.089983E0,4.1761394E0,1.0168177E1,0E0,7.811985E-1,2.6163054E0,0E0,0E0,0E0,0E0,0E0,0E0,0E0,0E0,0E0],"parents":[2147483647,0,0,1,1,2,2,3,3,4,4,6,6,7,7,8,8,10,10,11,11],"right_children":[2,4,6,8,10,-1,12,14,16,-1,18,20,-1,-1,-1,-1,-1,-1,-1,-1,-1],"split_conditions":[3.6319748E-2,6.866078E1,-2.7E-1,3.3E-1,6.841923E-3,4.366436E-3,1.060437E0,2.685014E-2,8.3442265E-1,1.4219193E-3,8.9649856E-1,6.417284E1,2.816976E-3,6.542391E-4,5.034883E-3,-1.9384283E-3,2.6790443E-4,-1.650359E-3,-8.112133E-3,-6.220854E-3,-1.2563287E-3],"split_indices":[9,3,6,0,11,0,7,9,18,0,7,3,0,0,0,0,0,0,0,0,0],"split_type":[0,0,0,0,0,0,0,0,0,0,0,0,0,0,0,0,0,0,0,0,0],"sum_hessian":[3.4216492E2,3.2407806E2,1.808688E1,3.186304E2,5.447654E0,1.9802585E0,1.610662E1,7.5497025E1,2.4313338E2,1.4856775E0,3.9619763E0,1.4868034E1,1.2385868E0,7.0548065E1,4.9489627E0,7.4523865E1,1.6860951E2,1.2385795E0,2.7233968E0,1.0656609E1,4.211426E0],"tree_param":{"num_deleted":"0","num_feature":"21","num_nodes":"21","size_leaf_vector":"1"}},{"base_weights":[1.0575395E-2,7.973199E-1,-2.0934984E-2,6.496883E-3,-2.6315624E-1,7.569754E-2,-2.2128518E-1,6.956387E-4,-3.3912235E-3,9.745408E-2,-1.0456333E0,4.359271E-1,-3.0450404E-1,-6.7625556E-4,9.882589E-4,-7.3441043E-3,-5.867017E-4,3.158393E-3,-3.884714E-3,-8.6718175E-4,-3.7085225E-3],"categories":[],"categories_nodes":[],"categories_segments":[],"categories_sizes":[],"default_left":[0,0,0,0,0,0,0,0,0,0,0,0,0,0,0,0,0,0,0,0,0],"id":5,"left_children":[1,3,5,-1,7,9,11,-1,-1,13,15,17,19,-1,-1,-1,-1,-1,-1,-1,-1],"loss_changes":[8.763339E0,7.589468E0,6.603304E0,0E0,9.635773E-1,5.719295E0,6.2009897E0,0E0,0E0,5.3146524E0,1.5827694E0,3.5491066E0,5.548402E0,0E0,0E0,0E0,0E0,0E0,0E0,0E0,0E0],"parents":[2147483647,0,0,1,1,2,2,4,4,5,5,6,6,9,9,10,10,11,11,12,12],"right_children":[2,4,6,-1,8,10,12,-1,-1,14,16,18,20,-1,-1,-1,-1,-1,-1,-1,-1],"split_conditions":[6.7E-1,5.4103676E-3,2.1452285E-1,6.496883E-3,7.255999E-1,6.871624E1,5.6175564E1,6.956387E-4,-3.3912235E-3,4.418787E-3,7.23519E-3,1.5906053E-2,1.2788136E0,-6.7625556E-4,9.882589E-4,-7.3441043E-3,-5.867017E-4,3.158393E-3,-3.884714E-3,-8.6718175E-4,-3.7085225E-3],"split_indices":[2,19,20,0,18,3,3,0,0,14,14,11,18,0,0,0,0,0,0,0,0],"split_type":[0,0,0,0,0,0,0,0,0,0,0,0,0,0,0,0,0,0,0,0,0],"sum_hessian":[3.518209E2,1.2612452E1,3.3920844E2,8.407058E0,4.205394E0,2.2925621E2,1.0995224E2,2.4732559E0,1.732138E0,2.2578845E2,3.4677522E0,1.1881443E1,9.80708E1,6.785292E1,1.5793553E2,1.9819465E0,1.4858057E0,1.0642913E1,1.2385299E0,7.652591E1,2.1544888E1],"tree_param":{"num_deleted":"0","num_feature":"21","num_nodes":"21","size_leaf_vector":"1"}},{"base_weights":[-4.028948E-2,8.591618E-2,-2.338835E-1,2.2848822E-1,-1.7220227E-1,1.8018259E-2,-4.8779672E-1,7.343699E-3,1.7781876E-1,3.8492548E-1,-3.7698388E-1,3.8619873E-1,-3.11422E-1,1.3554002E-1,-7.3168397E-1,1.0969709E-3,-3.013001E-3,4.1027187E-4,6.380936E-3,-8.183058E-4,-4.6964777E-3,-1.4426702E-3,3.123835E-3,-3.532372E-3,6.912194E-4,1.9310117E-3,-4.1322345E-3,-6.118604E-3,-2.0050039E-3],"categories":[],"categories_nodes":[],"categories_segments":[],"categories_sizes":[],"default_left":[0,0,0,0,0,0,0,0,0,0,0,0,0,0,0,0,0,0,0,0,0,0,0,0,0,0,0,0,0],"id":6,"left_children":[1,3,5,7,9,11,13,-1,15,17,19,21,23,25,27,-1,-1,-1,-1,-1,-1,-1,-1,-1,-1,-1,-1,-1,-1],"loss_changes":[8.495524E0,7.7941027E0,8.7820215E0,8.296464E0,8.764496E0,8.588931E0,1.04893E1,0E0,4.4140673E0,5.5101156E0,6.53356E0,5.5594916E0,6.741816E0,5.1573606E0,7.527727E0,0E0,0E0,0E0,0E0,0E0,0E0,0E0,0E0,0E0,0E0,0E0,0E0,0E0,0E0],"parents":[2147483647,0,0,1,1,2,2,3,3,4,4,5,5,6,6,8,8,9,9,10,10,11,11,12,12,13,13,14,14],"right_children":[2,4,6,8,10,12,14,-1,16,18,20,22,24,26,28,-1,-1,-1,-1,-1,-1,-1,-1,-1,-1,-1,-1,-1,-1],"split_conditions":[4.702381E-2,1.1030531E-2,5.6E-1,1.31E0,4.167693E0,2.57E0,-3.6526675E-5,7.343699E-3,6.6206093E0,1.6500238E-2,2.9649943E-2,2.307285E-3,6.301065E0,8.447677E-2,5.6834667E1,1.0969709E-3,-3.013001E-3,4.1027187E-4,6.380936E-3,-8.183058E-4,-4.6964777E-3,-1.4426702E-3,3.123835E-3,-3.532372E-3,6.912194E-4,1.9310117E-3,-4.1322345E-3,-6.118604E-3,-2.0050039E-3],"split_indices":[12,17,1,2,5,2,9,0,5,14,13,9,5,12,3,0,0,0,0,0,0,0,0,0,0,0,0,0,0],"split_type":[0,0,0,0,0,0,0,0,0,0,0,0,0,0,0,0,0,0,0,0,0,0,0,0,0,0,0,0,0],"sum_hessian":[3.4588934E2,2.0972438E2,1.3616498E2,1.3517506E2,7.454932E1,6.8819595E1,6.734538E1,4.2072096E0,1.3096785E2,1.9800497E1,5.4748817E1,3.2417595E1,3.6402E1,1.906431E1,4.828107E1,1.25026184E2,5.9416676E0,1.5593526E1,4.2069707E0,4.0627224E1,1.4121593E1,8.413265E0,2.400433E1,1.907373E1,1.732827E1,1.5598412E1,3.465899E0,1.8320574E1,2.9960497E1],"tree_param":{"num_deleted":"0","num_feature":"21","num_nodes":"29","size_leaf_vector":"1"}},{"base_weights":[-1.8766769E-3,3.8129963E-2,-6.802964E-1,1.2076726E-1,-2.9678422E-1,-8.2825667E-1,1.6829766E-3,1.5226105E-1,-8.7601084E-1,-8.288566E-3,-2.0756397E-1,-9.4853115E-1,1.424952E-3,1.494725E-3,-7.9635676E-5,-6.0181264E-3,2.839032E-3,4.287292E-3,-1.3677548E-3,-6.366223E-4,-5.273151E-3],"categories":[],"categories_nodes":[],"categories_segments":[],"categories_sizes":[],"default_left":[0,0,0,0,0,0,0,0,0,0,0,0,0,0,0,0,0,0,0,0,0],"id":7,"left_children":[1,3,5,7,9,11,-1,13,15,-1,17,19,-1,-1,-1,-1,-1,-1,-1,-1,-1],"loss_changes":[9.669337E0,9.347977E0,3.2637043E0,8.627708E0,7.7764964E0,2.6279106E0,0E0,6.496818E0,4.6735744E0,0E0,4.7258015E0,1.2704124E0,0E0,0E0,0E0,0E0,0E0,0E0,0E0,0E0,0E0],"parents":[2147483647,0,0,1,1,2,2,3,3,4,4,5,5,7,7,8,8,10,10,11,11],"right_children":[2,4,6,8,10,12,-1,14,16,-1,18,20,-1,-1,-1,-1,-1,-1,-1,-1,-1],"split_conditions":[3.6319748E-2,3.08E0,1.0875592E0,6.476203E0,5.665437E-3,6.476203E0,1.6829766E-3,4.3797947E-2,2.7799898E-1,-8.288566E-3,7.805856E-2,4.1621532E0,1.424952E-3,1.494725E-3,-7.9635676E-5,-6.0181264E-3,2.839032E-3,4.287292E-3,-1.3677548E-3,-6.366223E-4,-5.273151E-3],"split_indices":[9,2,18,5,16,5,0,12,20,0,20,5,0,0,0,0,0,0,0,0,0],"split_type":[0,0,0,0,0,0,0,0,0,0,0,0,0,0,0,0,0,0,0,0,0],"sum_hessian":[3.5430347E2,3.354648E2,1.8838676E1,2.695861E2,6.5878716E1,1.6607716E1,2.2309608E0,2.621505E2,7.435555E0,2.9715724E0,6.2907143E1,1.5121913E1,1.4858016E0,1.396118E2,1.2253873E2,6.1959906E0,1.2395642E0,2.9704282E0,5.9936714E1,1.9819195E0,1.3139994E1],"tree_param":{"num_deleted":"0","num_feature":"21","num_nodes":"21","size_leaf_vector":"1"}},{"base_weights":[2.4288239E-2,9.255838E-1,-5.9562107E-3,1.2650175E0,-1.4916344E-3,7.602476E-2,-2.9309335E-1,7.068605E-3,2.0527684E-3,2.5779095E-1,-1.1992588E-1,-1.8068597E-2,-7.9274154E-1,7.717086E-4,3.2380873E-3,-3.1743927E-3,3.4098158E-4,7.372638E-4,-3.9983816E-3,-1.7156256E-3,-6.6337613E-3],"categories":[],"categories_nodes":[],"categories_segments":[],"categories_sizes":[],"default_left":[0,0,0,0,0,0,0,0,0,0,0,0,0,0,0,0,0,0,0,0,0],"id":8,"left_children":[1,3,5,7,-1,9,11,-1,-1,13,15,17,19,-1,-1,-1,-1,-1,-1,-1,-1],"loss_changes":[9.346529E0,5.0020466E0,7.850249E0,5.511894E-1,0E0,9.272819E0,1.0163144E1,0E0,0E0,5.341358E0,1.22058E1,6.430361E0,5.852352E0,0E0,0E0,0E0,0E0,0E0,0E0,0E0,0E0],"parents":[2147483647,0,0,1,1,2,2,3,3,5,5,6,6,9,9,10,10,11,11,12,12],"right_children":[2,4,6,8,-1,10,12,-1,-1,14,16,18,20,-1,-1,-1,-1,-1,-1,-1,-1],"split_conditions":[6.6E-1,5.3154156E-3,1.2383318E-2,1.3272503E-1,-1.4916344E-3,4.4790212E-2,1.4937559E-2,7.068605E-3,2.0527684E-3,1.244172E-2,1.25E1,3.43E0,6.126121E1,7.717086E-4,3.2380873E-3,-3.1743927E-3,3.4098158E-4,7.372638E-4,-3.9983816E-3,-1.7156256E-3,-6.6337613E-3],"split_indices":[2,19,15,12,0,12,10,0,0,9,4,2,3,0,0,0,0,0,0,0,0],"split_type":[0,0,0,0,0,0,0,0,0,0,0,0,0,0,0,0,0,0,0,0,0],"sum_hessian":[3.4167404E2,1.0132044E1,3.3154202E2,7.9058776E0,2.226166E0,2.584786E2,7.306339E1,6.1764665E0,1.7294111E0,1.3392892E2,1.2454968E2,4.7792698E1,2.5270697E1,1.0694468E2,2.6984247E1,3.2690407E1,9.185928E1,4.0109947E1,7.682752E0,1.4611186E1,1.0659511E1],"tree_param":{"num_deleted":"0","num_feature":"21","num_nodes":"21","size_leaf_vector":"1"}},{"base_weights":[-3.429619E-2,-1.3308961E-2,-8.8200593E-1,2.9364958E-1,-8.921639E-2,-1.383304E-1,-1.1681294E0,8.139511E-1,4.7791895E-2,3.4833336E-1,-1.3628815E-1,-1.6560584E-3,5.816629E-4,-1.317515E0,-1.6574152E-3,4.776522E-3,-1.4738517E-3,-4.4578095E-3,7.418818E-4,-4.050019E-3,2.558732E-3,-2.625853E-3,-3.5475954E-4,-7.856037E-3,-1.6718818E-3],"categories":[],"categories_nodes":[],"categories_segments":[],"categories_sizes":[],"default_left":[0,0,0,0,0,0,0,0,0,0,0,0,0,0,0,0,0,0,0,0,0,0,0,0,0],"id":9,"left_children":[1,3,5,7,9,11,13,15,17,19,21,-1,-1,23,-1,-1,-1,-1,-1,-1,-1,-1,-1,-1,-1],"loss_changes":[6.2082214E0,7.9991436E0,1.6324043E0,8.66914E0,5.713625E0,2.0931286E-1,3.0744362E-1,3.6953535E0,4.600615E0,5.525761E0,6.2919903E0,0E0,0E0,6.508608E-1,0E0,0E0,0E0,0E0,0E0,0E0,0E0,0E0,0E0,0E0,0E0],"parents":[2147483647,0,0,1,1,2,2,3,3,4,4,5,5,6,6,7,7,8,8,9,9,10,10,13,13],"right_children":[2,4,6,8,10,12,14,16,18,20,22,-1,-1,24,-1,-1,-1,-1,-1,-1,-1,-1,-1,-1,-1],"split_conditions":[6.852933E1,1.57E0,8E-1,-5.4801144E-3,4.0939786E-3,2.6318878E-2,1.1871734E-2,2.4121689E-2,5.062041E-3,9.338072E-2,4.231028E-3,-1.6560584E-3,5.816629E-4,1.886E1,-1.6574152E-3,4.776522E-3,-1.4738517E-3,-4.4578095E-3,7.418818E-4,-4.050019E-3,2.558732E-3,-2.625853E-3,-3.5475954E-4,-7.856037E-3,-1.6718818E-3],"split_indices":[3,2,1,9,16,11,9,14,15,13,14,0,0,4,0,0,0,0,0,0,0,0,0,0,0],"split_type":[0,0,0,0,0,0,0,0,0,0,0,0,0,0,0,0,0,0,0,0,0,0,0,0,0],"sum_hessian":[3.4861124E2,3.4118015E2,7.4310894E0,6.707403E1,2.741061E2,2.476855E0,4.954234E0,2.0782328E1,4.6291702E1,2.6002552E1,2.4810355E2,1.2383459E0,1.2385092E0,3.7159786E0,1.2382555E0,1.8555075E1,2.2272544E0,3.716806E0,4.2574898E1,2.7256024E0,2.3276949E1,3.467563E1,2.1342792E2,2.4783118E0,1.2376668E0],"tree_param":{"num_deleted":"0","num_feature":"21","num_nodes":"25","size_leaf_vector":"1"}},{"base_weights":[2.586849E-2,6.272709E-1,-1.1855681E-2,9.258869E-1,-4.582231E-1,1.7273637E-2,-4.2671418E-1,7.876872E-3,3.1295404E-1,-9.112725E-1,2.7545327E-3,-2.7745832E-2,6.627145E-1,-1.754757E-1,-1.2052492E0,3.7640303E-3,-3.5821625E-3,-6.6568004E-3,-6.2155875E-4,-1.9277754E-3,1.0682624E-4,-3.018967E-3,4.247752E-3,1.6596661E-3,-2.639865E-3,-6.987864E-3,-1.6287328E-3],"categories":[],"categories_nodes":[],"categories_segments":[],"categories_sizes":[],"default_left":[0,0,0,0,0,0,0,0,0,0,0,0,0,0,0,0,0,0,0,0,0,0,0,0,0,0,0],"id":10,"left_children":[1,3,5,7,9,11,13,-1,15,17,-1,19,21,23,25,-1,-1,-1,-1,-1,-1,-1,-1,-1,-1,-1,-1],"loss_changes":[8.079428E0,7.237488E0,4.0650315E0,6.201021E0,2.8810844E0,9.162879E0,4.1050434E0,0E0,5.021383E0,1.1463306E0,0E0,5.1946387E0,5.377947E0,3.368745E0,4.2664242E-1,0E0,0E0,0E0,0E0,0E0,0E0,0E0,0E0,0E0,0E0,0E0,0E0],"parents":[2147483647,0,0,1,1,2,2,3,3,4,4,5,5,6,6,8,8,9,9,11,11,12,12,13,13,14,14],"right_children":[2,4,6,8,10,12,14,-1,16,18,-1,20,22,24,26,-1,-1,-1,-1,-1,-1,-1,-1,-1,-1,-1,-1],"split_conditions":[7.3E-1,3.6675632E-2,3.091151E-2,7.1414985E-2,6.2689155E-2,2.3065949E-2,7.6E-1,7.876872E-3,1.3576203E-2,4.529275E-3,2.7545327E-3,8.185706E-1,5.1708906E-3,2E1,2.104637E-1,3.7640303E-3,-3.5821625E-3,-6.6568004E-3,-6.2155875E-4,-1.9277754E-3,1.0682624E-4,-3.018967E-3,4.247752E-3,1.6596661E-3,-2.639865E-3,-6.987864E-3,-1.6287328E-3],"split_indices":[2,10,9,13,10,9,1,0,15,19,0,7,15,4,13,0,0,0,0,0,0,0,0,0,0,0,0],"split_type":[0,0,0,0,0,0,0,0,0,0,0,0,0,0,0,0,0,0,0,0,0,0,0,0,0,0,0],"sum_hessian":[3.5479172E2,2.0019005E1,3.347727E2,1.5815301E1,4.203704E0,3.137043E2,2.1068407E1,6.916299E0,8.899002E0,2.9681313E0,1.2355727E0,2.9414474E2,1.9559568E1,1.6854681E1,4.2137265E0,6.423118E0,2.4758835E0,1.4841193E0,1.484012E0,3.4673428E1,2.594713E2,2.227603E0,1.7331966E1,6.933074E0,9.921607E0,2.9742818E0,1.2394447E0],"tree_param":{"num_deleted":"0","num_feature":"21","num_nodes":"27","size_leaf_vector":"1"}},{"base_weights":[-5.6982093E-2,5.0929975E-2,-3.2003608E-1,1.0812884E-1,-4.8098397E-1,-5.5914754E-1,-2.6034258E-2,-1.4253E-1,2.5662082E-1,6.7822903E-1,-6.8307215E-1,-4.3073767E-1,-1.368745E0,-7.0089684E-3,5.5745594E-2,-3.007742E-5,-3.1375454E-3,2.840055E-3,7.069359E-4,-5.8306684E-4,5.765587E-3,1.5562416E-4,-4.342283E-3,-2.835037E-3,8.800268E-4,-1.5262461E-3,-8.190928E-3,7.505446E-4,-3.8042618E-3],"categories":[],"categories_nodes":[],"categories_segments":[],"categories_sizes":[],"default_left":[0,0,0,0,0,0,0,0,0,0,0,0,0,0,0,0,0,0,0,0,0,0,0,0,0,0,0,0,0],"id":11,"left_children":[1,3,5,7,9,11,13,15,17,19,21,23,25,-1,27,-1,-1,-1,-1,-1,-1,-1,-1,-1,-1,-1,-1,-1,-1],"loss_changes":[1.0228683E1,7.8398647E0,7.3520565E0,8.669336E0,6.328411E0,5.4131546E0,5.4840946E0,5.7513595E0,5.1587963E0,1.7267908E0,2.9157562E0,4.340927E0,1.633379E0,0E0,3.683078E0,0E0,0E0,0E0,0E0,0E0,0E0,0E0,0E0,0E0,0E0,0E0,0E0,0E0,0E0],"parents":[2147483647,0,0,1,1,2,2,3,3,4,4,5,5,6,6,7,7,8,8,9,9,10,10,11,11,12,12,14,14],"right_children":[2,4,6,8,10,12,14,16,18,20,22,24,26,-1,28,-1,-1,-1,-1,-1,-1,-1,-1,-1,-1,-1,-1,-1,-1],"split_conditions":[2.87E0,6.1634135E0,6.2788506E1,5.24859E-3,1.659E1,6.206997E0,5.665437E-3,7.565013E-3,7.386313E-3,6.264825E0,7.8165185E-1,6.1408142E1,1.1314523E-2,-7.0089684E-3,2.9823223E-1,-3.007742E-5,-3.1375454E-3,2.840055E-3,7.069359E-4,-5.8306684E-4,5.765587E-3,1.5562416E-4,-4.342283E-3,-2.835037E-3,8.800268E-4,-1.5262461E-3,-8.190928E-3,7.505446E-4,-3.8042618E-3],"split_indices":[2,5,3,14,4,5,16,17,17,5,18,3,17,0,19,0,0,0,0,0,0,0,0,0,0,0,0,0,0],"split_type":[0,0,0,0,0,0,0,0,0,0,0,0,0,0,0,0,0,0,0,0,0,0,0,0,0,0,0,0,0],"sum_hessian":[3.5875946E2,2.5497005E2,1.0378941E2,2.3093355E2,2.4036503E1,5.6740536E1,4.704888E1,8.592678E1,1.4500677E2,3.2185028E0,2.0818E1,5.0295265E1,6.4452696E0,1.7341807E0,4.53147E1,6.784251E1,1.8084269E1,3.8105896E1,1.0690087E2,1.4859092E0,1.7325937E0,4.4616246E0,1.6356377E1,4.1124508E1,9.170756E0,1.7339965E0,4.711273E0,4.135234E1,3.9623601E0],"tree_param":{"num_deleted":"0","num_feature":"21","num_nodes":"29","size_leaf_vector":"1"}},{"base_weights":[5.7109096E-3,-1.3640766E-1,2.0471776E-1,-4.177289E-2,-6.444087E-1,-9.190364E-2,3.3319867E-1,1.0290085E-1,-4.058317E-1,4.374161E-3,-7.708028E-1,2.954153E-1,-5.226913E-1,-5.3978927E-2,4.5940536E-1,-7.2048773E-4,1.5866277E-3,-2.9305038E-3,9.041708E-4,-4.3520033E-3,5.908273E-4,3.259099E-3,-8.9903333E-4,-4.1533397E-3,-1.4570944E-6,2.3327996E-3,-2.628725E-3,2.5836967E-3,-2.2437242E-3],"categories":[],"categories_nodes":[],"categories_segments":[],"categories_sizes":[],"default_left":[0,0,0,0,0,0,0,0,0,0,0,0,0,0,0,0,0,0,0,0,0,0,0,0,0,0,0,0,0],"id":12,"left_children":[1,3,5,7,9,11,13,15,17,-1,19,21,23,25,27,-1,-1,-1,-1,-1,-1,-1,-1,-1,-1,-1,-1,-1,-1],"loss_changes":[1.0118616E1,1.0008182E1,5.710602E0,9.365895E0,6.955432E0,7.801122E0,5.1170435E0,6.7976E0,5.45164E0,0E0,2.823616E0,4.312707E0,3.548633E0,6.756284E0,4.3295326E0,0E0,0E0,0E0,0E0,0E0,0E0,0E0,0E0,0E0,0E0,0E0,0E0,0E0,0E0],"parents":[2147483647,0,0,1,1,2,2,3,3,4,4,5,5,6,6,7,7,8,8,10,10,11,11,12,12,13,13,14,14],"right_children":[2,4,6,8,10,12,14,16,18,-1,20,22,24,26,28,-1,-1,-1,-1,-1,-1,-1,-1,-1,-1,-1,-1,-1,-1],"split_conditions":[9.971096E-1,1.53E0,1.8E-1,2.87E0,4.0939786E-3,-4.1E-1,4.418787E-3,6.4494153E-3,4.149906E-2,4.374161E-3,5.2358363E-2,1.1806629E0,7.1E-1,3.9823065E-3,2.3044739E-2,-7.2048773E-4,1.5866277E-3,-2.9305038E-3,9.041708E-4,-4.3520033E-3,5.908273E-4,3.259099E-3,-8.9903333E-4,-4.1533397E-3,-1.4570944E-6,2.3327996E-3,-2.628725E-3,2.5836967E-3,-2.2437242E-3],"split_indices":[18,6,1,2,16,6,14,14,11,0,10,18,6,15,14,0,0,0,0,0,0,0,0,0,0,0,0,0,0],"split_type":[0,0,0,0,0,0,0,0,0,0,0,0,0,0,0,0,0,0,0,0,0,0,0,0,0,0,0,0,0],"sum_hessian":[3.5578128E2,2.0774034E2,1.4804094E2,1.7603017E2,3.171017E1,4.482924E1,1.032117E2,1.2648393E2,4.9546238E1,1.9807183E0,2.9729452E1,2.3771053E1,2.1058186E1,2.5513512E1,7.769819E1,5.892987E1,6.755406E1,3.790107E1,1.1645171E1,2.6752996E1,2.9764566E0,1.3371302E1,1.0399752E1,1.2876719E1,8.181465E0,1.2134996E1,1.3378516E1,7.348959E1,4.208599E0],"tree_param":{"num_deleted":"0","num_feature":"21","num_nodes":"29","size_leaf_vector":"1"}},{"base_weights":[4.0369076E-3,3.8689975E-2,-6.662196E-1,7.292722E-1,3.7467697E-5,4.6059653E-2,-1.074369E0,-4.632868E-3,9.400531E-1,2.8834712E-2,-8.878524E-1,5.034521E-3,-3.225866E-1,-7.6662647E-3,1.1371145E-1,6.36342E-3,2.1848406E-3,3.7858426E-4,-2.0232291E-3,9.805355E-4,-5.914727E-3,-4.5579076E-3,3.8735557E-4,3.4492083E-3,-2.5382398E-3],"categories":[],"categories_nodes":[],"categories_segments":[],"categories_sizes":[],"default_left":[0,0,0,0,0,0,0,0,0,0,0,0,0,0,0,0,0,0,0,0,0,0,0,0,0],"id":13,"left_children":[1,3,5,7,9,11,13,-1,15,17,19,-1,21,-1,23,-1,-1,-1,-1,-1,-1,-1,-1,-1,-1],"loss_changes":[8.0881195E0,8.83527E0,5.026295E0,6.9943676E0,8.06585E0,2.8733814E0,6.130061E0,0E0,2.131319E0,6.2400928E0,3.4018593E0,0E0,1.4743595E0,0E0,1.773065E0,0E0,0E0,0E0,0E0,0E0,0E0,0E0,0E0,0E0,0E0],"parents":[2147483647,0,0,1,1,2,2,3,3,4,4,5,5,6,6,8,8,9,9,10,10,12,12,14,14],"right_children":[2,4,6,8,10,12,14,-1,16,18,20,-1,22,-1,24,-1,-1,-1,-1,-1,-1,-1,-1,-1,-1],"split_conditions":[3.6319748E-2,7.2E-1,1.3292389E-2,5.967974E-1,1.8017721E0,-2.5E-1,1.8519292E-2,-4.632868E-3,8.263419E-2,2.554E1,3.5539575E0,5.034521E-3,3.8483623E-2,-7.6662647E-3,8.083597E-1,6.36342E-3,2.1848406E-3,3.7858426E-4,-2.0232291E-3,9.805355E-4,-5.914727E-3,-4.5579076E-3,3.8735557E-4,3.4492083E-3,-2.5382398E-3],"split_indices":[9,2,16,18,18,1,15,0,13,4,5,0,9,0,18,0,0,0,0,0,0,0,0,0,0],"split_type":[0,0,0,0,0,0,0,0,0,0,0,0,0,0,0,0,0,0,0,0,0,0,0,0,0],"sum_hessian":[3.4611917E2,3.3000006E2,1.6119125E1,1.6544344E1,3.1345572E2,6.19504E0,9.924085E0,1.4847313E0,1.5059613E1,3.045458E2,8.909917E0,1.2377071E0,4.957333E0,6.9494143E0,2.9746704E0,8.144712E0,6.9149003E0,2.7556772E2,2.8978094E1,1.9783447E0,6.931572E0,1.4879848E0,3.4693482E0,1.4863237E0,1.4883468E0],"tree_param":{"num_deleted":"0","num_feature":"21","num_nodes":"25","size_leaf_vector":"1"}},{"base_weights":[1.6014926E-2,1.3826539E-1,-1.7219813E-1,3.3880234E-1,-5.4381426E-2,-7.0239822E-3,-1.3485572E-1,2.2900587E-1,8.439278E-1,-2.8611204E-1,1.9910808E-1,2.3090118E-1,-2.7881896E-1,2.2243275E-3,-6.857214E-4,7.47546E-3,2.5475502E-3,-4.460542E-3,-3.2298133E-4,1.3903524E-3,-5.0281864E-3,3.9568758E-3,-1.2814772E-3,-6.83413E-4,-4.893682E-3],"categories":[],"categories_nodes":[],"categories_segments":[],"categories_sizes":[],"default_left":[0,0,0,0,0,0,0,0,0,0,0,0,0,0,0,0,0,0,0,0,0,0,0,0,0],"id":14,"left_children":[1,3,5,7,9,-1,11,13,15,17,19,21,23,-1,-1,-1,-1,-1,-1,-1,-1,-1,-1,-1,-1],"loss_changes":[8.1018305E0,8.262282E0,6.1941533E0,5.6130733E0,6.5007567E0,0E0,7.2106285E0,6.9665976E0,3.2277803E0,7.690424E0,5.3195057E0,1.0818981E1,9.599572E0,0E0,0E0,0E0,0E0,0E0,0E0,0E0,0E0,0E0,0E0,0E0,0E0],"parents":[2147483647,0,0,1,1,2,2,3,3,4,4,6,6,7,7,8,8,9,9,10,10,11,11,12,12],"right_children":[2,4,6,8,10,-1,12,14,16,18,20,22,24,-1,-1,-1,-1,-1,-1,-1,-1,-1,-1,-1,-1],"split_conditions":[9.557863E-3,4.4790212E-2,9.7311875E-3,1.4187469E-1,6.1620404E-3,-7.0239822E-3,1.0926507E-2,1.466E1,1.72E1,1.3874852E-2,2.8174164E-2,7.2683865E-4,9.338072E-2,2.2243275E-3,-6.857214E-4,7.47546E-3,2.5475502E-3,-4.460542E-3,-3.2298133E-4,1.3903524E-3,-5.0281864E-3,3.9568758E-3,-1.2814772E-3,-6.83413E-4,-4.893682E-3],"split_indices":[16,12,16,20,16,0,17,4,4,19,9,10,13,0,0,0,0,0,0,0,0,0,0,0,0],"split_type":[0,0,0,0,0,0,0,0,0,0,0,0,0,0,0,0,0,0,0,0,0,0,0,0,0],"sum_hessian":[3.5007895E2,2.123901E2,1.3768884E2,1.03692276E2,1.0869782E2,2.9719338E0,1.3471692E2,8.637152E1,1.7320757E1,5.6718864E1,5.1978954E1,3.7878326E1,9.6838585E1,5.4202232E1,3.216929E1,4.6994514E0,1.2621306E1,1.4372636E1,4.234623E1,4.950354E1,2.4754145E0,1.7324162E1,2.0554165E1,8.148602E1,1.5352563E1],"tree_param":{"num_deleted":"0","num_feature":"21","num_nodes":"25","size_leaf_vector":"1"}},{"base_weights":[1.1854666E-2,1.1653813E-1,-2.4295625E-1,5.875967E-2,5.686814E-1,-2.6657736E-2,-6.219242E-1,-3.7653452E-1,1.1014431E-1,8.7169224E-1,-1.754959E-1,-3.210583E-1,2.1682484E-1,3.2182783E-3,-8.8395464E-1,-6.4682844E-3,-3.9255686E-4,6.8707083E-4,-4.385451E-3,5.2768337E-3,-3.3892116E-3,3.2034894E-3,-4.7752396E-3,-7.034719E-4,-3.679169E-3,-3.9150665E-4,3.3367756E-3,5.0600404E-3,-1.0435287E-3,-5.617516E-3,-1.12148E-3],"categories":[],"categories_nodes":[],"categories_segments":[],"categories_sizes":[],"default_left":[0,0,0,0,0,0,0,0,0,0,0,0,0,0,0,0,0,0,0,0,0,0,0,0,0,0,0,0,0,0,0],"id":15,"left_children":[1,3,5,7,9,11,13,15,17,19,21,23,25,27,29,-1,-1,-1,-1,-1,-1,-1,-1,-1,-1,-1,-1,-1,-1,-1,-1],"loss_changes":[9.327139E0,6.439294E0,8.330963E0,4.9803925E0,6.4575386E0,4.7917995E0,6.056945E0,6.3324103E0,5.458266E0,6.4179316E0,6.2889833E0,2.1575253E0,4.9258513E0,2.757913E0,3.8638878E0,0E0,0E0,0E0,0E0,0E0,0E0,0E0,0E0,0E0,0E0,0E0,0E0,0E0,0E0,0E0,0E0],"parents":[2147483647,0,0,1,1,2,2,3,3,4,4,5,5,6,6,7,7,8,8,9,9,10,10,11,11,12,12,13,13,14,14],"right_children":[2,4,6,8,10,12,14,16,18,20,22,24,26,28,30,-1,-1,-1,-1,-1,-1,-1,-1,-1,-1,-1,-1,-1,-1,-1,-1],"split_conditions":[2.87E0,1.3696957E-2,1.0926507E-2,8.133022E-1,5.7236817E-2,7.6586474E-3,-1.2801015E-1,5.115347E-3,6.476203E0,2.286751E0,4.074551E-2,7.2569624E-3,3.73E0,2.472E1,6.2788506E1,-6.4682844E-3,-3.9255686E-4,6.8707083E-4,-4.385451E-3,5.2768337E-3,-3.3892116E-3,3.2034894E-3,-4.7752396E-3,-7.034719E-4,-3.679169E-3,-3.9150665E-4,3.3367756E-3,5.0600404E-3,-1.0435287E-3,-5.617516E-3,-1.12148E-3],"split_indices":[2,17,17,7,11,17,13,15,5,7,10,17,2,4,3,0,0,0,0,0,0,0,0,0,0,0,0,0,0,0,0],"split_type":[0,0,0,0,0,0,0,0,0,0,0,0,0,0,0,0,0,0,0,0,0,0,0,0,0,0,0,0,0,0,0],"sum_hessian":[3.476037E2,2.467674E2,1.008363E2,2.1980847E2,2.6958914E1,6.487742E1,3.5958885E1,2.253977E1,1.972687E2,1.9036404E1,7.92251E0,2.9223719E1,3.5653698E1,1.0912341E1,2.5046541E1,4.708687E0,1.7831083E1,1.9280379E2,4.46491E0,1.7304163E1,1.7322396E0,3.9573114E0,3.9651985E0,2.1300476E1,7.9232426E0,2.2041384E1,1.3612315E1,1.2390318E0,9.673309E0,1.785831E1,7.1882305E0],"tree_param":{"num_deleted":"0","num_feature":"21","num_nodes":"31","size_leaf_vector":"1"}},{"base_weights":[3.9966825E-2,1.3398732E-1,-1.9746985E-1,2.7134898E-1,-4.6029147E-3,2.244492E-2,-5.4328316E-1,4.3465984E-1,-1.8493745E-2,7.6328284E-1,-5.0850537E-2,1.2618524E-1,-5.8770007E-1,-2.2168355E-1,-9.58664E-1,-3.3470087E-3,2.5656917E-3,5.327588E-4,-3.5564476E-3,5.988735E-3,-3.9018982E-3,6.966925E-4,-1.4579352E-3,-2.385559E-4,4.633437E-3,-4.851649E-3,1.2956222E-3,-3.3085644E-3,7.737806E-4,-6.9619E-3,-3.8666403E-4],"categories":[],"categories_nodes":[],"categories_segments":[],"categories_sizes":[],"default_left":[0,0,0,0,0,0,0,0,0,0,0,0,0,0,0,0,0,0,0,0,0,0,0,0,0,0,0,0,0,0,0],"id":16,"left_children":[1,3,5,7,9,11,13,15,17,19,21,23,25,27,29,-1,-1,-1,-1,-1,-1,-1,-1,-1,-1,-1,-1,-1,-1,-1,-1],"loss_changes":[8.068511E0,4.925232E0,7.8141303E0,6.157696E0,4.6460533E0,4.104308E0,5.1201773E0,7.5470667E0,4.215057E0,5.9191813E0,5.686074E0,7.7340846E0,3.30671E0,4.044813E0,6.436036E0,0E0,0E0,0E0,0E0,0E0,0E0,0E0,0E0,0E0,0E0,0E0,0E0,0E0,0E0,0E0,0E0],"parents":[2147483647,0,0,1,1,2,2,3,3,4,4,5,5,6,6,7,7,8,8,9,9,10,10,11,11,12,12,13,13,14,14],"right_children":[2,4,6,8,10,12,14,16,18,20,22,24,26,28,30,-1,-1,-1,-1,-1,-1,-1,-1,-1,-1,-1,-1,-1,-1,-1,-1],"split_conditions":[2.87E0,1.18E0,8.8E-1,2.0430122E-2,-1.9720182E-2,5.7965368E-2,3.08E0,-6.6235095E-2,1.0121553E0,-3.1178098E-2,7.386313E-3,3.0902816E-2,3.83E0,2.94E0,2.862E1,-3.3470087E-3,2.5656917E-3,5.327588E-4,-3.5564476E-3,5.988735E-3,-3.9018982E-3,6.966925E-4,-1.4579352E-3,-2.385559E-4,4.633437E-3,-4.851649E-3,1.2956222E-3,-3.3085644E-3,7.737806E-4,-6.9619E-3,-3.8666403E-4],"split_indices":[2,6,6,10,19,11,2,10,7,11,17,10,2,2,4,0,0,0,0,0,0,0,0,0,0,0,0,0,0,0,0],"split_type":[0,0,0,0,0,0,0,0,0,0,0,0,0,0,0,0,0,0,0,0,0,0,0,0,0,0,0,0,0,0,0],"sum_hessian":[3.592438E2,2.576535E2,1.015903E2,1.2891922E2,1.287343E2,6.267083E1,3.891947E1,8.213878E1,4.6780445E1,6.43214E0,1.22302155E2,5.4241558E1,8.429269E0,2.2800423E1,1.6119047E1,4.951381E0,7.718739E1,4.0344673E1,6.435772E0,5.1942925E0,1.237847E0,6.855939E1,5.3742767E1,4.533389E1,8.907671E0,5.7054634E0,2.7238054E0,1.0162922E1,1.2637502E1,1.0414205E1,5.7048435E0],"tree_param":{"num_deleted":"0","num_feature":"21","num_nodes":"31","size_leaf_vector":"1"}},{"base_weights":[-1.1108599E-2,3.1401698E-2,-6.254083E-1,-2.2210984E-1,1.0709694E-1,6.704231E-1,-8.6893684E-1,2.1912128E-1,-4.81658E-1,3.5661635E-1,-1.4264275E-2,-1.6878148E-3,6.0122684E-3,-1.0916413E0,2.1428764E-1,-6.037068E-3,1.9090564E-3,-7.5328723E-3,-1.6580562E-3,-3.5518727E-3,2.1251964E-3,1.1258511E-4,-3.215279E-3,-5.995924E-3,6.6886266E-4,5.4539284E-3,-3.301762E-3],"categories":[],"categories_nodes":[],"categories_segments":[],"categories_sizes":[],"default_left":[0,0,0,0,0,0,0,0,0,0,0,0,0,0,0,0,0,0,0,0,0,0,0,0,0,0,0],"id":17,"left_children":[1,3,5,7,9,11,13,15,17,19,21,-1,-1,23,25,-1,-1,-1,-1,-1,-1,-1,-1,-1,-1,-1,-1],"loss_changes":[9.310023E0,6.4271355E0,7.8639193E0,8.929476E0,7.8068514E0,2.6661825E0,5.024643E0,7.2435703E0,7.009164E0,6.459588E0,4.0455008E0,0E0,0E0,2.3528404E0,3.957358E0,0E0,0E0,0E0,0E0,0E0,0E0,0E0,0E0,0E0,0E0,0E0,0E0],"parents":[2147483647,0,0,1,1,2,2,3,3,4,4,5,5,6,6,7,7,8,8,9,9,10,10,13,13,14,14],"right_children":[2,4,6,8,10,12,14,16,18,20,22,-1,-1,24,26,-1,-1,-1,-1,-1,-1,-1,-1,-1,-1,-1,-1],"split_conditions":[3.20296E-2,1.4E-1,1.577E1,-1.06E0,9.8E-1,1.048214E-1,1.060437E0,5.665437E-3,7.635506E-3,-6.6235095E-2,8.9684896E-2,-1.6878148E-3,6.0122684E-3,2.348301E-1,2.757E1,-6.037068E-3,1.9090564E-3,-7.5328723E-3,-1.6580562E-3,-3.5518727E-3,2.1251964E-3,1.1258511E-4,-3.215279E-3,-5.995924E-3,6.6886266E-4,5.4539284E-3,-3.301762E-3],"split_indices":[9,1,4,6,6,13,7,16,16,10,12,0,0,19,4,0,0,0,0,0,0,0,0,0,0,0,0],"split_type":[0,0,0,0,0,0,0,0,0,0,0,0,0,0,0,0,0,0,0,0,0,0,0,0,0,0,0],"sum_hessian":[3.5476172E2,3.3268817E2,2.207355E1,7.605097E1,2.566372E2,3.2147415E0,1.8858809E1,2.8224747E1,4.7826225E1,8.334365E1,1.7329355E2,1.2368752E0,1.9778662E0,1.5636307E1,3.2225013E0,2.2320065E0,2.599274E1,4.953042E0,4.2873184E1,4.457113E0,7.888654E1,1.6462779E2,8.66575E0,1.439444E1,1.2418674E0,1.4861095E0,1.7363918E0],"tree_param":{"num_deleted":"0","num_feature":"21","num_nodes":"27","size_leaf_vector":"1"}},{"base_weights":[-1.4202003E-2,8.065372E-2,-2.5706804E-1,1.1947779E-1,-6.926996E-1,-3.4571806E-1,2.1617569E-1,6.94313E-1,7.254992E-2,-2.1969366E-1,-1.1478037E0,1.6483957E-1,-4.5059076E-1,-3.328893E-1,9.009216E-1,5.4443036E-3,2.623846E-4,4.13848E-3,2.0469539E-4,2.2848083E-3,-4.415614E-3,1.4664071E-3,-8.461507E-3,4.044767E-3,-1.0638441E-3,-6.617362E-3,-1.6399696E-3,1.370745E-3,-4.8179245E-3,6.2753228E-3,6.7591586E-4],"categories":[],"categories_nodes":[],"categories_segments":[],"categories_sizes":[],"default_left":[0,0,0,0,0,0,0,0,0,0,0,0,0,0,0,0,0,0,0,0,0,0,0,0,0,0,0,0,0,0,0],"id":18,"left_children":[1,3,5,7,9,11,13,15,17,19,21,23,25,27,29,-1,-1,-1,-1,-1,-1,-1,-1,-1,-1,-1,-1,-1,-1,-1,-1],"loss_changes":[8.051206E0,7.6321964E0,4.1922693E0,6.4312086E0,2.366898E0,4.520874E0,6.35295E0,4.5056744E0,5.29541E0,3.6369226E0,5.1760135E0,3.7921777E0,6.967181E0,3.9646015E0,1.8464227E0,0E0,0E0,0E0,0E0,0E0,0E0,0E0,0E0,0E0,0E0,0E0,0E0,0E0,0E0,0E0,0E0],"parents":[2147483647,0,0,1,1,2,2,3,3,4,4,5,5,6,6,7,7,8,8,9,9,10,10,11,11,12,12,13,13,14,14],"right_children":[2,4,6,8,10,12,14,16,18,20,22,24,26,28,30,-1,-1,-1,-1,-1,-1,-1,-1,-1,-1,-1,-1,-1,-1,-1,-1],"split_conditions":[2.87E0,3.7158195E-2,6.4547035E1,7.2E-1,1.44010885E-2,-1.983118E-2,9.080413E-2,6.2668556E1,3.524078E-2,6.433318E1,6.90757E-1,6.0493206E1,-1.179492E-2,5.9808055E-3,1.29342545E-2,5.4443036E-3,2.623846E-4,4.13848E-3,2.0469539E-4,2.2848083E-3,-4.415614E-3,1.4664071E-3,-8.461507E-3,4.044767E-3,-1.0638441E-3,-6.617362E-3,-1.6399696E-3,1.370745E-3,-4.8179245E-3,6.2753228E-3,6.7591586E-4],"split_indices":[2,9,3,2,16,9,20,3,20,3,18,3,9,15,9,0,0,0,0,0,0,0,0,0,0,0,0,0,0,0,0],"split_type":[0,0,0,0,0,0,0,0,0,0,0,0,0,0,0,0,0,0,0,0,0,0,0,0,0,0,0,0,0,0,0],"sum_hessian":[3.4758667E2,2.5044052E2,9.7146164E1,2.3927394E2,1.1166582E1,8.2046364E1,1.5099804E1,1.7018108E1,2.2225583E2,6.2026644E0,4.963918E0,1.3883711E1,6.816265E1,8.665336E0,6.4344683E0,1.0108043E1,6.9100666E0,7.918085E0,2.1433774E2,3.224794E0,2.9778707E0,1.4877537E0,3.4761643E0,4.7089705E0,9.17474E0,7.1881495E0,6.0974503E1,4.703544E0,3.9617915E0,3.9627347E0,2.4717336E0],"tree_param":{"num_deleted":"0","num_feature":"21","num_nodes":"31","size_leaf_vector":"1"}},{"base_weights":[-1.2633582E-2,1.4931706E-1,-1.136898E-1,3.31464E-1,-1.4021206E-1,-8.33696E-1,-6.112783E-2,-5.7193446E-1,4.1315973E-1,5.6784754E-3,-2.0436633E-1,-1.1300012E0,5.4904413E-3,-3.2970935E-2,-8.626983E-1,-5.8117495E-3,2.1774475E-3,2.2565147E-3,-4.657584E-3,1.7345699E-3,-1.7518371E-3,-1.2496655E-3,-6.9216657E-3,-4.4087443E-4,2.7747664E-3,-7.5244214E-3,-1.2008084E-3],"categories":[],"categories_nodes":[],"categories_segments":[],"categories_sizes":[],"default_left":[0,0,0,0,0,0,0,0,0,0,0,0,0,0,0,0,0,0,0,0,0,0,0,0,0,0,0],"id":19,"left_children":[1,3,5,7,9,11,13,15,17,-1,19,21,-1,23,25,-1,-1,-1,-1,-1,-1,-1,-1,-1,-1,-1,-1],"loss_changes":[5.851626E0,7.293296E0,8.278448E0,6.4835463E0,4.633282E0,9.766702E0,4.625394E0,4.9310894E0,4.431672E0,0E0,4.3102417E0,2.65489E0,0E0,6.547885E0,2.4201317E0,0E0,0E0,0E0,0E0,0E0,0E0,0E0,0E0,0E0,0E0,0E0,0E0],"parents":[2147483647,0,0,1,1,2,2,3,3,4,4,5,5,6,6,7,7,8,8,10,10,11,11,13,13,14,14],"right_children":[2,4,6,8,10,12,14,16,18,-1,20,22,-1,24,26,-1,-1,-1,-1,-1,-1,-1,-1,-1,-1,-1,-1],"split_conditions":[2.3179758E-2,1.3496725E-2,-2.2410287E-2,4.111014E-3,6.3E-1,7.1E-1,3.6319748E-2,2.2382434E-2,1.25E0,5.6784754E-3,-2.9032908E-2,-1.7061552E-2,5.4904413E-3,2.256213E-2,3.8483623E-2,-5.8117495E-3,2.1774475E-3,2.2565147E-3,-4.657584E-3,1.7345699E-3,-1.7518371E-3,-1.2496655E-3,-6.9216657E-3,-4.4087443E-4,2.7747664E-3,-7.5244214E-3,-1.2008084E-3],"split_indices":[12,15,13,14,2,6,9,19,1,0,9,9,0,9,9,0,0,0,0,0,0,0,0,0,0,0,0],"split_type":[0,0,0,0,0,0,0,0,0,0,0,0,0,0,0,0,0,0,0,0,0,0,0,0,0,0,0],"sum_hessian":[3.5550787E2,1.3641478E2,2.190931E2,8.364664E1,5.276814E1,1.3894995E1,2.051981E2,6.4393196E0,7.720731E1,1.7266078E0,5.104153E1,1.2407004E1,1.4879909E0,1.9924048E2,5.9576197E0,3.962976E0,2.4763436E0,7.572371E1,1.4836066E0,1.0399254E1,4.0642277E1,3.2261648E0,9.18084E0,1.829154E2,1.6325071E1,2.2348688E0,3.7227511E0],"tree_param":{"num_deleted":"0","num_feature":"21","num_nodes":"27","size_leaf_vector":"1"}},{"base_weights":[2.3402255E-2,1.1559896E-1,-2.2131078E-1,3.4889245E-1,-2.1176027E-2,-6.280906E-2,-7.1136475E-1,1.6911349E-1,7.694814E-1,1.0332171E-2,-6.109549E-3,9.361864E-2,-5.6942534E-1,5.6539204E-2,-1.1359094E0,-3.5410612E-3,1.3573832E-3,1.8623429E-3,6.8766186E-3,2.9537003E-3,-2.5631243E-4,-5.1206094E-4,3.8702493E-3,-7.1340273E-3,-8.845992E-4,4.390503E-3,-2.2917893E-3,-3.661764E-4,-8.359453E-3],"categories":[],"categories_nodes":[],"categories_segments":[],"categories_sizes":[],"default_left":[0,0,0,0,0,0,0,0,0,0,0,0,0,0,0,0,0,0,0,0,0,0,0,0,0,0,0,0,0],"id":20,"left_children":[1,3,5,7,9,11,13,15,17,19,-1,21,23,25,27,-1,-1,-1,-1,-1,-1,-1,-1,-1,-1,-1,-1,-1,-1],"loss_changes":[8.068648E0,8.2906685E0,7.5595217E0,7.128813E0,6.239622E0,6.002494E0,7.8326178E0,6.347151E0,6.334505E0,5.7994385E0,0E0,7.8446813E0,5.7552075E0,4.3942127E0,8.644695E0,0E0,0E0,0E0,0E0,0E0,0E0,0E0,0E0,0E0,0E0,0E0,0E0,0E0,0E0],"parents":[2147483647,0,0,1,1,2,2,3,3,4,4,5,5,6,6,7,7,8,8,9,9,11,11,12,12,13,13,14,14],"right_children":[2,4,6,8,10,12,14,16,18,20,-1,22,24,26,28,-1,-1,-1,-1,-1,-1,-1,-1,-1,-1,-1,-1,-1,-1],"split_conditions":[2.87E0,2.6652578E-2,1.3241899E-2,2.31E0,2.0169945E0,2.5E-1,8.115919E-1,4.587047E-3,1.472238E-2,7.2E-1,-6.109549E-3,-3.1E-1,4.554419E-3,1.26E0,-2.9032908E-2,-3.5410612E-3,1.3573832E-3,1.8623429E-3,6.8766186E-3,2.9537003E-3,-2.5631243E-4,-5.1206094E-4,3.8702493E-3,-7.1340273E-3,-8.845992E-4,4.390503E-3,-2.2917893E-3,-3.661764E-4,-8.359453E-3],"split_indices":[2,12,15,2,18,1,18,14,15,2,0,1,14,6,9,0,0,0,0,0,0,0,0,0,0,0,0,0,0],"split_type":[0,0,0,0,0,0,0,0,0,0,0,0,0,0,0,0,0,0,0,0,0,0,0,0,0,0,0,0,0],"sum_hessian":[3.5549142E2,2.5859302E2,9.689844E1,9.500117E1,1.6359184E2,7.40697E1,2.2828735E1,6.753549E1,2.7465675E1,1.6037488E2,3.2169673E0,5.7217793E1,1.6851906E1,8.436275E0,1.4392461E1,6.4380617E0,6.1097427E1,1.7568022E1,9.897654E0,1.4562387E1,1.4581248E2,4.507987E1,1.2137927E1,4.4645414E0,1.2387364E1,2.978476E0,5.457798E0,5.206441E0,9.186019E0],"tree_param":{"num_deleted":"0","num_feature":"21","num_nodes":"29","size_leaf_vector":"1"}},{"base_weights":[5.547129E-2,7.3555484E-2,-6.2944776E-1,1.0997412E-1,-2.446202E-1,9.267795E-2,-7.2802617E-3,2.9057145E-2,3.6109206E-1,1.1031241E-1,-1.0537717E0,-5.1025873E-1,5.3970357E-3,-1.3488339E-3,6.89919E-4,3.509163E-3,-7.03143E-4,-3.9638365E-3,2.247321E-3,6.3744315E-4,-6.1136014E-3,9.999046E-4,-6.139535E-3],"categories":[],"categories_nodes":[],"categories_segments":[],"categories_sizes":[],"default_left":[0,0,0,0,0,0,0,0,0,0,0,0,0,0,0,0,0,0,0,0,0,0,0],"id":21,"left_children":[1,3,5,7,9,11,-1,13,15,17,19,21,-1,-1,-1,-1,-1,-1,-1,-1,-1,-1,-1],"loss_changes":[4.290003E0,3.905211E0,5.458288E0,6.105977E0,1.007764E1,3.9419298E0,0E0,7.482771E0,1.2624534E1,8.017889E0,2.2853947E0,2.3950295E0,0E0,0E0,0E0,0E0,0E0,0E0,0E0,0E0,0E0,0E0,0E0],"parents":[2147483647,0,0,1,1,2,2,3,3,4,4,5,5,7,7,8,8,9,9,10,10,11,11],"right_children":[2,4,6,8,10,12,-1,14,16,18,20,22,-1,-1,-1,-1,-1,-1,-1,-1,-1,-1,-1],"split_conditions":[1.9504747E0,5.7236817E-2,2.0806279E-2,3.1126777E-2,4.074551E-2,-2.4058962E-2,-7.2802617E-3,1.8E-1,5.4E-1,6.2053896E-2,-4.7E-1,-2.5705108E-2,5.3970357E-3,-1.3488339E-3,6.89919E-4,3.509163E-3,-7.03143E-4,-3.9638365E-3,2.247321E-3,6.3744315E-4,-6.1136014E-3,9.999046E-4,-6.139535E-3],"split_indices":[18,11,12,11,10,11,0,1,1,11,1,12,0,0,0,0,0,0,0,0,0,0,0],"split_type":[0,0,0,0,0,0,0,0,0,0,0,0,0,0,0,0,0,0,0,0,0,0,0],"sum_hessian":[3.4161508E2,3.3369696E2,7.9181304E0,3.0001175E2,3.368521E1,4.700037E0,3.2180934E0,2.2774263E2,7.226911E1,2.4014828E1,9.670384E0,3.2171125E0,1.4829242E0,6.04448E1,1.6729784E2,4.2801727E1,2.946738E1,6.1913233E0,1.7823505E1,1.2407389E0,8.429646E0,1.9794431E0,1.2376696E0],"tree_param":{"num_deleted":"0","num_feature":"21","num_nodes":"23","size_leaf_vector":"1"}},{"base_weights":[9.779321E-3,9.895375E-2,-1.9483799E-1,1.3201995E-1,-7.239572E-1,-4.765871E-1,1.810596E-1,8.139547E-2,6.308118E-1,-1.0662072E0,3.4737778E-3,-2.624158E-1,-1.1472406E0,9.000439E-1,8.884546E-2,1.6208331E-3,-8.095174E-5,-3.243089E-3,4.3372186E-3,1.6400519E-4,-7.4155545E-3,3.1193008E-3,-2.5069485E-3,-2.5881836E-3,-8.622769E-3,6.681567E-3,-5.7830533E-4,1.8926376E-3,-1.2741978E-3],"categories":[],"categories_nodes":[],"categories_segments":[],"categories_sizes":[],"default_left":[0,0,0,0,0,0,0,0,0,0,0,0,0,0,0,0,0,0,0,0,0,0,0,0,0,0,0,0,0],"id":22,"left_children":[1,3,5,7,9,11,13,15,17,19,-1,21,23,25,27,-1,-1,-1,-1,-1,-1,-1,-1,-1,-1,-1,-1,-1,-1],"loss_changes":[6.465175E0,6.808464E0,1.147817E1,5.9588547E0,5.4429913E0,8.5692835E0,3.023356E0,5.1517487E0,7.157628E0,3.8041801E0,0E0,1.0501226E1,4.432806E0,2.4638028E0,4.337253E0,0E0,0E0,0E0,0E0,0E0,0E0,0E0,0E0,0E0,0E0,0E0,0E0,0E0,0E0],"parents":[2147483647,0,0,1,1,2,2,3,3,4,4,5,5,6,6,7,7,8,8,9,9,11,11,12,12,13,13,14,14],"right_children":[2,4,6,8,10,12,14,16,18,20,-1,22,24,26,28,-1,-1,-1,-1,-1,-1,-1,-1,-1,-1,-1,-1,-1,-1],"split_conditions":[2.83E0,6.4574137E0,6.2788506E1,6.76786E1,1.4577543E-2,6.081931E0,6.3110767E1,5.8942866E-2,5.115347E-3,7.4865506E-3,3.4737778E-3,-2.1064324E-2,1.5656486E-2,3.81E0,1.569E1,1.6208331E-3,-8.095174E-5,-3.243089E-3,4.3372186E-3,1.6400519E-4,-7.4155545E-3,3.1193008E-3,-2.5069485E-3,-2.5881836E-3,-8.622769E-3,6.681567E-3,-5.7830533E-4,1.8926376E-3,-1.2741978E-3],"split_indices":[2,5,3,3,15,5,3,13,15,14,0,9,15,2,4,0,0,0,0,0,0,0,0,0,0,0,0,0,0],"split_type":[0,0,0,0,0,0,0,0,0,0,0,0,0,0,0,0,0,0,0,0,0,0,0,0,0,0,0,0,0],"sum_hessian":[3.522649E2,2.4570178E2,1.06563095E2,2.3701752E2,8.684265E0,6.0756214E1,4.5806885E1,2.1623419E2,2.0783333E1,7.196622E0,1.4876431E0,4.7104736E1,1.3651478E1,4.211315E0,4.159557E1,6.1332104E1,1.5490208E2,2.9721847E0,1.7811148E1,2.2325845E0,4.9640374E0,9.66178E0,3.7442955E1,7.4372363E0,6.214241E0,2.725148E0,1.4861673E0,2.2516062E1,1.9079508E1],"tree_param":{"num_deleted":"0","num_feature":"21","num_nodes":"29","size_leaf_vector":"1"}},{"base_weights":[-1.26881795E-2,9.0511E-2,-1.5660107E-1,1.5507664E-1,-4.2420724E-1,-5.5047166E-1,-6.8229154E-2,1.2381959E-1,1.0425928E0,4.382416E-1,-8.678135E-1,-9.266451E-2,-1.1551635E0,-9.0644285E-3,-8.724416E-1,1.1613936E-3,-5.649669E-4,1.3533087E-3,6.1386502E-3,4.078967E-3,-3.394532E-3,-1.4199662E-3,-7.072709E-3,-5.0793323E-3,1.516067E-3,3.4313436E-4,-6.88088E-3,6.053291E-4,-1.3620771E-3,-7.221921E-3,-1.2104816E-3],"categories":[],"categories_nodes":[],"categories_segments":[],"categories_sizes":[],"default_left":[0,0,0,0,0,0,0,0,0,0,0,0,0,0,0,0,0,0,0,0,0,0,0,0,0,0,0,0,0,0,0],"id":23,"left_children":[1,3,5,7,9,11,13,15,17,19,21,23,25,27,29,-1,-1,-1,-1,-1,-1,-1,-1,-1,-1,-1,-1,-1,-1,-1,-1],"loss_changes":[5.3192315E0,7.0002313E0,5.167545E0,5.034537E0,9.380516E0,7.440037E0,5.8578377E0,4.6735687E0,5.5342865E-1,4.2042174E0,4.66381E0,6.3759317E0,3.2480202E0,4.0028663E0,2.6922054E0,0E0,0E0,0E0,0E0,0E0,0E0,0E0,0E0,0E0,0E0,0E0,0E0,0E0,0E0,0E0,0E0],"parents":[2147483647,0,0,1,1,2,2,3,3,4,4,5,5,6,6,7,7,8,8,9,9,10,10,11,11,12,12,13,13,14,14],"right_children":[2,4,6,8,10,12,14,16,18,20,22,24,26,28,30,-1,-1,-1,-1,-1,-1,-1,-1,-1,-1,-1,-1,-1,-1,-1,-1],"split_conditions":[4.4790212E-2,2.992E1,1.209E1,2.846E1,5.8382294E1,4.6723966E-2,6.839266E1,2.87E0,8.2E-1,3.1844936E-2,5.329597E-1,8.622369E-1,6.5860575E-1,1.5973061E-1,6.472798E-3,1.1613936E-3,-5.649669E-4,1.3533087E-3,6.1386502E-3,4.078967E-3,-3.394532E-3,-1.4199662E-3,-7.072709E-3,-5.0793323E-3,1.516067E-3,3.4313436E-4,-6.88088E-3,6.053291E-4,-1.3620771E-3,-7.221921E-3,-1.2104816E-3],"split_indices":[12,4,4,4,3,20,3,2,2,10,20,18,18,20,14,0,0,0,0,0,0,0,0,0,0,0,0,0,0,0,0],"split_type":[0,0,0,0,0,0,0,0,0,0,0,0,0,0,0,0,0,0,0,0,0,0,0,0,0,0,0,0,0,0,0],"sum_hessian":[3.562022E2,2.0766081E2,1.4854141E2,1.8513626E2,2.2524551E1,2.6262281E1,1.2227913E2,1.799386E2,5.197666E0,7.654652E0,1.48699E1,1.5602784E1,1.0659496E1,1.1484167E2,7.437462E0,1.2342824E2,5.6510357E1,1.4816922E0,3.7159739E0,5.9227505E0,1.7319015E0,7.925813E0,6.9440866E0,4.2126403E0,1.1390144E1,1.736062E0,8.923434E0,7.722338E1,3.7618286E1,3.2222981E0,4.2151637E0],"tree_param":{"num_deleted":"0","num_feature":"21","num_nodes":"31","size_leaf_vector":"1"}},{"base_weights":[-2.5786294E-2,1.341625E-2,-6.064153E-1,-3.4099293E-1,8.503378E-2,2.2832169E-1,-9.6457803E-1,-7.201267E-1,6.1119664E-2,3.8565155E-2,7.497308E-1,-4.5708064E-3,8.925923E-1,2.841408E-3,-1.1360261E0,2.6101852E-3,-4.3570525E-3,2.1876337E-3,-1.5962279E-3,-4.785466E-3,2.8994467E-4,5.881265E-3,1.2247867E-3,6.6396343E-3,-5.9176085E-4,1.4377363E-5,-7.0129405E-3],"categories":[],"categories_nodes":[],"categories_segments":[],"categories_sizes":[],"default_left":[0,0,0,0,0,0,0,0,0,0,0,0,0,0,0,0,0,0,0,0,0,0,0,0,0,0,0],"id":24,"left_children":[1,3,5,7,9,11,13,15,17,19,21,-1,23,-1,25,-1,-1,-1,-1,-1,-1,-1,-1,-1,-1,-1,-1],"loss_changes":[7.9422717E0,8.341568E0,6.8177967E0,8.467764E0,8.410978E0,6.457975E0,4.754092E0,5.81398E0,4.1107407E0,5.0150185E0,3.5441666E0,0E0,2.44874E0,0E0,4.373884E0,0E0,0E0,0E0,0E0,0E0,0E0,0E0,0E0,0E0,0E0,0E0,0E0],"parents":[2147483647,0,0,1,1,2,2,3,3,4,4,5,5,6,6,7,7,8,8,9,9,10,10,12,12,14,14],"right_children":[2,4,6,8,10,12,14,16,18,20,22,-1,24,-1,26,-1,-1,-1,-1,-1,-1,-1,-1,-1,-1,-1,-1],"split_conditions":[4.3979403E-2,-2.1164881E-2,7.000844E-1,1.1888217E0,2.8E1,4.998986E-2,7.017205E-1,4.1621532E0,3.4365508E-1,5.311311E-1,6.3197506E1,-4.5708064E-3,9.6115744E-1,2.841408E-3,2.8553654E-3,2.6101852E-3,-4.3570525E-3,2.1876337E-3,-1.5962279E-3,-4.785466E-3,2.8994467E-4,5.881265E-3,1.2247867E-3,6.6396343E-3,-5.9176085E-4,1.4377363E-5,-7.0129405E-3],"split_indices":[10,19,18,7,4,10,7,5,20,18,3,0,7,0,19,0,0,0,0,0,0,0,0,0,0,0,0],"split_type":[0,0,0,0,0,0,0,0,0,0,0,0,0,0,0,0,0,0,0,0,0,0,0,0,0,0,0],"sum_hessian":[3.4756735E2,3.2649982E2,2.1067518E1,5.4254196E1,2.7224564E2,6.4342723E0,1.4633245E1,2.751793E1,2.6736269E1,2.5544559E2,1.680005E1,2.2273138E0,4.2069583E0,1.239218E0,1.3394028E1,2.7214983E0,2.479643E1,1.3362519E1,1.3373749E1,3.9642606E0,2.5148132E2,8.384814E0,8.415236E0,2.7214797E0,1.4854785E0,2.7279427E0,1.0666084E1],"tree_param":{"num_deleted":"0","num_feature":"21","num_nodes":"27","size_leaf_vector":"1"}},{"base_weights":[2.1130614E-2,1.2280644E-1,-2.3125945E-1,1.6866228E-1,-5.4120076E-1,-5.5034345E-1,2.2103311E-1,-7.3484726E-2,3.178609E-1,6.4311004E-1,-9.7093004E-1,4.5106718E-1,-6.3021237E-1,6.7210233E-1,-1.106415E-1,1.3793217E-3,-1.6889643E-3,2.835691E-3,7.004288E-4,5.40039E-3,7.293232E-4,-5.5152946E-3,6.087622E-4,-3.8293945E-3,5.3115916E-3,-3.3988357E-3,3.4790155E-3,1.8732907E-3,7.181501E-3,7.258313E-4,-3.1907111E-3],"categories":[],"categories_nodes":[],"categories_segments":[],"categories_sizes":[],"default_left":[0,0,0,0,0,0,0,0,0,0,0,0,0,0,0,0,0,0,0,0,0,0,0,0,0,0,0,0,0,0,0],"id":25,"left_children":[1,3,5,7,9,11,13,15,17,19,21,23,25,27,29,-1,-1,-1,-1,-1,-1,-1,-1,-1,-1,-1,-1,-1,-1,-1,-1],"loss_changes":[8.992361E0,7.6928515E0,1.464835E1,8.487709E0,8.952947E0,5.027664E0,6.410365E0,8.415718E0,6.353118E0,9.198525E-1,1.9254341E0,4.505752E0,4.1095657E0,3.573103E0,3.5017185E0,0E0,0E0,0E0,0E0,0E0,0E0,0E0,0E0,0E0,0E0,0E0,0E0,0E0,0E0,0E0,0E0],"parents":[2147483647,0,0,1,1,2,2,3,3,4,4,5,5,6,6,7,7,8,8,9,9,10,10,11,11,12,12,13,13,14,14],"right_children":[2,4,6,8,10,12,14,16,18,20,22,24,26,28,30,-1,-1,-1,-1,-1,-1,-1,-1,-1,-1,-1,-1,-1,-1,-1,-1],"split_conditions":[2.87E0,4.460823E-2,6.2788506E1,5.2769673E-3,6.5596145E-1,5.6572445E1,2.3179758E-2,4.35095E-3,9.5910794E-1,1.5047583E-2,2.6096958E-1,2.91E0,4.16E0,1.7767154E-2,8.305544E-3,1.3793217E-3,-1.6889643E-3,2.835691E-3,7.004288E-4,5.40039E-3,7.293232E-4,-5.5152946E-3,6.087622E-4,-3.8293945E-3,5.3115916E-3,-3.3988357E-3,3.4790155E-3,1.8732907E-3,7.181501E-3,7.258313E-4,-3.1907111E-3],"split_indices":[2,10,3,14,18,3,12,15,7,15,12,2,2,12,14,0,0,0,0,0,0,0,0,0,0,0,0,0,0,0,0],"split_type":[0,0,0,0,0,0,0,0,0,0,0,0,0,0,0,0,0,0,0,0,0,0,0,0,0,0,0,0,0,0,0],"sum_hessian":[3.483092E2,2.4865251E2,9.9656715E1,2.3328781E2,1.5364691E1,5.8306076E1,4.1350636E1,8.9133316E1,1.441545E2,3.9585614E0,1.1406129E1,3.9634967E0,5.434258E1,1.7086725E1,2.4263912E1,3.8371758E1,5.0761562E1,5.9097485E1,8.505701E1,1.4831128E0,2.4754486E0,1.0167199E1,1.2389301E0,1.2406014E0,2.7228951E0,5.28547E1,1.4878808E0,1.3372206E1,3.7145197E0,1.6828064E1,7.4358478E0],"tree_param":{"num_deleted":"0","num_feature":"21","num_nodes":"31","size_leaf_vector":"1"}},{"base_weights":[1.5102278E-2,-2.4646175E-1,1.13834225E-1,2.317419E-1,-4.4020495E-1,6.216043E-3,9.151672E-2,-1.434479E-2,6.725465E-1,-1.2100642E0,-2.8986222E-1,1.52403E-1,-3.281245E-1,2.9328906E-3,-1.6800743E-3,4.660303E-3,-2.6463768E-3,-7.6718586E-3,-1.903128E-3,2.0437953E-3,-2.265438E-3,9.0006617E-4,-4.674588E-3,1.0702886E-3,-2.997129E-3],"categories":[],"categories_nodes":[],"categories_segments":[],"categories_sizes":[],"default_left":[0,0,0,0,0,0,0,0,0,0,0,0,0,0,0,0,0,0,0,0,0,0,0,0,0],"id":26,"left_children":[1,3,5,7,9,-1,11,13,15,17,19,21,23,-1,-1,-1,-1,-1,-1,-1,-1,-1,-1,-1,-1],"loss_changes":[9.247011E0,9.1945305E0,6.435499E0,3.1502323E0,7.7729816E0,0E0,6.588004E0,3.9777615E0,3.7348537E0,2.4158707E0,7.0312195E0,6.89744E0,4.9441624E0,0E0,0E0,0E0,0E0,0E0,0E0,0E0,0E0,0E0,0E0,0E0,0E0],"parents":[2147483647,0,0,1,1,2,2,3,3,4,4,6,6,7,7,8,8,9,9,10,10,11,11,12,12],"right_children":[2,4,6,8,10,-1,12,14,16,18,20,22,24,-1,-1,-1,-1,-1,-1,-1,-1,-1,-1,-1,-1],"split_conditions":[1.7E-1,1.51E1,-4.9968854E-2,6.7239753E-3,1.695E1,6.216043E-3,2.87E0,7.64365E-2,1.5E-1,1.4583349E-1,1.6155806E-1,6.871624E1,-3.246058E-3,2.9328906E-3,-1.6800743E-3,4.660303E-3,-2.6463768E-3,-7.6718586E-3,-1.903128E-3,2.0437953E-3,-2.265438E-3,9.0006617E-4,-4.674588E-3,1.0702886E-3,-2.997129E-3],"split_indices":[1,4,9,14,4,0,2,20,1,20,20,3,9,0,0,0,0,0,0,0,0,0,0,0,0],"split_type":[0,0,0,0,0,0,0,0,0,0,0,0,0,0,0,0,0,0,0,0,0,0,0,0,0],"sum_hessian":[3.5598175E2,9.7139694E1,2.5884204E2,2.7951849E1,6.918784E1,3.9557617E0,2.5488628E2,1.8558634E1,9.393215E0,1.0152302E1,5.903554E1,2.231465E2,3.173979E1,6.183495E0,1.2375138E1,7.9097033E0,1.4835124E0,6.6875873E0,3.4647152E0,1.0895866E1,4.8139675E1,2.1843425E2,4.7122383E0,1.06557665E1,2.1084023E1],"tree_param":{"num_deleted":"0","num_feature":"21","num_nodes":"25","size_leaf_vector":"1"}},{"base_weights":[9.859702E-3,-4.2398685E-1,4.396951E-2,1.9920726E-1,-7.8808165E-1,7.747333E-2,-5.4689777E-1,-4.273362E-1,7.91376E-1,-3.5120028E-1,-1.2494549E0,-2.0484297E-1,1.5906104E-1,3.8688316E-3,-7.3607504E-1,1.0075704E-3,-6.6108108E-3,5.7248073E-3,-6.3731824E-4,8.440773E-4,-5.117621E-3,-2.0966039E-3,-7.815718E-3,-1.9377465E-3,7.809092E-4,1.107493E-3,-1.5152886E-3,-1.9470422E-3,-5.6884377E-3],"categories":[],"categories_nodes":[],"categories_segments":[],"categories_sizes":[],"default_left":[0,0,0,0,0,0,0,0,0,0,0,0,0,0,0,0,0,0,0,0,0,0,0,0,0,0,0,0,0],"id":27,"left_children":[1,3,5,7,9,11,13,15,17,19,21,23,25,-1,27,-1,-1,-1,-1,-1,-1,-1,-1,-1,-1,-1,-1,-1,-1],"loss_changes":[5.286543E0,6.0658507E0,6.593675E0,4.1974807E0,2.9151611E0,7.266348E0,5.037214E0,3.475912E0,1.9972456E0,3.647174E0,1.3501663E0,4.733789E0,7.113319E0,0E0,1.8060331E0,0E0,0E0,0E0,0E0,0E0,0E0,0E0,0E0,0E0,0E0,0E0,0E0,0E0,0E0],"parents":[2147483647,0,0,1,1,2,2,3,3,4,4,5,5,6,6,7,7,8,8,9,9,10,10,11,11,12,12,14,14],"right_children":[2,4,6,8,10,12,14,16,18,20,22,24,26,-1,28,-1,-1,-1,-1,-1,-1,-1,-1,-1,-1,-1,-1,-1,-1],"split_conditions":[-6.6E-1,1.51E1,3.6319748E-2,7.0282687E-3,6.206997E0,4.418787E-3,9.557863E-3,6.7921514E-3,7.8732055E-3,1.1331474E0,5.551234E-3,1.5647486E-1,6.34925E0,3.8688316E-3,2.575E1,1.0075704E-3,-6.6108108E-3,5.7248073E-3,-6.3731824E-4,8.440773E-4,-5.117621E-3,-2.0966039E-3,-7.815718E-3,-1.9377465E-3,7.809092E-4,1.107493E-3,-1.5152886E-3,-1.9470422E-3,-5.6884377E-3],"split_indices":[1,4,9,16,5,14,16,16,14,18,11,13,5,0,4,0,0,0,0,0,0,0,0,0,0,0,0,0,0],"split_type":[0,0,0,0,0,0,0,0,0,0,0,0,0,0,0,0,0,0,0,0,0,0,0,0,0,0,0,0,0],"sum_hessian":[3.5497717E2,2.5041492E1,3.2993567E2,9.401872E0,1.563962E1,3.1305356E2,1.6882124E1,4.703594E0,4.698278E0,8.937638E0,6.701981E0,6.984828E1,2.4320528E2,1.728079E0,1.5154046E1,3.2173567E0,1.4862374E0,3.2149966E0,1.4832816E0,5.4619474E0,3.4756913E0,2.478833E0,4.2231483E0,4.632885E1,2.3519432E1,2.1471544E2,2.8489828E1,9.190522E0,5.963524E0],"tree_param":{"num_deleted":"0","num_feature":"21","num_nodes":"29","size_leaf_vector":"1"}},{"base_weights":[-7.6496094E-3,3.1870164E-2,-7.154117E-1,8.109112E-2,-3.5206795E-1,-8.7966377E-1,1.6988341E-3,2.2390652E-2,3.8858452E-1,-7.945879E-2,-1.1453514E0,-2.245819E-2,-1.0875345E0,-7.298986E-5,3.7524519E-3,1.5356042E-4,4.386049E-3,-5.023607E-3,7.428296E-4,1.0359611E-3,-7.6027242E-3,3.418174E-3,-3.27553E-3,-1.6743162E-3,-6.8791574E-3],"categories":[],"categories_nodes":[],"categories_segments":[],"categories_sizes":[],"default_left":[0,0,0,0,0,0,0,0,0,0,0,0,0,0,0,0,0,0,0,0,0,0,0,0,0],"id":28,"left_children":[1,3,5,7,9,11,-1,13,15,17,19,21,23,-1,-1,-1,-1,-1,-1,-1,-1,-1,-1,-1,-1],"loss_changes":[9.854822E0,6.338155E0,3.52814E0,5.3477025E0,8.15417E0,2.898077E0,0E0,6.7504168E0,8.280593E0,6.3627567E0,5.2256145E0,2.3339047E0,2.3990593E0,0E0,0E0,0E0,0E0,0E0,0E0,0E0,0E0,0E0,0E0,0E0,0E0],"parents":[2147483647,0,0,1,1,2,2,3,3,4,4,5,5,7,7,8,8,9,9,10,10,11,11,12,12],"right_children":[2,4,6,8,10,12,-1,14,16,18,20,22,24,-1,-1,-1,-1,-1,-1,-1,-1,-1,-1,-1,-1],"split_conditions":[3.6319748E-2,1.3806595E0,1.0875592E0,1.8255154E-2,2.19E0,1.05259E-2,1.6988341E-3,1.8083686E-2,8.888069E-1,4.5584613E-3,-1.5527149E-1,1.6117705E-1,7.630367E-1,-7.298986E-5,3.7524519E-3,1.5356042E-4,4.386049E-3,-5.023607E-3,7.428296E-4,1.0359611E-3,-7.6027242E-3,3.418174E-3,-3.27553E-3,-1.6743162E-3,-6.8791574E-3],"split_indices":[9,18,18,9,0,17,0,15,18,15,19,13,18,0,0,0,0,0,0,0,0,0,0,0,0],"split_type":[0,0,0,0,0,0,0,0,0,0,0,0,0,0,0,0,0,0,0,0,0,0,0,0,0],"sum_hessian":[3.505127E2,3.3288043E2,1.763229E1,2.9575354E2,3.712688E1,1.5401229E1,2.2310615E0,2.4924542E2,4.6508118E1,2.8450224E1,8.676659E0,3.222111E0,1.2179118E1,2.3812808E2,1.1117335E1,2.7459473E1,1.9048645E1,4.9516344E0,2.3498589E1,1.9814515E0,6.6952066E0,1.484585E0,1.737526E0,3.9716516E0,8.207466E0],"tree_param":{"num_deleted":"0","num_feature":"21","num_nodes":"25","size_leaf_vector":"1"}},{"base_weights":[-4.2150784E-2,-4.8293592E-3,-6.4460874E-1,-1.5572487E-1,1.8570386E-1,-8.0123746E-1,4.9348725E-3,-1.3706402E-2,-4.731163E-1,2.1947622E-1,-8.726997E-1,3.0200506E-2,-1.094714E0,-4.1297413E-3,4.4878767E-4,-7.0858896E-3,-1.7030623E-3,2.5952249E-3,6.4160035E-4,-4.8206016E-4,-6.002985E-3,5.04301E-3,-2.1969893E-3,-1.2167987E-3,-6.872832E-3],"categories":[],"categories_nodes":[],"categories_segments":[],"categories_sizes":[],"default_left":[0,0,0,0,0,0,0,0,0,0,0,0,0,0,0,0,0,0,0,0,0,0,0,0,0],"id":29,"left_children":[1,3,5,7,9,11,-1,13,15,17,19,21,23,-1,-1,-1,-1,-1,-1,-1,-1,-1,-1,-1,-1],"loss_changes":[7.850428E0,9.514249E0,5.9958935E0,8.316847E0,5.4197197E0,4.702359E0,0E0,1.0881461E1,6.65409E0,3.8258238E0,1.0866437E0,3.1840475E0,3.0416374E0,0E0,0E0,0E0,0E0,0E0,0E0,0E0,0E0,0E0,0E0,0E0,0E0],"parents":[2147483647,0,0,1,1,2,2,3,3,4,4,5,5,7,7,8,8,9,9,10,10,11,11,12,12],"right_children":[2,4,6,8,10,12,-1,14,16,18,20,22,24,-1,-1,-1,-1,-1,-1,-1,-1,-1,-1,-1,-1],"split_conditions":[3.6319748E-2,2.1761386E-2,4.14E0,2.86E0,6.866078E1,1.2667066E-2,4.9348725E-3,3.4862682E-3,8.683557E-1,9.6064876E-4,9.462137E-3,5.641807E1,1.0638337E-2,-4.1297413E-3,4.4878767E-4,-7.0858896E-3,-1.7030623E-3,2.5952249E-3,6.4160035E-4,-4.8206016E-4,-6.002985E-3,5.04301E-3,-2.1969893E-3,-1.2167987E-3,-6.872832E-3],"split_indices":[9,11,2,2,3,10,0,14,7,9,9,3,14,0,0,0,0,0,0,0,0,0,0,0,0],"split_type":[0,0,0,0,0,0,0,0,0,0,0,0,0,0,0,0,0,0,0,0,0,0,0,0,0],"sum_hessian":[3.482855E2,3.2891754E2,1.9367964E1,1.8365334E2,1.4526419E2,1.8135876E1,1.2320881E0,1.2760085E2,5.6052486E1,1.4154045E2,3.7237484E0,4.9654703E0,1.3170406E1,1.3628397E1,1.1397245E2,5.705641E0,5.0346848E1,3.1926283E1,1.0961417E2,1.4900733E0,2.2336752E0,1.2381032E0,3.7273672E0,3.7207904E0,9.4496155E0],"tree_param":{"num_deleted":"0","num_feature":"21","num_nodes":"25","size_leaf_vector":"1"}},{"base_weights":[1.3940221E-2,4.251316E-2,-7.0611763E-1,1.4620113E-1,-1.7953654E-1,-9.927267E-1,3.8803297E-3,8.890375E-2,5.793333E-1,3.366747E-1,-3.3579263E-1,-4.9711075E-1,-7.799539E-3,5.9729035E-4,-4.15103E-3,1.0517687E-3,6.044957E-3,4.03377E-3,-5.796042E-4,-1.8404999E-3,4.9888203E-3,-3.8648527E-3,9.908538E-4],"categories":[],"categories_nodes":[],"categories_segments":[],"categories_sizes":[],"default_left":[0,0,0,0,0,0,0,0,0,0,0,0,0,0,0,0,0,0,0,0,0,0,0],"id":30,"left_children":[1,3,5,7,9,11,-1,13,15,17,19,21,-1,-1,-1,-1,-1,-1,-1,-1,-1,-1,-1],"loss_changes":[7.2111483E0,7.7774167E0,6.4536743E0,5.6575975E0,8.79323E0,2.4992428E0,0E0,5.837885E0,5.9477825E0,5.519754E0,3.9478912E0,1.6270971E0,0E0,0E0,0E0,0E0,0E0,0E0,0E0,0E0,0E0,0E0,0E0],"parents":[2147483647,0,0,1,1,2,2,3,3,4,4,5,5,7,7,8,8,9,9,10,10,11,11],"right_children":[2,4,6,8,10,12,-1,14,16,18,20,22,-1,-1,-1,-1,-1,-1,-1,-1,-1,-1,-1],"split_conditions":[1.8017721E0,2.83E0,3.473E1,1.4577543E-2,-1.06E0,9.401445E-3,3.8803297E-3,1.94E0,2.15E0,4.8188944E-3,7E-1,6.1408142E1,-7.799539E-3,5.9729035E-4,-4.15103E-3,1.0517687E-3,6.044957E-3,4.03377E-3,-5.796042E-4,-1.8404999E-3,4.9888203E-3,-3.8648527E-3,9.908538E-4],"split_indices":[18,2,4,15,6,15,0,6,2,9,1,3,0,0,0,0,0,0,0,0,0,0,0],"split_type":[0,0,0,0,0,0,0,0,0,0,0,0,0,0,0,0,0,0,0,0,0,0,0],"sum_hessian":[3.4803616E2,3.3565775E2,1.2378427E1,2.2904489E2,1.0661286E2,1.0649387E1,1.7290395E0,2.0334978E2,2.5695105E1,2.450452E1,8.210834E1,6.6846476E0,3.96474E0,1.9764928E2,5.7005033E0,1.704236E1,8.652745E0,1.1636252E1,1.2868268E1,8.087304E1,1.2352961E0,4.7058268E0,1.9788207E0],"tree_param":{"num_deleted":"0","num_feature":"21","num_nodes":"23","size_leaf_vector":"1"}},{"base_weights":[7.3260483E-3,1.0379993E0,-7.3522995E-3,2.0257337E-3,6.256563E-3,4.1606578E-1,-4.277858E-2,7.1871877E-1,-5.17064E-1,-3.7344885E-1,4.6601668E-2,8.521856E-4,4.6958E-3,1.6114787E-3,-4.792286E-3,-3.0132453E-3,-1.7210105E-4,3.4359712E-4,-4.6434505E-3],"categories":[],"categories_nodes":[],"categories_segments":[],"categories_sizes":[],"default_left":[0,0,0,0,0,0,0,0,0,0,0,0,0,0,0,0,0,0,0],"id":31,"left_children":[1,3,5,-1,-1,7,9,11,13,15,17,-1,-1,-1,-1,-1,-1,-1,-1],"loss_changes":[5.336483E0,1.6166782E-1,5.242109E0,0E0,0E0,7.9921384E0,9.543134E0,2.3531027E0,2.9727309E0,5.316967E0,5.556065E0,0E0,0E0,0E0,0E0,0E0,0E0,0E0,0E0],"parents":[2147483647,0,0,1,1,2,2,5,5,6,6,7,7,8,8,9,9,10,10],"right_children":[2,4,6,-1,-1,8,10,12,14,16,18,-1,-1,-1,-1,-1,-1,-1,-1],"split_conditions":[-1.6323861E-1,4.2306695E0,-1.06E0,2.0257337E-3,6.256563E-3,2.041294E-1,1.8E-1,6.301362E-3,6.481939E1,2.1556383E-2,2.3044739E-2,8.521856E-4,4.6958E-3,1.6114787E-3,-4.792286E-3,-3.0132453E-3,-1.7210105E-4,3.4359712E-4,-4.6434505E-3],"split_indices":[12,5,6,0,0,13,1,15,3,11,14,0,0,0,0,0,0,0,0],"split_type":[0,0,0,0,0,0,0,0,0,0,0,0,0,0,0,0,0,0,0],"sum_hessian":[3.5123737E2,3.9529889E0,3.472844E2,1.7274214E0,2.2255673E0,2.5983438E1,3.2130093E2,1.979339E1,6.1900473E0,6.76916E1,2.5360936E2,6.1844897E0,1.3608901E1,2.2263017E0,3.9637456E0,3.992365E1,2.7767946E1,2.4889444E2,4.7149105E0],"tree_param":{"num_deleted":"0","num_feature":"21","num_nodes":"19","size_leaf_vector":"1"}},{"base_weights":[-1.9879019E-2,1.767871E-2,-5.741551E-1,1.1571218E-1,-2.2501713E-1,8.468599E-1,-8.31822E-1,7.1588844E-2,7.886305E-1,3.900539E-2,-3.7050828E-1,1.3833303E-3,5.380854E-3,-9.4351184E-1,1.5768214E-3,5.309259E-4,-4.01574E-3,-2.628387E-3,4.8883725E-3,-1.4874506E-3,4.3474417E-3,-6.5789097E-3,-1.2118879E-3,-1.0819099E-3,-6.0999277E-3],"categories":[],"categories_nodes":[],"categories_segments":[],"categories_sizes":[],"default_left":[0,0,0,0,0,0,0,0,0,0,0,0,0,0,0,0,0,0,0,0,0,0,0,0,0],"id":32,"left_children":[1,3,5,7,9,11,13,15,17,19,21,-1,-1,23,-1,-1,-1,-1,-1,-1,-1,-1,-1,-1,-1],"loss_changes":[7.414939E0,7.975049E0,8.980394E0,7.0289297E0,3.719984E0,2.2067666E-1,2.8137283E0,6.8958926E0,4.1376553E0,1.0088977E1,7.225417E0,0E0,0E0,3.3839607E0,0E0,0E0,0E0,0E0,0E0,0E0,0E0,0E0,0E0,0E0,0E0],"parents":[2147483647,0,0,1,1,2,2,3,3,4,4,5,5,6,6,7,7,8,8,9,9,10,10,13,13],"right_children":[2,4,6,8,10,12,14,16,18,20,22,-1,-1,24,-1,-1,-1,-1,-1,-1,-1,-1,-1,-1,-1],"split_conditions":[3.20296E-2,2.87E0,8.689572E-3,2.356464E-2,1.51E1,3.8483623E-2,1.9859369E-1,6.839266E1,6.9574796E-2,6.779387E-3,8.4604865E-1,1.3833303E-3,5.380854E-3,1.2939878E-2,1.5768214E-3,5.309259E-4,-4.01574E-3,-2.628387E-3,4.8883725E-3,-1.4874506E-3,4.3474417E-3,-6.5789097E-3,-1.2118879E-3,-1.0819099E-3,-6.0999277E-3],"split_indices":[9,2,17,9,4,9,19,3,20,14,7,0,0,10,0,0,0,0,0,0,0,0,0,0,0],"split_type":[0,0,0,0,0,0,0,0,0,0,0,0,0,0,0,0,0,0,0,0,0,0,0,0,0],"sum_hessian":[3.547027E2,3.3309995E2,2.1602736E1,2.3763425E2,9.54657E1,2.9648952E0,1.863784E1,2.2404967E2,1.3584579E1,3.4176884E1,6.128882E1,1.4832432E0,1.4816519E0,1.7146048E1,1.4917943E0,2.163707E2,7.6789756E0,1.484316E0,1.2100264E1,2.4778788E1,9.398095E0,6.2095222E0,5.5079296E1,5.2144966E0,1.193155E1],"tree_param":{"num_deleted":"0","num_feature":"21","num_nodes":"25","size_leaf_vector":"1"}},{"base_weights":[-8.33838E-3,3.3115376E-2,-5.2522683E-1,-1.0903859E-2,7.316292E-1,1.4678645E-1,-8.541717E-1,8.199953E-1,-3.847554E-2,1.2843877E0,2.1135134E-1,6.653134E-1,-5.74726E-1,9.171924E-5,-9.8143685E-1,-2.36544E-3,6.0135517E-3,-2.9266034E-3,4.2055333E-5,7.7421633E-3,1.5922616E-3,-4.054776E-3,2.6038683E-3,5.69275E-3,-1.5369494E-3,-5.1237056E-3,4.2288672E-4,-6.555515E-3,-2.5387262E-3],"categories":[],"categories_nodes":[],"categories_segments":[],"categories_sizes":[],"default_left":[0,0,0,0,0,0,0,0,0,0,0,0,0,0,0,0,0,0,0,0,0,0,0,0,0,0,0,0,0],"id":33,"left_children":[1,3,5,7,9,11,13,15,17,19,21,23,25,-1,27,-1,-1,-1,-1,-1,-1,-1,-1,-1,-1,-1,-1,-1,-1],"loss_changes":[7.522376E0,1.0007078E1,5.886976E0,7.0624475E0,5.276993E0,3.9061608E0,1.9773483E0,5.4691386E0,7.6455593E0,1.8425369E0,3.9447513E0,3.086002E0,1.4143937E0,0E0,1.74189E0,0E0,0E0,0E0,0E0,0E0,0E0,0E0,0E0,0E0,0E0,0E0,0E0,0E0,0E0],"parents":[2147483647,0,0,1,1,2,2,3,3,4,4,5,5,6,6,7,7,8,8,9,9,10,10,11,11,12,12,14,14],"right_children":[2,4,6,8,10,12,14,16,18,20,22,24,26,-1,28,-1,-1,-1,-1,-1,-1,-1,-1,-1,-1,-1,-1,-1,-1],"split_conditions":[3.091151E-2,2.356464E-2,5.9E-1,3.524078E-2,2.5895957E-2,7.938529E-2,1.5277089E-1,5.6484608E1,3.3859434E-3,9.93829E-2,6.0375975E-3,5.0555248E-2,6E-2,9.171924E-5,1.5144418E-2,-2.36544E-3,6.0135517E-3,-2.9266034E-3,4.2055333E-5,7.7421633E-3,1.5922616E-3,-4.054776E-3,2.6038683E-3,5.69275E-3,-1.5369494E-3,-5.1237056E-3,4.2288672E-4,-6.555515E-3,-2.5387262E-3],"split_indices":[9,9,6,20,9,19,20,3,14,19,14,9,6,0,14,0,0,0,0,0,0,0,0,0,0,0,0,0,0],"split_type":[0,0,0,0,0,0,0,0,0,0,0,0,0,0,0,0,0,0,0,0,0,0,0,0,0,0,0,0,0],"sum_hessian":[3.4925876E2,3.241947E2,2.5064043E1,3.0590167E2,1.8293049E1,8.418779E0,1.6645264E1,8.901642E0,2.9700003E2,8.157559E0,1.01354885E1,4.9437566E0,3.4750228E0,2.2277725E0,1.4417492E1,1.9790089E0,6.9226327E0,2.2547031E1,2.74453E2,5.93276E0,2.2247996E0,1.9783407E0,8.157148E0,3.2110336E0,1.7327231E0,1.7358911E0,1.7391317E0,7.4587355E0,6.9587564E0],"tree_param":{"num_deleted":"0","num_feature":"21","num_nodes":"29","size_leaf_vector":"1"}},{"base_weights":[-4.532692E-2,6.371301E-2,-3.4464508E-1,-1.9698836E-1,1.5230241E-1,2.3860452E-1,-5.344475E-1,1.7004636E-1,-4.8788303E-1,1.8772215E-1,-6.563246E-1,6.3424665E-1,-1.8364395E-1,-3.878855E-1,-9.795945E-1,3.1590122E-3,-9.277877E-4,-3.752146E-3,1.2119795E-3,1.1460057E-3,-2.5229712E-3,-5.398064E-3,4.9901414E-3,-3.807276E-4,4.9906825E-3,-4.8899865E-3,1.0101169E-3,2.1774785E-3,-2.5458543E-3,-1.5793373E-3,-5.942023E-3],"categories":[],"categories_nodes":[],"categories_segments":[],"categories_sizes":[],"default_left":[0,0,0,0,0,0,0,0,0,0,0,0,0,0,0,0,0,0,0,0,0,0,0,0,0,0,0,0,0,0,0],"id":34,"left_children":[1,3,5,7,9,11,13,15,17,19,21,23,25,27,29,-1,-1,-1,-1,-1,-1,-1,-1,-1,-1,-1,-1,-1,-1,-1,-1],"loss_changes":[1.160778E1,6.058813E0,1.0638014E1,7.198292E0,5.7196426E0,4.1262813E0,4.313616E0,5.077243E0,7.3595657E0,5.5136557E0,6.975203E0,3.337318E0,3.99217E0,5.791933E0,2.0034084E0,0E0,0E0,0E0,0E0,0E0,0E0,0E0,0E0,0E0,0E0,0E0,0E0,0E0,0E0,0E0,0E0],"parents":[2147483647,0,0,1,1,2,2,3,3,4,4,5,5,6,6,7,7,8,8,9,9,10,10,11,11,12,12,13,13,14,14],"right_children":[2,4,6,8,10,12,14,16,18,20,22,24,26,28,30,-1,-1,-1,-1,-1,-1,-1,-1,-1,-1,-1,-1,-1,-1,-1,-1],"split_conditions":[6.0574374E0,4.456104E-3,1.569E1,4.576146E-2,1.46E0,6.714077E0,1.4248452E-2,4.418816E-2,1.5647486E-1,3.6319748E-2,1.9937783E-2,8.133022E-1,6.7698993E-3,-1.989142E-2,2.89E0,3.1590122E-3,-9.277877E-4,-3.752146E-3,1.2119795E-3,1.1460057E-3,-2.5229712E-3,-5.398064E-3,4.9901414E-3,-3.807276E-4,4.9906825E-3,-4.8899865E-3,1.0101169E-3,2.1774785E-3,-2.5458543E-3,-1.5793373E-3,-5.942023E-3],"split_indices":[5,14,4,20,1,5,17,12,13,9,9,7,17,13,2,0,0,0,0,0,0,0,0,0,0,0,0,0,0,0,0],"split_type":[0,0,0,0,0,0,0,0,0,0,0,0,0,0,0,0,0,0,0,0,0,0,0,0,0,0,0,0,0,0,0],"sum_hessian":[3.5398358E2,2.600397E2,9.394387E1,6.564263E1,1.9439708E2,2.3002295E1,7.0941574E1,2.920669E1,3.643594E1,1.86975E2,7.4220867E0,1.1616084E1,1.1386211E1,5.477771E1,1.6163864E1,1.2368864E1,1.6837826E1,2.6780396E1,9.655543E0,1.7703705E2,9.937948E0,6.1865788E0,1.2355078E0,4.202546E0,7.413538E0,3.2194011E0,8.16681E0,6.7002745E0,4.807744E1,4.469557E0,1.1694307E1],"tree_param":{"num_deleted":"0","num_feature":"21","num_nodes":"31","size_leaf_vector":"1"}},{"base_weights":[5.177961E-3,1.13558054E-1,-1.7876716E-1,2.9800203E-1,-4.777669E-2,-3.1548887E-2,-6.1999613E-1,3.888021E-1,-5.390368E-1,-1.483471E-1,5.2462965E-1,5.9004133E-3,-8.853909E-2,-7.787416E-1,8.0298334E-1,-2.9022407E-3,2.3096441E-3,2.6919255E-3,-4.276516E-3,-2.369539E-4,-4.6674185E-3,3.5639696E-3,-4.604102E-3,-6.92208E-4,4.741608E-3,2.1534935E-3,-4.5274585E-3,6.246957E-4,5.4537933E-3],"categories":[],"categories_nodes":[],"categories_segments":[],"categories_sizes":[],"default_left":[0,0,0,0,0,0,0,0,0,0,0,0,0,0,0,0,0,0,0,0,0,0,0,0,0,0,0,0,0],"id":35,"left_children":[1,3,5,7,9,11,13,15,17,19,21,-1,23,25,27,-1,-1,-1,-1,-1,-1,-1,-1,-1,-1,-1,-1,-1,-1],"loss_changes":[6.9338193E0,6.5258884E0,8.3572855E0,7.980053E0,6.84698E0,6.8542466E0,7.9012175E0,6.8466415E0,4.012595E0,7.9451733E0,5.4956756E0,0E0,5.009996E0,4.9099045E0,5.9055495E-1,0E0,0E0,0E0,0E0,0E0,0E0,0E0,0E0,0E0,0E0,0E0,0E0,0E0,0E0],"parents":[2147483647,0,0,1,1,2,2,3,3,4,4,5,5,6,6,7,7,8,8,9,9,10,10,12,12,13,13,14,14],"right_children":[2,4,6,8,10,12,14,16,18,20,22,-1,24,26,28,-1,-1,-1,-1,-1,-1,-1,-1,-1,-1,-1,-1,-1,-1],"split_conditions":[1.007817E0,4.4790212E-2,6.767717E-3,2.54E1,2.25E1,1.0216752E0,5.432712E-1,-1.0953747E-2,-1.3396628E-1,1.0503606E-2,1.2562222E0,5.9004133E-3,2.377919E-2,4.7208786E-2,1.0797125E0,-2.9022407E-3,2.3096441E-3,2.6919255E-3,-4.276516E-3,-2.369539E-4,-4.6674185E-3,3.5639696E-3,-4.604102E-3,-6.92208E-4,4.741608E-3,2.1534935E-3,-4.5274585E-3,6.246957E-4,5.4537933E-3],"split_indices":[7,12,10,4,4,7,20,10,12,15,18,0,11,20,7,0,0,0,0,0,0,0,0,0,0,0,0,0,0],"split_type":[0,0,0,0,0,0,0,0,0,0,0,0,0,0,0,0,0,0,0,0,0,0,0,0,0,0,0,0,0],"sum_hessian":[3.457858E2,2.178259E2,1.27959915E2,1.01238785E2,1.16587105E2,9.675022E1,3.1209698E1,9.181447E1,9.424322E0,9.979432E1,1.6792784E1,3.4610174E0,9.32892E1,2.8484722E1,2.7249749E0,5.9544406E0,8.586002E1,1.9792647E0,7.445058E0,8.9363884E1,1.0430439E1,1.5307032E1,1.4857527E0,8.98322E1,3.4570062E0,2.474567E0,2.6010157E1,1.2392533E0,1.4857215E0],"tree_param":{"num_deleted":"0","num_feature":"21","num_nodes":"29","size_leaf_vector":"1"}},{"base_weights":[4.6873443E-2,1.2265057E-1,-2.6976675E-1,-1.9644342E-1,2.1706446E-1,7.6304364E-1,-4.1314358E-1,-2.5662385E-2,-1.0203553E0,4.1348225E-1,5.494668E-3,1.124118E0,-3.8459965E-3,-2.6292914E-1,-1.0140054E0,-5.7885796E-3,5.4834766E-4,-6.7479233E-3,-6.7037504E-6,2.8769812E-3,5.446719E-4,7.846939E-4,-2.07095E-3,4.1065045E-4,6.5943184E-3,3.513234E-4,-3.5270166E-3,-6.005419E-3,-3.436779E-4],"categories":[],"categories_nodes":[],"categories_segments":[],"categories_sizes":[],"default_left":[0,0,0,0,0,0,0,0,0,0,0,0,0,0,0,0,0,0,0,0,0,0,0,0,0,0,0,0,0],"id":36,"left_children":[1,3,5,7,9,11,13,15,17,19,21,23,-1,25,27,-1,-1,-1,-1,-1,-1,-1,-1,-1,-1,-1,-1,-1,-1],"loss_changes":[8.430409E0,8.5709915E0,1.0369045E1,9.142265E0,9.095252E0,5.6378636E0,5.1729183E0,8.552768E0,3.7427635E0,5.534689E0,6.828236E0,1.3909607E0,0E0,7.3566556E0,1.9870195E0,0E0,0E0,0E0,0E0,0E0,0E0,0E0,0E0,0E0,0E0,0E0,0E0,0E0,0E0],"parents":[2147483647,0,0,1,1,2,2,3,3,4,4,5,5,6,6,7,7,8,8,9,9,10,10,11,11,13,13,14,14],"right_children":[2,4,6,8,10,12,14,16,18,20,22,24,-1,26,28,-1,-1,-1,-1,-1,-1,-1,-1,-1,-1,-1,-1,-1,-1],"split_conditions":[1.3197565E-2,4.3576784E-3,6.7E-1,1.2286735E0,4.189735E-2,1.3757497E-1,3.6319748E-2,1.8083006E-3,7.128966E-3,2.84E0,8.6235525E-3,1.5594242E-2,-3.8459965E-3,2.9E0,3.81E0,-5.7885796E-3,5.4834766E-4,-6.7479233E-3,-6.7037504E-6,2.8769812E-3,5.446719E-4,7.846939E-4,-2.07095E-3,4.1065045E-4,6.5943184E-3,3.513234E-4,-3.5270166E-3,-6.005419E-3,-3.436779E-4],"split_indices":[16,14,2,18,12,11,9,19,17,2,14,16,0,2,2,0,0,0,0,0,0,0,0,0,0,0,0,0,0],"split_type":[0,0,0,0,0,0,0,0,0,0,0,0,0,0,0,0,0,0,0,0,0,0,0,0,0,0,0,0,0],"sum_hessian":[3.4897473E2,2.8208087E2,6.6893875E1,6.4159164E1,2.1792169E2,7.627497E0,5.9266373E1,5.3997643E1,1.0161523E1,1.1251257E2,1.0540911E2,6.388419E0,1.2390782E0,4.8563236E1,1.0703138E1,4.9592023E0,4.903844E1,7.4349823E0,2.7265403E0,7.287759E1,3.9634987E1,7.791821E1,2.7490898E1,1.2298478E0,5.1585712E0,2.8182402E1,2.0380833E1,8.70893E0,1.9942087E0],"tree_param":{"num_deleted":"0","num_feature":"21","num_nodes":"29","size_leaf_vector":"1"}},{"base_weights":[-7.944192E-4,-8.189055E-1,2.2103654E-2,2.754818E-3,-1.0932363E0,1.3784689E-1,-1.1748802E-1,-7.678048E-3,9.742662E-4,8.449168E-3,4.4718045E-1,4.7950187E-1,-2.021998E-1,-4.750186E-3,2.2932173E-4,3.553246E-3,-2.455316E-4,-6.9284257E-3,3.7140201E-3,-6.638847E-3,-7.447471E-4],"categories":[],"categories_nodes":[],"categories_segments":[],"categories_sizes":[],"default_left":[0,0,0,0,0,0,0,0,0,0,0,0,0,0,0,0,0,0,0,0,0],"id":37,"left_children":[1,3,5,-1,7,9,11,-1,-1,13,15,17,19,-1,-1,-1,-1,-1,-1,-1,-1],"loss_changes":[6.476451E0,4.139673E0,5.4504027E0,0E0,4.9588737E0,7.3747454E0,7.834664E0,0E0,0E0,4.741114E0,7.1413336E0,1.05124035E1,7.875381E0,0E0,0E0,0E0,0E0,0E0,0E0,0E0,0E0],"parents":[2147483647,0,0,1,1,2,2,4,4,5,5,6,6,9,9,10,10,11,11,12,12],"right_children":[2,4,6,-1,8,10,12,-1,-1,14,16,18,20,-1,-1,-1,-1,-1,-1,-1,-1],"split_conditions":[5.600769E-1,-2.4058962E-2,1.14E0,2.754818E-3,1.704978E-1,3.8E-1,4.0939786E-3,-7.678048E-3,9.742662E-4,-6.6235095E-2,2.0430122E-2,6.934956E-2,4.31792E-3,-4.750186E-3,2.2932173E-4,3.553246E-3,-2.455316E-4,-6.9284257E-3,3.7140201E-3,-6.638847E-3,-7.447471E-4],"split_indices":[18,11,6,0,13,1,16,0,0,10,10,13,16,0,0,0,0,0,0,0,0],"split_type":[0,0,0,0,0,0,0,0,0,0,0,0,0,0,0,0,0,0,0,0,0],"sum_hessian":[3.4375488E2,8.4128895E0,3.3534198E2,1.2354231E0,7.177466E0,1.833384E2,1.5200359E2,5.1995907E0,1.9778755E0,1.299896E2,5.33488E1,1.8309628E1,1.3369395E2,3.9672213E0,1.2602238E2,3.4566307E1,1.8782494E1,1.7376559E0,1.6571972E1,4.9581223E0,1.2873584E2],"tree_param":{"num_deleted":"0","num_feature":"21","num_nodes":"21","size_leaf_vector":"1"}},{"base_weights":[-7.975441E-3,3.2843214E-2,-6.501162E-1,7.906163E-1,-1.1080639E-2,2.6561674E-1,-1.0332824E0,1.1451087E0,2.2267553E-1,7.521774E-2,-2.263133E-1,-2.9417516E-3,7.949166E-1,-1.25587E0,2.0879966E-3,6.932593E-3,2.436441E-3,6.66531E-3,-3.3284496E-3,4.889397E-4,-4.661646E-3,-6.744297E-5,-3.8176419E-3,5.5939134E-4,5.030275E-3,-1.3651578E-3,-7.7316193E-3],"categories":[],"categories_nodes":[],"categories_segments":[],"categories_sizes":[],"default_left":[0,0,0,0,0,0,0,0,0,0,0,0,0,0,0,0,0,0,0,0,0,0,0,0,0,0,0],"id":38,"left_children":[1,3,5,7,9,11,13,15,17,19,21,-1,23,25,-1,-1,-1,-1,-1,-1,-1,-1,-1,-1,-1,-1,-1],"loss_changes":[9.135689E0,1.0922502E1,7.5834866E0,3.3646755E0,5.7920437E0,3.604789E0,5.3332396E0,1.04391E0,8.927435E0,5.1550794E0,1.0192032E1,0E0,5.6670475E-1,3.3343716E0,0E0,0E0,0E0,0E0,0E0,0E0,0E0,0E0,0E0,0E0,0E0,0E0,0E0],"parents":[2147483647,0,0,1,1,2,2,3,3,4,4,5,5,6,6,7,7,8,8,9,9,10,10,12,12,13,13],"right_children":[2,4,6,8,10,12,14,16,18,20,22,-1,24,26,-1,-1,-1,-1,-1,-1,-1,-1,-1,-1,-1,-1,-1],"split_conditions":[4.460823E-2,7.3E-1,3.8953845E-3,6.2668556E1,1.0510925E-2,5.3902052E-2,6.607765E0,1.919023E-2,8.06483E-3,6.871624E1,3.333173E-2,-2.9417516E-3,5.6676094E1,4.319119E0,2.0879966E-3,6.932593E-3,2.436441E-3,6.66531E-3,-3.3284496E-3,4.889397E-4,-4.661646E-3,-6.744297E-5,-3.8176419E-3,5.5939134E-4,5.030275E-3,-1.3651578E-3,-7.7316193E-3],"split_indices":[10,2,19,3,17,10,5,9,15,3,12,0,3,5,0,0,0,0,0,0,0,0,0,0,0,0,0],"split_type":[0,0,0,0,0,0,0,0,0,0,0,0,0,0,0,0,0,0,0,0,0,0,0,0,0,0,0],"sum_hessian":[3.4672516E2,3.2689447E2,1.983069E1,1.69787E1,3.0991577E2,5.940414E0,1.3890276E1,9.828059E0,7.150641E0,2.21682E2,8.823375E1,2.230379E0,3.7100346E0,1.2159266E1,1.7310095E0,6.3792334E0,3.448826E0,2.9556873E0,4.1949534E0,2.1770805E2,3.9739635E0,6.3931553E1,2.4302198E1,1.2372802E0,2.4727545E0,3.2162232E0,8.943043E0],"tree_param":{"num_deleted":"0","num_feature":"21","num_nodes":"27","size_leaf_vector":"1"}},{"base_weights":[1.1964369E-2,-2.9786325E-1,1.1897569E-1,-7.2477734E-1,-1.7018646E-1,1.5052225E-1,-9.409538E-1,-1.1536844E-1,-1.2927058E0,-6.976262E-3,-1.1758855E-1,1.9266932E-1,-3.778068E-1,-1.3043958E0,1.5396114E-3,2.6068725E-3,-3.7971216E-3,-7.5546536E-3,-2.5578141E-3,3.2198678E-3,-9.940325E-4,1.1057378E-3,-3.4232826E-3,-8.033369E-3,-3.242888E-4,-2.8705793E-3,-7.939566E-3],"categories":[],"categories_nodes":[],"categories_segments":[],"categories_sizes":[],"default_left":[0,0,0,0,0,0,0,0,0,0,0,0,0,0,0,0,0,0,0,0,0,0,0,0,0,0,0],"id":39,"left_children":[1,3,5,7,9,11,13,15,17,-1,19,21,23,25,-1,-1,-1,-1,-1,-1,-1,-1,-1,-1,-1,-1,-1],"loss_changes":[1.1302385E1,4.6474266E0,8.611257E0,6.7185936E0,4.2615666E0,5.569331E0,3.7872252E0,4.771694E0,9.612293E-1,0E0,4.268883E0,5.879567E0,7.0390334E0,3.2412815E-1,0E0,0E0,0E0,0E0,0E0,0E0,0E0,0E0,0E0,0E0,0E0,0E0,0E0],"parents":[2147483647,0,0,1,1,2,2,3,3,4,4,5,5,6,6,7,7,8,8,10,10,11,11,12,12,13,13],"right_children":[2,4,6,8,10,12,14,16,18,-1,20,22,24,26,-1,-1,-1,-1,-1,-1,-1,-1,-1,-1,-1,-1,-1],"split_conditions":[1.7E-1,7.965581E-1,6.476203E0,-4.4E-1,4.154422E0,1.28E0,1.2142891E-2,3.5129953E-2,2.880805E-1,-6.976262E-3,4.2869473E0,3.09E0,4.8562675E-3,1.7912565E-1,1.5396114E-3,2.6068725E-3,-3.7971216E-3,-7.5546536E-3,-2.5578141E-3,3.2198678E-3,-9.940325E-4,1.1057378E-3,-3.4232826E-3,-8.033369E-3,-3.242888E-4,-2.8705793E-3,-7.939566E-3],"split_indices":[1,18,5,1,5,1,15,12,20,0,5,2,15,20,0,0,0,0,0,0,0,0,0,0,0,0,0],"split_type":[0,0,0,0,0,0,0,0,0,0,0,0,0,0,0,0,0,0,0,0,0,0,0,0,0,0,0],"sum_hessian":[3.3882587E2,8.652587E1,2.5229999E2,1.8843157E1,6.768271E1,2.4584103E2,6.458948E0,9.670009E0,9.173149E0,1.7354441E0,6.5947266E1,2.2826656E2,1.7574478E1,4.968564E0,1.490384E0,4.9583955E0,4.7116127E0,6.4398236E0,2.7333257E0,5.687542E0,6.0259727E1,2.2181433E2,6.4522266E0,2.728076E0,1.4846401E1,2.235464E0,2.7331E0],"tree_param":{"num_deleted":"0","num_feature":"21","num_nodes":"27","size_leaf_vector":"1"}},{"base_weights":[3.1050729E-2,8.3695817E-1,1.8117685E-3,1.1255437E0,-2.343047E-3,4.172946E-2,-5.0677687E-1,5.4168075E-1,6.7979167E-3,9.148104E-4,5.081675E-1,1.8483578E-1,-6.627824E-1,4.889684E-3,5.192695E-4,6.961137E-5,-7.0432215E-3,3.1853393E-3,-2.9854178E-3,-2.0672868E-3,5.3368197E-3,-5.2406257E-3,-6.6665054E-4],"categories":[],"categories_nodes":[],"categories_segments":[],"categories_sizes":[],"default_left":[0,0,0,0,0,0,0,0,0,0,0,0,0,0,0,0,0,0,0,0,0,0,0],"id":40,"left_children":[1,3,5,7,-1,9,11,13,-1,15,17,19,21,-1,-1,-1,-1,-1,-1,-1,-1,-1,-1],"loss_changes":[8.448755E0,5.2570124E0,7.0670075E0,7.08519E-1,0E0,6.1434073E0,2.8558521E0,7.938936E-1,0E0,5.4789653E0,4.0795894E0,3.316101E0,4.1219854E0,0E0,0E0,0E0,0E0,0E0,0E0,0E0,0E0,0E0,0E0],"parents":[2147483647,0,0,1,1,2,2,3,3,5,5,6,6,7,7,9,9,10,10,11,11,12,12],"right_children":[2,4,6,8,-1,10,12,14,-1,16,18,20,22,-1,-1,-1,-1,-1,-1,-1,-1,-1,-1],"split_conditions":[6.7E-1,6.458976E-3,3.091151E-2,1.2008935E-2,-2.343047E-3,2.256213E-2,9.961183E-3,7.527248E-3,6.7979167E-3,2.2003291E-2,1.622036E-2,1.475E1,1.5144418E-2,4.889684E-3,5.192695E-4,6.961137E-5,-7.0432215E-3,3.1853393E-3,-2.9854178E-3,-2.0672868E-3,5.3368197E-3,-5.2406257E-3,-6.6665054E-4],"split_indices":[2,19,9,15,0,9,15,15,0,9,15,4,14,0,0,0,0,0,0,0,0,0,0],"split_type":[0,0,0,0,0,0,0,0,0,0,0,0,0,0,0,0,0,0,0,0,0,0,0],"sum_hessian":[3.576109E2,1.1553006E1,3.4605792E2,9.574522E0,1.978484E0,3.217246E2,2.433331E1,3.688139E0,5.8863835E0,2.9675928E2,2.4965317E1,4.444572E0,1.9888739E1,1.2294674E0,2.4586716E0,2.950269E2,1.7323961E0,2.2737183E1,2.2281332E0,2.9656048E0,1.478967E0,1.0943943E1,8.944796E0],"tree_param":{"num_deleted":"0","num_feature":"21","num_nodes":"23","size_leaf_vector":"1"}},{"base_weights":[-2.2659572E-2,9.1742106E-2,-2.5760013E-1,-1.051633E0,1.13414764E-1,-8.62897E-1,-1.2518883E-1,4.96414E-4,-7.6109967E-3,-1.0170028E-1,2.0243932E-1,-1.0559893E0,2.794564E-1,5.6566212E-2,-6.609975E-1,5.1595024E-3,-9.361275E-4,1.2222838E-3,-2.3739692E-3,9.82591E-4,-6.1358386E-3,-2.4748216E-3,5.0794715E-3,8.590936E-4,-1.8905519E-3,-2.0292157E-3,-7.042491E-3],"categories":[],"categories_nodes":[],"categories_segments":[],"categories_sizes":[],"default_left":[0,0,0,0,0,0,0,0,0,0,0,0,0,0,0,0,0,0,0,0,0,0,0,0,0,0,0],"id":41,"left_children":[1,3,5,7,9,11,13,-1,-1,15,17,19,21,23,25,-1,-1,-1,-1,-1,-1,-1,-1,-1,-1,-1,-1],"loss_changes":[9.377173E0,5.9370823E0,9.04701E0,2.569179E0,4.450371E0,4.7801056E0,9.278693E0,0E0,0E0,6.8221E0,4.7810926E0,4.0150986E0,2.630477E0,3.660907E0,4.027754E0,0E0,0E0,0E0,0E0,0E0,0E0,0E0,0E0,0E0,0E0,0E0,0E0],"parents":[2147483647,0,0,1,1,2,2,3,3,4,4,5,5,6,6,9,9,10,10,11,11,12,12,13,13,14,14],"right_children":[2,4,6,8,10,12,14,-1,-1,16,18,20,22,24,26,-1,-1,-1,-1,-1,-1,-1,-1,-1,-1,-1,-1],"split_conditions":[1.095329E-2,3.483031E0,1.21605415E-2,1.75E0,4.490556E-3,1.6250344E-1,6.0574374E0,4.96414E-4,-7.6109967E-3,2.9664661E-3,4.27E0,-3.9260685E-2,1.134334E-2,1.1862388E0,3.1440906E-2,5.1595024E-3,-9.361275E-4,1.2222838E-3,-2.3739692E-3,9.82591E-4,-6.1358386E-3,-2.4748216E-3,5.0794715E-3,8.590936E-4,-1.8905519E-3,-2.0292157E-3,-7.042491E-3],"split_indices":[16,5,16,2,14,19,5,0,0,15,2,12,16,18,12,0,0,0,0,0,0,0,0,0,0,0,0],"split_type":[0,0,0,0,0,0,0,0,0,0,0,0,0,0,0,0,0,0,0,0,0,0,0,0,0,0,0],"sum_hessian":[3.4700516E2,2.3377872E2,1.1322643E2,3.4647894E0,2.3031392E2,1.9332811E1,9.3893616E1,1.2344859E0,2.2303035E0,6.7373405E1,1.6294052E2,1.6602148E1,2.7306638E0,7.077874E1,2.3114876E1,3.9501657E0,6.3423237E1,1.5402351E2,8.91701E0,1.9783785E0,1.4623769E1,1.4908329E0,1.2398307E0,5.6423126E1,1.4355615E1,1.8382923E1,4.731953E0],"tree_param":{"num_deleted":"0","num_feature":"21","num_nodes":"27","size_leaf_vector":"1"}},{"base_weights":[4.510357E-3,8.252855E-2,-1.9552399E-1,1.12248875E-1,-5.2558964E-1,-9.855853E-3,-6.7588496E-1,4.2352456E-1,3.79797E-2,-9.8403656E-1,1.9586644E-1,5.6157038E-3,-1.01659924E-1,-7.7321506E-3,-3.7383065E-1,-4.0949704E-3,2.8387478E-3,4.888742E-4,-1.884553E-3,-8.5597084E-4,-8.240101E-3,5.3679515E-3,-2.0100824E-3,-4.824881E-3,2.8644281E-5,2.3103184E-3,-4.341455E-3],"categories":[],"categories_nodes":[],"categories_segments":[],"categories_sizes":[],"default_left":[0,0,0,0,0,0,0,0,0,0,0,0,0,0,0,0,0,0,0,0,0,0,0,0,0,0,0],"id":42,"left_children":[1,3,5,7,9,11,13,15,17,19,21,-1,23,-1,25,-1,-1,-1,-1,-1,-1,-1,-1,-1,-1,-1,-1],"loss_changes":[5.4509993E0,4.599717E0,8.734707E0,5.5404696E0,4.122853E0,7.572305E0,6.602478E0,8.744483E0,4.8782735E0,3.7287927E0,3.2920926E0,0E0,6.239922E0,0E0,9.325589E0,0E0,0E0,0E0,0E0,0E0,0E0,0E0,0E0,0E0,0E0,0E0,0E0],"parents":[2147483647,0,0,1,1,2,2,3,3,4,4,5,5,6,6,7,7,8,8,9,9,10,10,12,12,14,14],"right_children":[2,4,6,8,10,12,14,16,18,20,22,-1,24,-1,26,-1,-1,-1,-1,-1,-1,-1,-1,-1,-1,-1,-1],"split_conditions":[2.87E0,1.4246405E0,2.4E-1,-1.8679362E-3,1.7667286E0,4.7412915E-3,4.554419E-3,5.3528612E-3,3.7213154E-2,4.24792E0,1.9504747E0,5.6157038E-3,6.274435E-3,-7.7321506E-3,7.9825455E-3,-4.0949704E-3,2.8387478E-3,4.888742E-4,-1.884553E-3,-8.5597084E-4,-8.240101E-3,5.3679515E-3,-2.0100824E-3,-4.824881E-3,2.8644281E-5,2.3103184E-3,-4.341455E-3],"split_indices":[2,7,1,19,18,14,14,14,10,5,18,0,15,0,14,0,0,0,0,0,0,0,0,0,0,0,0],"split_type":[0,0,0,0,0,0,0,0,0,0,0,0,0,0,0,0,0,0,0,0,0,0,0,0,0,0,0],"sum_hessian":[3.4724762E2,2.5023672E2,9.7010895E1,2.3935426E2,1.0882453E1,7.070331E1,2.6307583E1,4.5201977E1,1.941523E2,6.431572E0,4.4508805E0,4.457472E0,6.6245834E1,5.715458E0,2.0592125E1,4.214539E0,4.0987434E1,1.7036339E2,2.3788908E1,3.4571683E0,2.9744039E0,1.4810164E0,2.969864E0,6.4452863E0,5.9800552E1,7.6779428E0,1.2914183E1],"tree_param":{"num_deleted":"0","num_feature":"21","num_nodes":"27","size_leaf_vector":"1"}},{"base_weights":[1.794947E-2,-2.6481444E-1,7.51395E-2,1.6483247E-1,-7.102649E-1,2.425161E-1,-8.094305E-2,6.2707734E-1,-1.8086232E-1,-1.0185288E0,3.9028063E-2,4.447918E-1,-8.260203E-3,3.644101E-1,-1.6480903E-1,4.7127E-3,-3.9283065E-3,-2.525033E-3,1.812921E-3,-5.6108334E-3,3.4085475E-4,2.5133267E-3,-4.0198816E-3,1.1553793E-4,3.043783E-3,-1.9857585E-3,1.1306666E-3,5.21047E-4,4.5628143E-3,-1.0555879E-3,3.073067E-3],"categories":[],"categories_nodes":[],"categories_segments":[],"categories_sizes":[],"default_left":[0,0,0,0,0,0,0,0,0,0,0,0,0,0,0,0,0,0,0,0,0,0,0,0,0,0,0,0,0,0,0],"id":43,"left_children":[1,3,5,7,9,11,13,15,17,19,21,23,25,27,29,-1,-1,-1,-1,-1,-1,-1,-1,-1,-1,-1,-1,-1,-1,-1,-1],"loss_changes":[5.6428194E0,1.1354504E1,7.5956097E0,5.0191064E0,6.7418995E0,7.1146765E0,5.6928015E0,6.694367E0,3.4138527E0,2.3960018E0,4.086281E0,5.3522854E0,5.884495E0,3.3580287E0,4.735317E0,0E0,0E0,0E0,0E0,0E0,0E0,0E0,0E0,0E0,0E0,0E0,0E0,0E0,0E0,0E0,0E0],"parents":[2147483647,0,0,1,1,2,2,3,3,4,4,5,5,6,6,7,7,8,8,9,9,10,10,11,11,12,12,13,13,14,14],"right_children":[2,4,6,8,10,12,14,16,18,20,22,24,26,28,30,-1,-1,-1,-1,-1,-1,-1,-1,-1,-1,-1,-1,-1,-1,-1,-1],"split_conditions":[4.2218086E-3,4.2789103E-3,8.305544E-3,4.418816E-2,6.584242E-3,5.099176E-2,5.63657E1,1.0555902E0,3.1959992E-2,8.872319E-2,8.776719E-1,-5.183975E-3,6.2074726E1,1.4934278E-2,3.0759644E-2,4.7127E-3,-3.9283065E-3,-2.525033E-3,1.812921E-3,-5.6108334E-3,3.4085475E-4,2.5133267E-3,-4.0198816E-3,1.1553793E-4,3.043783E-3,-1.9857585E-3,1.1306666E-3,5.21047E-4,4.5628143E-3,-1.0555879E-3,3.073067E-3],"split_indices":[14,15,14,12,16,12,3,7,11,12,7,10,3,15,17,0,0,0,0,0,0,0,0,0,0,0,0,0,0,0,0],"split_type":[0,0,0,0,0,0,0,0,0,0,0,0,0,0,0,0,0,0,0,0,0,0,0,0,0,0,0,0,0,0,0],"sum_hessian":[3.4671042E2,5.7715923E1,2.889945E2,2.9699785E1,2.801614E1,1.3918471E2,1.498098E2,1.2359436E1,1.734035E1,1.9595219E1,8.420919E0,7.661418E1,6.257052E1,2.321043E1,1.26599365E2,1.0375442E1,1.9839947E0,1.09060545E1,6.4342947E0,1.7859346E1,1.7358729E0,5.6933827E0,2.7275372E0,2.1769188E1,5.4844994E1,2.3269234E1,3.9301285E1,1.6546257E1,6.664173E0,1.2018768E2,6.4116855E0],"tree_param":{"num_deleted":"0","num_feature":"21","num_nodes":"31","size_leaf_vector":"1"}},{"base_weights":[-1.2076436E-2,7.706165E-2,-2.5699672E-1,2.2577342E-1,-1.2968293E-1,4.404581E-1,-4.7149414E-1,4.3848726E-1,3.8001314E-2,-1.4914025E0,-4.9780976E-2,7.378944E-1,-7.59723E-1,-3.7780556E-1,-1.3619097E0,1.1331913E-3,4.286598E-3,2.5560593E-3,-4.9649033E-4,-8.504059E-3,-2.5745332E-3,2.553793E-3,-6.155208E-4,1.7447225E-3,5.704931E-3,-6.9560963E-3,5.717509E-5,-3.2032696E-3,-3.9336586E-4,-1.5526491E-3,-7.761732E-3],"categories":[],"categories_nodes":[],"categories_segments":[],"categories_sizes":[],"default_left":[0,0,0,0,0,0,0,0,0,0,0,0,0,0,0,0,0,0,0,0,0,0,0,0,0,0,0,0,0,0,0],"id":44,"left_children":[1,3,5,7,9,11,13,15,17,19,21,23,25,27,29,-1,-1,-1,-1,-1,-1,-1,-1,-1,-1,-1,-1,-1,-1,-1,-1],"loss_changes":[7.649429E0,7.930586E0,1.4192825E1,5.968181E0,1.1693188E1,8.594257E0,5.4899597E0,6.0308437E0,5.2926965E0,3.4294987E-1,4.3041515E0,2.5089817E0,2.4324586E0,5.1789684E0,8.130808E-1,0E0,0E0,0E0,0E0,0E0,0E0,0E0,0E0,0E0,0E0,0E0,0E0,0E0,0E0,0E0,0E0],"parents":[2147483647,0,0,1,1,2,2,3,3,4,4,5,5,6,6,7,7,8,8,9,9,10,10,11,11,12,12,13,13,14,14],"right_children":[2,4,6,8,10,12,14,16,18,20,22,24,26,28,30,-1,-1,-1,-1,-1,-1,-1,-1,-1,-1,-1,-1,-1,-1,-1,-1],"split_conditions":[6.0574374E0,4.702381E-2,1.569E1,4.167693E0,3.5749729E0,6.784927E0,7.347275E-2,3.8244007E0,7.1974066E-3,9.5720494E-1,4.077657E-3,1.5716423E-1,1.0902712E-1,9.8672545E-1,8.044561E-1,1.1331913E-3,4.286598E-3,2.5560593E-3,-4.9649033E-4,-8.504059E-3,-2.5745332E-3,2.553793E-3,-6.155208E-4,1.7447225E-3,5.704931E-3,-6.9560963E-3,5.717509E-5,-3.2032696E-3,-3.9336586E-4,-1.5526491E-3,-7.761732E-3],"split_indices":[5,12,4,5,5,5,12,5,16,7,16,13,12,18,18,0,0,0,0,0,0,0,0,0,0,0,0,0,0,0,0],"split_type":[0,0,0,0,0,0,0,0,0,0,0,0,0,0,0,0,0,0,0,0,0,0,0,0,0,0,0,0,0,0,0],"sum_hessian":[3.4847412E2,2.5599191E2,9.2482216E1,1.488394E2,1.07152504E2,2.1504675E1,7.097754E1,6.915891E1,7.968049E1,4.959828E0,1.0219267E2,1.754239E1,3.9622838E0,6.550905E1,5.4684916E0,4.695154E1,2.2207373E1,1.7307121E1,6.2373363E1,3.4732413E0,1.4865865E0,1.1131207E1,9.106147E1,9.877296E0,7.665095E0,1.7363408E0,2.225943E0,3.4261597E1,3.1247454E1,1.2420259E0,4.2264657E0],"tree_param":{"num_deleted":"0","num_feature":"21","num_nodes":"31","size_leaf_vector":"1"}},{"base_weights":[2.0538875E-5,4.232796E-2,-4.916207E-1,5.2922852E-3,6.654889E-1,-3.1029206E-2,-9.0935403E-1,-5.224232E-1,4.6668794E-2,-1.0789082E-1,1.1202226E0,6.396482E-1,-6.5492994E-1,-5.313393E-2,-1.3089995E0,5.262251E-3,-3.4128516E-3,3.1882494E-3,7.293547E-5,-4.821379E-3,3.6378168E-3,2.4600406E-3,7.048818E-3,5.198285E-3,-3.7528186E-3,2.8608267E-3,-4.835849E-3,5.014903E-3,-2.8425776E-3,-1.697201E-3,-8.3775995E-3],"categories":[],"categories_nodes":[],"categories_segments":[],"categories_sizes":[],"default_left":[0,0,0,0,0,0,0,0,0,0,0,0,0,0,0,0,0,0,0,0,0,0,0,0,0,0,0,0,0,0,0],"id":45,"left_children":[1,3,5,7,9,11,13,15,17,19,21,23,25,27,29,-1,-1,-1,-1,-1,-1,-1,-1,-1,-1,-1,-1,-1,-1,-1,-1],"loss_changes":[7.365858E0,7.5218363E0,5.3705015E0,6.7666693E0,6.5508947E0,6.436186E0,4.953326E0,6.4013147E0,5.43688E0,6.1978474E0,1.4166479E0,4.9156218E0,3.5971406E0,3.680058E0,2.9725971E0,0E0,0E0,0E0,0E0,0E0,0E0,0E0,0E0,0E0,0E0,0E0,0E0,0E0,0E0,0E0,0E0],"parents":[2147483647,0,0,1,1,2,2,3,3,4,4,5,5,6,6,7,7,8,8,9,9,10,10,11,11,12,12,13,13,14,14],"right_children":[2,4,6,8,10,12,14,16,18,20,22,24,26,28,30,-1,-1,-1,-1,-1,-1,-1,-1,-1,-1,-1,-1,-1,-1,-1,-1],"split_conditions":[3.091151E-2,2.356464E-2,1.3292389E-2,7.879668E-1,7E-2,1.704276E-2,7.2966546E-1,-4.6620606E-3,7.2E-1,8.8249254E-1,2.8853856E-2,5.7431556E-2,3.220925E-3,9E-2,-7.116079E-2,5.262251E-3,-3.4128516E-3,3.1882494E-3,7.293547E-5,-4.821379E-3,3.6378168E-3,2.4600406E-3,7.048818E-3,5.198285E-3,-3.7528186E-3,2.8608267E-3,-4.835849E-3,5.014903E-3,-2.8425776E-3,-1.697201E-3,-8.3775995E-3],"split_indices":[9,9,16,7,1,11,18,9,2,18,12,12,19,0,13,0,0,0,0,0,0,0,0,0,0,0,0,0,0,0,0],"split_type":[0,0,0,0,0,0,0,0,0,0,0,0,0,0,0,0,0,0,0,0,0,0,0,0,0,0,0,0,0,0,0],"sum_hessian":[3.521261E2,3.2506686E2,2.705922E1,3.077832E2,1.7283667E1,1.3380359E1,1.3678861E1,2.1532455E1,2.8625076E2,6.6820436E0,1.0601623E1,6.4362807E0,6.944078E0,4.7134614E0,8.9654E0,1.4732151E0,2.005924E1,1.3767219E1,2.7248352E2,3.2235448E0,3.4584987E0,4.1962748E0,6.405348E0,5.193968E0,1.2423126E0,1.2396863E0,5.7043915E0,1.2355312E0,3.4779303E0,2.9878175E0,5.977582E0],"tree_param":{"num_deleted":"0","num_feature":"21","num_nodes":"31","size_leaf_vector":"1"}},{"base_weights":[-6.8902984E-2,-3.8330498E-1,-5.092242E-3,1.0163567E-1,-7.446333E-1,-2.542988E-2,7.7378416E-1,5.9728343E-3,-3.383465E-2,1.03658594E-1,-9.1504437E-1,-3.0101172E-4,-8.233031E-1,6.29869E-3,-1.4111631E-3,-3.62205E-3,9.349098E-4,5.5878856E-3,-1.9970722E-3,-5.055986E-3,1.3045243E-3,-2.1900683E-4,4.351525E-3,4.8619983E-4,-6.4861146E-3],"categories":[],"categories_nodes":[],"categories_segments":[],"categories_sizes":[],"default_left":[0,0,0,0,0,0,0,0,0,0,0,0,0,0,0,0,0,0,0,0,0,0,0,0,0],"id":46,"left_children":[1,3,5,7,9,11,13,-1,15,17,19,21,23,-1,-1,-1,-1,-1,-1,-1,-1,-1,-1,-1,-1],"loss_changes":[7.198289E0,1.0683343E1,4.7616487E0,3.9977064E0,5.126997E0,5.86844E0,4.281116E0,0E0,3.9099774E0,3.8748083E0,3.55295E0,1.0822867E1,4.025E0,0E0,0E0,0E0,0E0,0E0,0E0,0E0,0E0,0E0,0E0,0E0,0E0],"parents":[2147483647,0,0,1,1,2,2,3,3,4,4,5,5,6,6,8,8,9,9,10,10,11,11,12,12],"right_children":[2,4,6,8,10,12,14,-1,16,18,20,22,24,-1,-1,-1,-1,-1,-1,-1,-1,-1,-1,-1,-1],"split_conditions":[-3.1E-1,-1.06E0,3.56837E-2,4.714921E-3,5.957725E0,1.8889926E-2,6.3432124E-3,5.9728343E-3,6.1381515E-3,-2.795696E-2,2.0155983E-2,1.5594242E-2,-9.093379E-2,6.29869E-3,-1.4111631E-3,-3.62205E-3,9.349098E-4,5.5878856E-3,-1.9970722E-3,-5.055986E-3,1.3045243E-3,-2.1900683E-4,4.351525E-3,4.8619983E-4,-6.4861146E-3],"split_indices":[1,6,17,14,5,16,19,0,16,10,14,16,10,0,0,0,0,0,0,0,0,0,0,0,0],"split_type":[0,0,0,0,0,0,0,0,0,0,0,0,0,0,0,0,0,0,0,0,0,0,0,0,0],"sum_hessian":[3.5789545E2,5.953813E1,2.983573E2,2.5727644E1,3.3810486E1,2.9170773E2,6.6495786E0,1.9751164E0,2.375253E1,5.721425E0,2.8089062E1,2.837708E2,7.936931E0,4.4218388E0,2.22774E0,5.2023273E0,1.8550201E1,1.4922893E0,4.2291355E0,2.609544E1,1.9936221E0,2.7117126E2,1.2599546E1,2.9675577E0,4.9693737E0],"tree_param":{"num_deleted":"0","num_feature":"21","num_nodes":"25","size_leaf_vector":"1"}},{"base_weights":[-2.8211087E-2,8.23313E-1,-5.3894963E-2,6.4139077E-3,1.7321692E-1,4.295978E-2,-3.0378422E-1,7.474528E-1,-3.3378187E-3,-5.1467663E-1,8.279758E-2,-1.1714589E-1,-5.7922703E-1,5.219073E-3,4.2033626E-4,-3.87039E-3,2.1573445E-3,-6.8841915E-4,1.0090017E-3,3.4557122E-3,-1.1984693E-3,-6.369061E-3,-2.023496E-3],"categories":[],"categories_nodes":[],"categories_segments":[],"categories_sizes":[],"default_left":[0,0,0,0,0,0,0,0,0,0,0,0,0,0,0,0,0,0,0,0,0,0,0],"id":47,"left_children":[1,3,5,-1,7,9,11,13,-1,15,17,19,21,-1,-1,-1,-1,-1,-1,-1,-1,-1,-1],"loss_changes":[7.7143154E0,2.8632402E0,8.275201E0,0E0,3.1223397E0,5.5273232E0,4.8404665E0,6.397402E-1,0E0,4.4083014E0,6.0963864E0,5.927325E0,4.128668E0,0E0,0E0,0E0,0E0,0E0,0E0,0E0,0E0,0E0,0E0],"parents":[2147483647,0,0,1,1,2,2,4,4,5,5,6,6,7,7,9,9,10,10,11,11,12,12],"right_children":[2,4,6,-1,8,10,12,14,-1,16,18,20,22,-1,-1,-1,-1,-1,-1,-1,-1,-1,-1],"split_conditions":[6.7E-1,1.7392732E-2,1.1030531E-2,6.4139077E-3,6.10894E-2,8.0557615E-1,2.89E0,1.1424455E-1,-3.3378187E-3,5.33E0,5.665437E-3,-7.79878E-2,8.603601E-1,5.219073E-3,4.2033626E-4,-3.87039E-3,2.1573445E-3,-6.8841915E-4,1.0090017E-3,3.4557122E-3,-1.1984693E-3,-6.369061E-3,-2.023496E-3],"split_indices":[2,10,17,0,11,7,2,13,0,0,16,13,7,0,0,0,0,0,0,0,0,0,0],"split_type":[0,0,0,0,0,0,0,0,0,0,0,0,0,0,0,0,0,0,0,0,0,0,0],"sum_hessian":[3.4969907E2,9.329599E0,3.4036948E2,4.896019E0,4.4335804E0,2.4589207E2,9.4477394E1,2.7003193E0,1.733261E0,1.5600607E1,2.3029147E2,5.716682E1,3.7310574E1,1.470099E0,1.2302203E0,1.2386504E1,3.2141032E0,8.067133E1,1.4962013E2,6.9153767E0,5.0251442E1,6.227556E0,3.108302E1],"tree_param":{"num_deleted":"0","num_feature":"21","num_nodes":"23","size_leaf_vector":"1"}},{"base_weights":[-6.768869E-3,-2.7118647E-1,5.52347E-2,2.9115194E-1,-4.0130216E-1,3.0742097E-1,-6.879066E-2,6.955242E-1,-4.560506E-1,2.952807E-1,-5.263445E-1,-2.0357141E-1,4.5973006E-1,-3.3382794E-1,7.841769E-2,9.047546E-4,5.840432E-3,9.985435E-4,-4.6017426E-3,-1.5652676E-3,5.6624594E-3,-3.5170338E-3,-1.7045009E-4,-3.1208182E-3,2.1936102E-3,3.2104193E-3,8.9067566E-5,-5.5304067E-3,-1.1084535E-3,5.6857243E-4,-5.459312E-3],"categories":[],"categories_nodes":[],"categories_segments":[],"categories_sizes":[],"default_left":[0,0,0,0,0,0,0,0,0,0,0,0,0,0,0,0,0,0,0,0,0,0,0,0,0,0,0,0,0,0,0],"id":48,"left_children":[1,3,5,7,9,11,13,15,17,19,21,23,25,27,29,-1,-1,-1,-1,-1,-1,-1,-1,-1,-1,-1,-1,-1,-1,-1,-1],"loss_changes":[5.7521906E0,4.992842E0,8.913338E0,4.2758093E0,4.905862E0,7.402318E0,7.4934783E0,1.9521022E0,1.7684215E0,4.908114E0,4.0374727E0,6.286274E0,5.8431807E0,5.689747E0,5.2403793E0,0E0,0E0,0E0,0E0,0E0,0E0,0E0,0E0,0E0,0E0,0E0,0E0,0E0,0E0,0E0,0E0],"parents":[2147483647,0,0,1,1,2,2,3,3,4,4,5,5,6,6,7,7,8,8,9,9,10,10,11,11,12,12,13,13,14,14],"right_children":[2,4,6,8,10,12,14,16,18,20,22,24,26,28,30,-1,-1,-1,-1,-1,-1,-1,-1,-1,-1,-1,-1,-1,-1,-1,-1],"split_conditions":[4.418787E-3,3.8033806E-2,1.577E1,9.7293353E-1,-4.6620606E-3,7.5047183E-1,1.8E-1,9.1432863E-1,1.16E0,1.1134902E0,3.661863E-2,1.04956195E-1,3.4451142E-2,1.695E1,2.286751E0,9.047546E-4,5.840432E-3,9.985435E-4,-4.6017426E-3,-1.5652676E-3,5.6624594E-3,-3.5170338E-3,-1.7045009E-4,-3.1208182E-3,2.1936102E-3,3.2104193E-3,8.9067566E-5,-5.5304067E-3,-1.1084535E-3,5.6857243E-4,-5.459312E-3],"split_indices":[14,20,4,7,9,18,1,7,0,18,11,20,11,4,7,0,0,0,0,0,0,0,0,0,0,0,0,0,0,0,0],"split_type":[0,0,0,0,0,0,0,0,0,0,0,0,0,0,0,0,0,0,0,0,0,0,0,0,0,0,0,0,0,0,0],"sum_hessian":[3.489402E2,6.564021E1,2.833E2,1.2101575E1,5.3538635E1,9.290778E1,1.903922E2,7.897017E0,4.2045584E0,7.940793E0,4.5597843E1,2.1256456E1,7.165132E1,6.7534256E1,1.2285795E2,4.442495E0,3.4545221E0,1.9791461E0,2.2254121E0,4.961642E0,2.9791512E0,3.3219833E1,1.2378011E1,1.2862166E1,8.39429E0,5.040082E1,2.1250504E1,7.439201E0,6.009505E1,1.2013732E2,2.720629E0],"tree_param":{"num_deleted":"0","num_feature":"21","num_nodes":"31","size_leaf_vector":"1"}},{"base_weights":[2.8063593E-2,1.1196692E-1,-1.7893821E-1,-3.2529417E-1,1.6212922E-1,-4.968886E-1,2.3625417E-1,-1.0421237E-1,-1.2993242E0,2.8855163E-1,-3.0632194E-2,5.4461127E-3,-5.582368E-1,-6.176889E-1,4.033458E-1,9.472754E-4,-5.8384654E-3,-7.8037684E-3,-1.568538E-3,-2.347048E-3,1.634192E-3,9.3628874E-4,-1.4258814E-3,-1.9772518E-3,-6.264381E-3,1.2837094E-3,-5.7428586E-3,2.5458178E-3,-4.440134E-3],"categories":[],"categories_nodes":[],"categories_segments":[],"categories_sizes":[],"default_left":[0,0,0,0,0,0,0,0,0,0,0,0,0,0,0,0,0,0,0,0,0,0,0,0,0,0,0,0,0],"id":49,"left_children":[1,3,5,7,9,11,13,15,17,19,21,-1,23,25,27,-1,-1,-1,-1,-1,-1,-1,-1,-1,-1,-1,-1,-1,-1],"loss_changes":[6.0928936E0,5.52357E0,1.34812155E1,5.4637556E0,5.4778275E0,6.21791E0,6.6102037E0,7.1790733E0,7.2729254E-1,4.0893297E0,5.033533E0,0E0,5.855755E0,3.8650293E0,5.629825E0,0E0,0E0,0E0,0E0,0E0,0E0,0E0,0E0,0E0,0E0,0E0,0E0,0E0,0E0],"parents":[2147483647,0,0,1,1,2,2,3,3,4,4,5,5,6,6,7,7,8,8,9,9,10,10,12,12,13,13,14,14],"right_children":[2,4,6,8,10,12,14,16,18,20,22,-1,24,26,28,-1,-1,-1,-1,-1,-1,-1,-1,-1,-1,-1,-1,-1,-1],"split_conditions":[2.87E0,3.42324E-3,6.2788506E1,1.345E1,5.253215E-2,-1.13E0,6.641065E-3,1.1671906E0,1.624E1,-1.2910251E-1,9.3901896E-1,5.4461127E-3,1.2788136E0,2.7595239E-2,1.3871602E0,9.472754E-4,-5.8384654E-3,-7.8037684E-3,-1.568538E-3,-2.347048E-3,1.634192E-3,9.3628874E-4,-1.4258814E-3,-1.9772518E-3,-6.264381E-3,1.2837094E-3,-5.7428586E-3,2.5458178E-3,-4.440134E-3],"split_indices":[2,14,3,4,12,6,17,18,4,19,18,0,18,12,18,0,0,0,0,0,0,0,0,0,0,0,0,0,0],"split_type":[0,0,0,0,0,0,0,0,0,0,0,0,0,0,0,0,0,0,0,0,0,0,0,0,0,0,0,0,0],"sum_hessian":[3.4865506E2,2.4842209E2,1.0023296E2,2.5001451E1,2.2342064E2,5.6652363E1,4.3580605E1,2.1278683E1,3.7227676E0,1.3462802E2,8.879262E1,1.4857097E0,5.5166653E1,6.6906214E0,3.6889984E1,1.7318296E1,3.960386E0,2.4811306E0,1.2416369E0,5.9320054E0,1.2869601E2,4.7983253E1,4.0809364E1,4.596435E1,9.202301E0,2.7225788E0,3.9680426E0,3.4655926E1,2.23406E0],"tree_param":{"num_deleted":"0","num_feature":"21","num_nodes":"29","size_leaf_vector":"1"}},{"base_weights":[3.577021E-2,1.0283215E0,1.0247547E-2,1.2802062E0,-6.953627E-4,5.2723844E-2,-5.041523E-1,5.075862E-4,7.4971686E-3,3.7494633E-1,-3.7782043E-2,5.089513E-3,-6.1880845E-1,-5.62326E-3,2.2882982E-3,3.9261864E-3,-3.3391084E-4,-3.6444413E-3,3.4363728E-3],"categories":[],"categories_nodes":[],"categories_segments":[],"categories_sizes":[],"default_left":[0,0,0,0,0,0,0,0,0,0,0,0,0,0,0,0,0,0,0],"id":50,"left_children":[1,3,5,7,-1,9,11,-1,-1,13,15,-1,17,-1,-1,-1,-1,-1,-1],"loss_changes":[8.984766E0,2.7926779E0,7.6127625E0,1.762991E0,0E0,9.393562E0,5.2680006E0,0E0,0E0,9.273989E0,6.0671134E0,0E0,4.143815E0,0E0,0E0,0E0,0E0,0E0,0E0],"parents":[2147483647,0,0,1,1,2,2,3,3,5,5,6,6,9,9,10,10,12,12],"right_children":[2,4,6,8,-1,10,12,-1,-1,14,16,-1,18,-1,-1,-1,-1,-1,-1],"split_conditions":[3.524078E-2,1.1259065E0,3.091151E-2,5.6484608E1,-6.953627E-4,1.57E0,5.733015E-1,5.075862E-4,7.4971686E-3,4.935051E-3,4.8439457E1,5.089513E-3,1.137427E0,-5.62326E-3,2.2882982E-3,3.9261864E-3,-3.3391084E-4,-3.6444413E-3,3.4363728E-3],"split_indices":[20,18,9,3,0,2,18,0,0,16,3,0,18,0,0,0,0,0,0],"split_type":[0,0,0,0,0,0,0,0,0,0,0,0,0,0,0,0,0,0,0],"sum_hessian":[3.5408868E2,7.89185E0,3.4619684E2,6.411769E0,1.4800811E0,3.2061935E2,2.557747E1,1.2349675E0,5.176801E0,6.961842E1,2.5100095E2,1.2399063E0,2.4337566E1,2.9807231E0,6.66377E1,7.6557183E0,2.4334523E2,2.2853357E1,1.4842085E0],"tree_param":{"num_deleted":"0","num_feature":"21","num_nodes":"19","size_leaf_vector":"1"}},{"base_weights":[5.499619E-3,4.4892244E-2,-6.85532E-1,7.73129E-1,2.0325845E-3,4.2291608E-1,-8.7208897E-1,-2.7712078E-3,9.1720533E-1,1.6773188E-1,-1.1567336E-1,-1.7017564E-3,4.9876403E-3,-1.0094627E0,1.6430081E-3,5.181003E-3,-1.7920734E-3,-2.0290088E-4,2.42138E-3,-4.1749634E-4,-7.106756E-3,-1.147593E-3,-5.7964614E-3],"categories":[],"categories_nodes":[],"categories_segments":[],"categories_sizes":[],"default_left":[0,0,0,0,0,0,0,0,0,0,0,0,0,0,0,0,0,0,0,0,0,0,0],"id":51,"left_children":[1,3,5,7,9,11,13,-1,15,17,19,-1,-1,21,-1,-1,-1,-1,-1,-1,-1,-1,-1],"loss_changes":[9.798761E0,1.0623582E1,4.383361E0,