{"learner":{"attributes":{"scikit_learn":"{\"_estimator_type\": \"classifier\"}"},"feature_names":["sma_10","ret_5","volatility","atr","vol_ratio","price_vs_sma50","rsi","price_vs_sma20","macd_signal","ret_20","strong_trend","ret_50","ret_200","sma_5","low_vol"],"feature_types":["float","float","float","float","float","float","float","float","float","float","int","float","float","float","int"],"gradient_booster":{"model":{"cats":{"enc":[],"feature_segments":[],"sorted_idx":[]},"gbtree_model_param":{"num_parallel_tree":"1","num_trees":"100"},"iteration_indptr":[0,1,2,3,4,5,6,7,8,9,10,11,12,13,14,15,16,17,18,19,20,21,22,23,24,25,26,27,28,29,30,31,32,33,34,35,36,37,38,39,40,41,42,43,44,45,46,47,48,49,50,51,52,53,54,55,56,57,58,59,60,61,62,63,64,65,66,67,68,69,70,71,72,73,74,75,76,77,78,79,80,81,82,83,84,85,86,87,88,89,90,91,92,93,94,95,96,97,98,99,100],"tree_info":[0,0,0,0,0,0,0,0,0,0,0,0,0,0,0,0,0,0,0,0,0,0,0,0,0,0,0,0,0,0,0,0,0,0,0,0,0,0,0,0,0,0,0,0,0,0,0,0,0,0,0,0,0,0,0,0,0,0,0,0,0,0,0,0,0,0,0,0,0,0,0,0,0,0,0,0,0,0,0,0,0,0,0,0,0,0,0,0,0,0,0,0,0,0,0,0,0,0,0,0],"trees":[{"base_weights":[-0E0,-4.078309E-3,1.2434201E-1,2.622629E-1,-2.594927E-3,4.3834946E-3,8.4108434E-4],"categories":[],"categories_nodes":[],"categories_segments":[],"categories_sizes":[],"default_left":[0,0,0,0,0,0,0],"id":0,"left_children":[1,-1,3,5,-1,-1,-1],"loss_changes":[6.2551036E0,0E0,5.6098766E0,1.4726739E0,0E0,0E0,0E0],"parents":[2147483647,0,0,2,2,3,3],"right_children":[2,-1,4,6,-1,-1,-1],"split_conditions":[-2.0818515E0,-4.078309E-3,4.5036335E-2,1.6920252E0,-2.594927E-3,4.3834946E-3,8.4108434E-4],"split_indices":[8,0,5,8,0,0,0],"split_type":[0,0,0,0,0,0,0],"sum_hessian":[1.02018135E2,1.8956915E1,8.3061226E1,6.535147E1,1.770975E1,2.2698412E1,4.265306E1],"tree_param":{"num_deleted":"0","num_feature":"15","num_nodes":"7","size_leaf_vector":"1"}},{"base_weights":[6.310537E-2,2.3200752E-1,-1.2247755E-1,3.9553363E-3,4.984236E-3,4.2891936E-4,-2.4521418E-1,2.2839522E-3,-1.3262028E-3,-0E0,-3.782939E-3],"categories":[],"categories_nodes":[],"categories_segments":[],"categories_sizes":[],"default_left":[0,0,0,0,0,0,0,0,0,0,0],"id":1,"left_children":[1,3,5,-1,7,-1,9,-1,-1,-1,-1],"loss_changes":[3.8423655E0,1.9511042E0,1.4470952E0,0E0,1.6109483E0,0E0,1.5865316E0,0E0,0E0,0E0,0E0],"parents":[2147483647,0,0,1,1,2,2,4,4,6,6],"right_children":[2,4,6,-1,8,-1,10,-1,-1,-1,-1],"split_conditions":[5.0092864E0,4.7500167E-2,-2.2564013E-2,3.9553363E-3,8.854574E-1,4.2891936E-4,3.803041E2,2.2839522E-3,-1.3262028E-3,-0E0,-3.782939E-3],"split_indices":[3,11,11,0,4,0,13,0,0,0,0],"split_type":[0,0,0,0,0,0,0,0,0,0,0],"sum_hessian":[1.00022E2,5.3875694E1,4.614631E1,2.4442318E1,2.9433376E1,1.8959297E1,2.7187014E1,1.14739065E1,1.7959469E1,1.0475492E1,1.6711521E1],"tree_param":{"num_deleted":"0","num_feature":"15","num_nodes":"11","size_leaf_vector":"1"}},{"base_weights":[-2.1635361E-2,6.709136E-2,-3.7053146E-3,2.2178267E-1,-2.111422E-1,-1.7115995E-3,3.4273984E-3,7.419313E-4,-3.959474E-3],"categories":[],"categories_nodes":[],"categories_segments":[],"categories_sizes":[],"default_left":[0,0,0,0,0,0,0,0,0],"id":2,"left_children":[1,3,-1,5,7,-1,-1,-1,-1],"loss_changes":[3.8574417E0,4.408904E0,0E0,3.8889654E0,2.4842925E0,0E0,0E0,0E0,0E0],"parents":[2147483647,0,0,1,1,3,3,4,4],"right_children":[2,4,-1,6,8,-1,-1,-1,-1],"split_conditions":[4.5472365E-2,4.1556564E2,-3.7053146E-3,-1.2144699E-1,8.970468E-1,-1.7115995E-3,3.4273984E-3,7.419313E-4,-3.959474E-3],"split_indices":[5,0,0,12,4,0,0,0,0],"split_type":[0,0,0,0,0,0,0,0,0],"sum_hessian":[9.677616E1,8.1309456E1,1.5466707E1,5.5870037E1,2.5439419E1,1.0227391E1,4.5642647E1,1.0225576E1,1.5213842E1],"tree_param":{"num_deleted":"0","num_feature":"15","num_nodes":"9","size_leaf_vector":"1"}},{"base_weights":[-7.3705636E-2,2.1086249E-1,-2.943916E-1,3.3975015E-3,-3.547489E-4,2.5257395E-4,-3.7249196E-1,-1.036744E-4,-4.5248247E-3],"categories":[],"categories_nodes":[],"categories_segments":[],"categories_sizes":[],"default_left":[0,0,0,0,0,0,0,0,0],"id":3,"left_children":[1,3,5,-1,-1,-1,7,-1,-1],"loss_changes":[7.6134987E0,2.0726726E0,2.1418424E0,0E0,0E0,0E0,1.1671448E0,0E0,0E0],"parents":[2147483647,0,0,1,1,2,2,6,6],"right_children":[2,4,6,-1,-1,-1,8,-1,-1],"split_conditions":[1.4451419E-1,1.084853E-2,7.260358E-1,3.3975015E-3,-3.547489E-4,2.5257395E-4,3.799295E1,-1.036744E-4,-4.5248247E-3],"split_indices":[2,1,4,0,0,0,6,0,0],"split_type":[0,0,0,0,0,0,0,0,0],"sum_hessian":[1.00018906E2,4.1901695E1,5.811721E1,2.7684256E1,1.4217441E1,1.022605E1,4.789116E1,1.297042E1,3.4920742E1],"tree_param":{"num_deleted":"0","num_feature":"15","num_nodes":"9","size_leaf_vector":"1"}},{"base_weights":[-7.1915224E-2,-2.9339525E-1,1.19980946E-1,-4.0105445E-4,-3.6227354E-1,2.7400807E-1,-2.67969E-3,-4.280603E-3,-4.986133E-4,4.2473455E-3,-5.282355E-4],"categories":[],"categories_nodes":[],"categories_segments":[],"categories_sizes":[],"default_left":[0,0,0,0,0,0,0,0,0,0,0],"id":4,"left_children":[1,3,5,-1,7,9,-1,-1,-1,-1,-1],"loss_changes":[4.904584E0,3.7963915E-1,4.3186173E0,0E0,7.813072E-2,3.0423465E0,0E0,0E0,0E0,0E0,0E0],"parents":[2147483647,0,0,1,1,2,2,4,4,5,5],"right_children":[2,4,6,-1,8,10,-1,-1,-1,-1,-1],"split_conditions":[1.659393E-2,3.756024E1,5.7447296E-2,-4.0105445E-4,2.8878E-3,7.4646495E-2,-2.67969E-3,-4.280603E-3,-4.986133E-4,4.2473455E-3,-5.282355E-4],"split_indices":[5,6,9,0,5,11,0,0,0,0,0],"split_type":[0,0,0,0,0,0,0,0,0,0,0],"sum_hessian":[9.303601E1,4.315261E1,4.9883396E1,1.5712652E1,2.743996E1,3.9654224E1,1.0229174E1,1.6964872E1,1.0475087E1,2.7182505E1,1.247172E1],"tree_param":{"num_deleted":"0","num_feature":"15","num_nodes":"11","size_leaf_vector":"1"}},{"base_weights":[-1.2432404E-1,1.8964371E-1,-3.0888745E-1,3.8215148E-3,-4.2558555E-4,-0E0,-3.7995318E-1,-2.2855541E-4,-4.3541635E-3],"categories":[],"categories_nodes":[],"categories_segments":[],"categories_sizes":[],"default_left":[0,0,0,0,0,0,0,0,0],"id":5,"left_children":[1,3,5,-1,-1,-1,7,-1,-1],"loss_changes":[6.8058043E0,2.431828E0,1.4416609E0,0E0,0E0,0E0,5.839672E-1,0E0,0E0],"parents":[2147483647,0,0,1,1,2,2,6,6],"right_children":[2,4,6,-1,-1,-1,8,-1,-1],"split_conditions":[1.19064525E-1,3.1744874E0,3.791085E1,3.8215148E-3,-4.2558555E-4,-0E0,3.6519022E2,-2.2855541E-4,-4.3541635E-3],"split_indices":[2,3,6,0,0,0,13,0,0],"split_type":[0,0,0,0,0,0,0,0,0],"sum_hessian":[9.528206E1,3.3166992E1,6.2115063E1,1.6957355E1,1.6209639E1,1.4467442E1,4.764762E1,1.0727819E1,3.6919804E1],"tree_param":{"num_deleted":"0","num_feature":"15","num_nodes":"9","size_leaf_vector":"1"}},{"base_weights":[-3.858735E-2,-3.9232927E-3,1.14271E-1,2.0644775E-1,-1.8790563E-3,3.251593E-4,4.0362887E-3],"categories":[],"categories_nodes":[],"categories_segments":[],"categories_sizes":[],"default_left":[0,0,0,0,0,0,0],"id":6,"left_children":[1,-1,3,5,-1,-1,-1],"loss_changes":[6.500405E0,0E0,2.644053E0,1.7941363E0,0E0,0E0,0E0],"parents":[2147483647,0,0,2,2,3,3],"right_children":[2,-1,4,6,-1,-1,-1],"split_conditions":[1E0,-3.9232927E-3,4.515412E-2,3.1012695E0,-1.8790563E-3,3.251593E-4,4.0362887E-3],"split_indices":[10,0,5,8,0,0,0],"split_type":[0,0,0,0,0,0,0],"sum_hessian":[9.678324E1,2.6449682E1,7.033356E1,5.8856976E1,1.1476585E1,4.0156116E1,1.8700857E1],"tree_param":{"num_deleted":"0","num_feature":"15","num_nodes":"7","size_leaf_vector":"1"}},{"base_weights":[-7.495062E-2,-3.5867348E-1,1.0208776E-1,-4.7223103E-1,-5.0901494E-5,2.4699557E-1,-0E0,-5.835846E-3,-6.571823E-4,3.461278E-3,-0E0,-1.892622E-3,2.1344768E-3],"categories":[],"categories_nodes":[],"categories_segments":[],"categories_sizes":[],"default_left":[0,0,0,0,0,0,0,0,0,0,0,0,0],"id":7,"left_children":[1,3,5,7,-1,9,11,-1,-1,-1,-1,-1,-1],"loss_changes":[6.0870037E0,1.3530431E0,1.26833E0,4.477477E-1,0E0,5.1730657E-1,2.3809166E0,0E0,0E0,0E0,0E0,0E0,0E0],"parents":[2147483647,0,0,1,1,2,2,3,3,5,5,6,6],"right_children":[2,4,6,8,-1,10,12,-1,-1,-1,-1,-1,-1],"split_conditions":[5.1224135E-2,6.8751225E0,1.3003222E-3,2.0836353E-2,-5.0901494E-5,4.1749063E2,1.869463E-2,-5.835846E-3,-6.571823E-4,3.461278E-3,-0E0,-1.892622E-3,2.1344768E-3],"split_indices":[12,3,1,9,0,0,1,0,0,0,0,0,0],"split_type":[0,0,0,0,0,0,0,0,0,0,0,0,0],"sum_hessian":[9.8785065E1,3.618446E1,6.2600605E1,2.2707808E1,1.3476654E1,2.3192472E1,3.940813E1,1.24748335E1,1.0232973E1,1.1220191E1,1.1972282E1,2.3441666E1,1.5966467E1],"tree_param":{"num_deleted":"0","num_feature":"15","num_nodes":"13","size_leaf_vector":"1"}},{"base_weights":[-1.1874834E-1,2.4495376E-3,-1.9846547E-1,-4.1033527E-1,-6.2310535E-2,-1.7656988E-4,-5.473763E-3,3.454014E-4,-3.6762361E-3],"categories":[],"categories_nodes":[],"categories_segments":[],"categories_sizes":[],"default_left":[0,0,0,0,0,0,0,0,0],"id":8,"left_children":[1,-1,3,5,7,-1,-1,-1,-1],"loss_changes":[3.3838427E0,0E0,1.8987923E0,1.0046377E0,2.5330646E0,0E0,0E0,0E0,0E0],"parents":[2147483647,0,0,2,2,3,3,4,4],"right_children":[2,-1,4,6,8,-1,-1,-1,-1],"split_conditions":[3.574795E2,2.4495376E-3,1E0,-6.1881864E-3,4.3640857E2,-1.7656988E-4,-5.473763E-3,3.454014E-4,-3.6762361E-3],"split_indices":[13,0,10,11,13,0,0,0,0],"split_type":[0,0,0,0,0,0,0,0,0],"sum_hessian":[9.154703E1,1.04765415E1,8.107049E1,2.0965015E1,6.0105473E1,1.0231925E1,1.0733089E1,4.9876987E1,1.0228485E1],"tree_param":{"num_deleted":"0","num_feature":"15","num_nodes":"9","size_leaf_vector":"1"}},{"base_weights":[9.112124E-3,9.8947234E-2,-2.7549255E-3,-6.234786E-2,2.5087014E-1,5.7625026E-4,-3.1461453E-3,-0E0,3.0646296E-3],"categories":[],"categories_nodes":[],"categories_segments":[],"categories_sizes":[],"default_left":[0,0,0,0,0,0,0,0,0],"id":9,"left_children":[1,3,-1,5,7,-1,-1,-1,-1],"loss_changes":[2.973083E0,2.6865244E0,0E0,1.9868351E0,6.31155E-1,0E0,0E0,0E0,0E0],"parents":[2147483647,0,0,1,1,3,3,4,4],"right_children":[2,4,-1,6,8,-1,-1,-1,-1],"split_conditions":[5.1277462E-2,3.4815709E-3,-2.7549255E-3,-3.8438616E-3,3.6722952E2,5.7625026E-4,-3.1461453E-3,-0E0,3.0646296E-3],"split_indices":[9,7,0,9,0,0,0,0,0],"split_type":[0,0,0,0,0,0,0,0,0],"sum_hessian":[1.0252711E2,8.555786E1,1.6969242E1,4.1166058E1,4.4391808E1,3.0440722E1,1.0725336E1,1.1223497E1,3.316831E1],"tree_param":{"num_deleted":"0","num_feature":"15","num_nodes":"9","size_leaf_vector":"1"}},{"base_weights":[-6.62428E-2,-0E0,-3.5734954E-3,-1.4657098E-1,1.4633651E-1,3.0916274E-4,-3.094568E-3,2.9477724E-3,-0E0],"categories":[],"categories_nodes":[],"categories_segments":[],"categories_sizes":[],"default_left":[0,0,0,0,0,0,0,0,0],"id":10,"left_children":[1,3,-1,5,7,-1,-1,-1,-1],"loss_changes":[2.371186E0,2.3870845E0,0E0,1.9328202E0,1.5252457E0,0E0,0E0,0E0,0E0],"parents":[2147483647,0,0,1,1,3,3,4,4],"right_children":[2,4,-1,6,8,-1,-1,-1,-1],"split_conditions":[4.7900848E-2,5.24954E1,-3.5734954E-3,3.920059E1,1.3501212E-2,3.0916274E-4,-3.094568E-3,2.9477724E-3,-0E0],"split_indices":[5,6,0,6,7,0,0,0,0],"split_type":[0,0,0,0,0,0,0,0,0],"sum_hessian":[1.0377653E2,9.1298225E1,1.2478304E1,4.3912098E1,4.7386124E1,2.195342E1,2.195868E1,2.1695465E1,2.5690659E1],"tree_param":{"num_deleted":"0","num_feature":"15","num_nodes":"9","size_leaf_vector":"1"}},{"base_weights":[1.2368748E-3,1.5203094E-1,-1.3995302E-1,-1.6336569E-3,2.9941854E-1,7.256015E-4,-2.8184342E-1,4.7846497E-3,-1.1706959E-3,-4.3272204E-3,-3.6999644E-4],"categories":[],"categories_nodes":[],"categories_segments":[],"categories_sizes":[],"default_left":[0,0,0,0,0,0,0,0,0,0,0],"id":11,"left_children":[1,3,5,-1,7,-1,9,-1,-1,-1,-1],"loss_changes":[2.4771829E0,3.3851943E0,2.1149595E0,0E0,4.363334E0,0E0,7.997649E-1,0E0,0E0,0E0,0E0],"parents":[2147483647,0,0,1,1,2,2,4,4,6,6],"right_children":[2,4,6,-1,8,-1,10,-1,-1,-1,-1],"split_conditions":[4.660118E0,3.4815709E-3,3.7922754E2,-1.6336569E-3,4.5751322E-2,7.256015E-4,3.9699298E2,4.7846497E-3,-1.1706959E-3,-4.3272204E-3,-3.6999644E-4],"split_indices":[3,7,13,0,5,0,13,0,0,0,0],"split_type":[0,0,0,0,0,0,0,0,0,0,0],"sum_hessian":[9.5790016E1,4.937316E1,4.6416855E1,1.3218278E1,3.6154884E1,1.7718243E1,2.869861E1,2.5923452E1,1.0231431E1,1.0481828E1,1.8216784E1],"tree_param":{"num_deleted":"0","num_feature":"15","num_nodes":"11","size_leaf_vector":"1"}},{"base_weights":[1.4459729E-1,-2.3668385E-3,2.717741E-1,3.565607E-1,-4.6824611E-4,6.3840766E-5,5.1690326E-3],"categories":[],"categories_nodes":[],"categories_segments":[],"categories_sizes":[],"default_left":[0,0,0,0,0,0,0],"id":12,"left_children":[1,-1,3,5,-1,-1,-1],"loss_changes":[5.977371E0,0E0,2.869195E0,3.5758047E0,0E0,0E0,0E0],"parents":[2147483647,0,0,2,2,3,3],"right_children":[2,-1,4,6,-1,-1,-1],"split_conditions":[-1.6277382E-2,-2.3668385E-3,5.4624084E-2,5.3907993E1,-4.6824611E-4,6.3840766E-5,5.1690326E-3],"split_indices":[11,0,9,6,0,0,0],"split_type":[0,0,0,0,0,0,0],"sum_hessian":[9.9280716E1,2.0711912E1,7.856881E1,6.3592552E1,1.4976254E1,2.5197605E1,3.8394947E1],"tree_param":{"num_deleted":"0","num_feature":"15","num_nodes":"7","size_leaf_vector":"1"}},{"base_weights":[6.2058534E-2,1.517826E-1,-3.3466907E-3,-5.550745E-2,4.360488E-3,1.3326493E-3,-2.1188604E-3],"categories":[],"categories_nodes":[],"categories_segments":[],"categories_sizes":[],"default_left":[0,0,0,0,0,0,0],"id":13,"left_children":[1,3,-1,5,-1,-1,-1],"loss_changes":[4.410045E0,6.6640797E0,0E0,2.3130863E0,0E0,0E0,0E0],"parents":[2147483647,0,0,1,1,3,3],"right_children":[2,4,-1,6,-1,-1,-1],"split_conditions":[4.9999155E-2,2.1446882E-2,-3.3466907E-3,3.8576645E2,4.360488E-3,1.3326493E-3,-2.1188604E-3],"split_indices":[5,9,0,0,0,0,0],"split_type":[0,0,0,0,0,0,0],"sum_hessian":[1.0475896E2,9.2527626E1,1.2231327E1,5.612799E1,3.6399635E1,2.3202461E1,3.292553E1],"tree_param":{"num_deleted":"0","num_feature":"15","num_nodes":"7","size_leaf_vector":"1"}},{"base_weights":[4.774953E-2,1.5633787E-1,-2.2698098E-3,3.677509E-1,4.5481115E-3,4.47818E-3,6.442716E-4,2.5169011E-3,-1.1705728E-3],"categories":[],"categories_nodes":[],"categories_segments":[],"categories_sizes":[],"default_left":[0,0,0,0,0,0,0,0,0],"id":14,"left_children":[1,3,-1,5,7,-1,-1,-1,-1],"loss_changes":[3.5216842E0,2.3806686E0,0E0,5.344391E-3,2.3261716E0,0E0,0E0,0E0,0E0],"parents":[2147483647,0,0,1,1,3,3,4,4],"right_children":[2,4,-1,6,8,-1,-1,-1,-1],"split_conditions":[2.1725947E-1,3.8242538E2,-2.2698098E-3,2.8156567E0,1.0816718E-1,4.47818E-3,6.442716E-4,2.5169011E-3,-1.1705728E-3],"split_indices":[2,0,0,8,2,0,0,0,0],"split_type":[0,0,0,0,0,0,0,0,0],"sum_hessian":[9.8521454E1,7.630926E1,2.22122E1,2.3191874E1,5.3117386E1,1.1971341E1,1.1220531E1,1.6701172E1,3.6416214E1],"tree_param":{"num_deleted":"0","num_feature":"15","num_nodes":"9","size_leaf_vector":"1"}},{"base_weights":[-9.4961636E-2,2.1160673E-2,-4.7993637E-3,-6.333022E-2,3.263363E-3,1.3764873E-3,-1.5324261E-3],"categories":[],"categories_nodes":[],"categories_segments":[],"categories_sizes":[],"default_left":[0,0,0,0,0,0,0],"id":15,"left_children":[1,3,-1,5,-1,-1,-1],"loss_changes":[5.4896913E0,2.849478E0,0E0,1.6376872E0,0E0,0E0,0E0],"parents":[2147483647,0,0,1,1,3,3],"right_children":[2,4,-1,6,-1,-1,-1],"split_conditions":[4.5472365E-2,3.366696E-2,-4.7993637E-3,3.799295E1,3.263363E-3,1.3764873E-3,-1.5324261E-3],"split_indices":[5,5,0,6,0,0,0],"split_type":[0,0,0,0,0,0,0],"sum_hessian":[1.0026622E2,8.229564E1,1.797058E1,6.809175E1,1.4203885E1,1.5967918E1,5.2123837E1],"tree_param":{"num_deleted":"0","num_feature":"15","num_nodes":"7","size_leaf_vector":"1"}},{"base_weights":[-1.1831325E-2,1.1444213E-1,-4.77361E-3,-1.0315563E-1,2.1345513E-1,-0E0,-2.1048323E-3,3.2845044E-3,-0E0],"categories":[],"categories_nodes":[],"categories_segments":[],"categories_sizes":[],"default_left":[0,0,0,0,0,0,0,0,0],"id":16,"left_children":[1,3,-1,5,7,-1,-1,-1,-1],"loss_changes":[7.2737293E0,2.3028126E0,0E0,5.537406E-1,1.9016063E0,0E0,0E0,0E0,0E0],"parents":[2147483647,0,0,1,1,3,3,4,4],"right_children":[2,4,-1,6,8,-1,-1,-1,-1],"split_conditions":[4.5036335E-2,-1.1333724E-2,-4.77361E-3,3.920059E1,2.1195471E-1,-0E0,-2.1048323E-3,3.2845044E-3,-0E0],"split_indices":[5,5,0,6,12,0,0,0,0],"split_type":[0,0,0,0,0,0,0,0,0],"sum_hessian":[9.8269325E1,8.154429E1,1.672504E1,2.2211872E1,5.9332413E1,1.1976088E1,1.02357855E1,3.690971E1,2.24227E1],"tree_param":{"num_deleted":"0","num_feature":"15","num_nodes":"9","size_leaf_vector":"1"}},{"base_weights":[-5.7252303E-2,-2.9858083E-1,3.9037973E-2,3.342888E-5,-4.9226824E-3,1.799147E-1,-2.6856622E-2,-0E0,2.295229E-3,-1.0188565E-3,8.1402063E-4],"categories":[],"categories_nodes":[],"categories_segments":[],"categories_sizes":[],"default_left":[0,0,0,0,0,0,0,0,0,0,0],"id":17,"left_children":[1,3,5,-1,-1,7,9,-1,-1,-1,-1],"loss_changes":[2.8688936E0,2.5353687E0,9.6779114E-1,0E0,0E0,8.101475E-2,5.917072E-1,0E0,0E0,0E0,0E0],"parents":[2147483647,0,0,1,1,2,2,5,5,6,6],"right_children":[2,4,6,-1,-1,8,10,-1,-1,-1,-1],"split_conditions":[1E0,3.7633987E2,1.08148165E-1,3.342888E-5,-4.9226824E-3,4.003377E2,1.088828E0,-0E0,2.295229E-3,-1.0188565E-3,8.1402063E-4],"split_indices":[10,13,12,0,0,13,4,0,0,0,0],"split_type":[0,0,0,0,0,0,0,0,0,0,0],"sum_hessian":[9.727409E1,2.471321E1,7.256088E1,1.1480944E1,1.3232265E1,2.2445902E1,5.0114983E1,1.0971916E1,1.1473986E1,3.540397E1,1.4711015E1],"tree_param":{"num_deleted":"0","num_feature":"15","num_nodes":"11","size_leaf_vector":"1"}},{"base_weights":[3.5259582E-2,4.4132704E-3,-6.156417E-2,2.5995636E-1,-2.4285759E-1,-0E0,3.6538532E-3,-0E0,-3.1420945E-3],"categories":[],"categories_nodes":[],"categories_segments":[],"categories_sizes":[],"default_left":[0,0,0,0,0,0,0,0,0],"id":18,"left_children":[1,-1,3,5,7,-1,-1,-1,-1],"loss_changes":[4.8886657E0,0E0,6.082261E0,6.5444493E-1,1.4372745E0,0E0,0E0,0E0,0E0],"parents":[2147483647,0,0,2,2,3,3,4,4],"right_children":[2,-1,4,6,8,-1,-1,-1,-1],"split_conditions":[3.574795E2,4.4132704E-3,3.9456437E0,4.0949512E2,3.791085E1,-0E0,3.6538532E-3,-0E0,-3.1420945E-3],"split_indices":[13,0,3,0,6,0,0,0,0],"split_type":[0,0,0,0,0,0,0,0,0],"sum_hessian":[9.777034E1,1.3962181E1,8.380816E1,2.6664412E1,5.7143745E1,1.3203917E1,1.3460494E1,1.2474124E1,4.466962E1],"tree_param":{"num_deleted":"0","num_feature":"15","num_nodes":"9","size_leaf_vector":"1"}},{"base_weights":[8.278582E-2,1.9344571E-1,-4.5431238E-3,4.071695E-1,-1.987224E-2,5.4367125E-4,4.582483E-3,-2.1587051E-3,2.55771E-3],"categories":[],"categories_nodes":[],"categories_segments":[],"categories_sizes":[],"default_left":[0,0,0,0,0,0,0,0,0],"id":19,"left_children":[1,3,-1,5,7,-1,-1,-1,-1],"loss_changes":[7.1567883E0,5.0172257E0,0E0,1.8701935E-1,3.598697E0,0E0,0E0,0E0,0E0],"parents":[2147483647,0,0,1,1,3,3,4,4],"right_children":[2,4,-1,6,8,-1,-1,-1,-1],"split_conditions":[3.158921E-2,3.9644894E2,-4.5431238E-3,-1.4945696E-2,6.0706776E1,5.4367125E-4,4.582483E-3,-2.1587051E-3,2.55771E-3],"split_indices":[7,13,0,1,6,0,0,0,0],"split_type":[0,0,0,0,0,0,0,0,0],"sum_hessian":[1.0001568E2,8.977853E1,1.0237155E1,4.264889E1,4.7129635E1,1.0480594E1,3.2168297E1,3.093174E1,1.6197895E1],"tree_param":{"num_deleted":"0","num_feature":"15","num_nodes":"9","size_leaf_vector":"1"}},{"base_weights":[-0E0,1.4182922E-1,-4.7453004E-3,-1.9231447E-3,2.4687788E-1,3.9590145E-3,-0E0],"categories":[],"categories_nodes":[],"categories_segments":[],"categories_sizes":[],"default_left":[0,0,0,0,0,0,0],"id":20,"left_children":[1,3,-1,-1,5,-1,-1],"loss_changes":[7.774511E0,3.5938053E0,0E0,0E0,2.703329E0,0E0,0E0],"parents":[2147483647,0,0,1,1,4,4],"right_children":[2,4,-1,-1,6,-1,-1],"split_conditions":[4.5472365E-2,-7.9361945E-2,-4.7453004E-3,-1.9231447E-3,3.7397828E-2,3.9590145E-3,-0E0],"split_indices":[5,12,0,0,11,0,0],"split_type":[0,0,0,0,0,0,0],"sum_hessian":[9.403024E1,7.7303215E1,1.6727034E1,1.4225976E1,6.3077236E1,3.566405E1,2.7413187E1],"tree_param":{"num_deleted":"0","num_feature":"15","num_nodes":"7","size_leaf_vector":"1"}},{"base_weights":[7.584163E-2,2.6656333E-1,-1.7550758E-1,3.8133204E-1,-1.2037007E-3,-3.5412584E-3,3.3513003E-4,4.5682346E-3,-0E0],"categories":[],"categories_nodes":[],"categories_segments":[],"categories_sizes":[],"default_left":[0,0,0,0,0,0,0,0,0],"id":21,"left_children":[1,3,5,7,-1,-1,-1,-1,-1],"loss_changes":[5.605332E0,3.6547155E0,2.2755885E0,1.3693256E0,0E0,0E0,0E0,0E0,0E0],"parents":[2147483647,0,0,1,1,2,2,3,3],"right_children":[2,4,6,8,-1,-1,-1,-1,-1],"split_conditions":[5.4225883E0,1.644164E-2,6.615678E0,4.3022076E2,-1.2037007E-3,-3.5412584E-3,3.3513003E-4,4.5682346E-3,-0E0],"split_indices":[3,1,3,0,0,0,0,0,0],"split_type":[0,0,0,0,0,0,0,0,0],"sum_hessian":[9.5270645E1,5.608616E1,3.9184483E1,4.5360825E1,1.0725333E1,1.996526E1,1.9219225E1,3.5137173E1,1.0223652E1],"tree_param":{"num_deleted":"0","num_feature":"15","num_nodes":"9","size_leaf_vector":"1"}},{"base_weights":[2.0768723E-1,-2.1372826E-3,2.789747E-1,4.307126E-1,-0E0,5.4992465E-3,1.9342459E-3,-3.5663345E-3,2.1964984E-3],"categories":[],"categories_nodes":[],"categories_segments":[],"categories_sizes":[],"default_left":[0,0,0,0,0,0,0,0,0],"id":22,"left_children":[1,-1,3,5,7,-1,-1,-1,-1],"loss_changes":[4.108309E0,0E0,4.453823E0,1.12238884E-1,4.447457E0,0E0,0E0,0E0,0E0],"parents":[2147483647,0,0,2,2,3,3,4,4],"right_children":[2,-1,4,6,8,-1,-1,-1,-1],"split_conditions":[-5.0145857E-2,-2.1372826E-3,3.2796583E0,5.345018E-3,3.632226E-2,5.4992465E-3,1.9342459E-3,-3.5663345E-3,2.1964984E-3],"split_indices":[5,0,8,1,5,0,0,0,0],"split_type":[0,0,0,0,0,0,0,0,0],"sum_hessian":[1.0473452E2,1.0233046E1,9.450147E1,5.7848747E1,3.665273E1,2.692972E1,3.0919027E1,1.1714677E1,2.4938053E1],"tree_param":{"num_deleted":"0","num_feature":"15","num_nodes":"9","size_leaf_vector":"1"}},{"base_weights":[-0E0,3.0575916E-1,-2.7789223E-1,4.159442E-1,-0E0,-1.940167E-4,-4.4641914E-3,2.0089609E-4,4.9860645E-3,1.1033807E-3,-1.8763482E-3],"categories":[],"categories_nodes":[],"categories_segments":[],"categories_sizes":[],"default_left":[0,0,0,0,0,0,0,0,0,0,0],"id":23,"left_children":[1,3,5,7,-1,9,-1,-1,-1,-1,-1],"loss_changes":[1.0536518E1,2.0809703E0,2.519238E0,8.4166E-1,0E0,1.0340545E0,0E0,0E0,0E0,0E0,0E0],"parents":[2147483647,0,0,1,1,2,2,3,3,5,5],"right_children":[2,4,6,8,-1,10,-1,-1,-1,-1,-1],"split_conditions":[1.5418135E-1,6.581959E-2,3.803041E2,1.8989297E-2,-0E0,2.1725947E-1,-4.4641914E-3,2.0089609E-4,4.9860645E-3,1.1033807E-3,-1.8763482E-3],"split_indices":[2,11,13,11,0,2,0,0,0,0,0],"split_type":[0,0,0,0,0,0,0,0,0,0,0],"sum_hessian":[1.03732216E2,5.0340317E1,5.3391895E1,3.4633987E1,1.5706331E1,2.6186737E1,2.720516E1,1.0220002E1,2.4413984E1,1.5704416E1,1.0482321E1],"tree_param":{"num_deleted":"0","num_feature":"15","num_nodes":"11","size_leaf_vector":"1"}},{"base_weights":[-1.1254068E-2,-3.958407E-3,1.53719E-1,2.468472E-1,-1.5949635E-3,2.9022607E-3,-0E0],"categories":[],"categories_nodes":[],"categories_segments":[],"categories_sizes":[],"default_left":[0,0,0,0,0,0,0],"id":24,"left_children":[1,-1,3,5,-1,-1,-1],"loss_changes":[7.5288153E0,0E0,2.7866926E0,6.854243E-1,0E0,0E0,0E0],"parents":[2147483647,0,0,2,2,3,3],"right_children":[2,-1,4,6,-1,-1,-1],"split_conditions":[-2.2847345E-2,-3.958407E-3,4.515412E-2,6.172478E0,-1.5949635E-3,2.9022607E-3,-0E0],"split_indices":[12,0,5,3,0,0,0],"split_type":[0,0,0,0,0,0,0],"sum_hessian":[9.525748E1,2.6214151E1,6.904332E1,5.731384E1,1.1729483E1,4.683282E1,1.0481018E1],"tree_param":{"num_deleted":"0","num_feature":"15","num_nodes":"7","size_leaf_vector":"1"}},{"base_weights":[5.5360377E-2,1.1727874E-1,-1.9195653E-3,-3.748646E-3,3.2781535E-3,1.0714097E-3,-2.641459E-3],"categories":[],"categories_nodes":[],"categories_segments":[],"categories_sizes":[],"default_left":[0,0,0,0,0,0,0],"id":25,"left_children":[1,3,-1,5,-1,-1,-1],"loss_changes":[1.846168E0,2.8335395E0,0E0,2.4353256E0,0E0,0E0,0E0],"parents":[2147483647,0,0,1,1,3,3],"right_children":[2,4,-1,6,-1,-1,-1],"split_conditions":[5.5990018E-2,2.1722231E-2,-1.9195653E-3,1.1383705E-2,3.2781535E-3,1.0714097E-3,-2.641459E-3],"split_indices":[9,9,0,1,0,0,0],"split_type":[0,0,0,0,0,0,0],"sum_hessian":[1.0073407E2,8.800296E1,1.2731107E1,5.9100883E1,2.8902079E1,4.2884014E1,1.6216871E1],"tree_param":{"num_deleted":"0","num_feature":"15","num_nodes":"7","size_leaf_vector":"1"}},{"base_weights":[3.8423133E-3,-1.4393862E-1,2.5481334E-1,-3.444289E-3,-0E0,3.857185E-3,-0E0,2.775184E-3,-2.3267067E-3],"categories":[],"categories_nodes":[],"categories_segments":[],"categories_sizes":[],"default_left":[0,0,0,0,0,0,0,0,0],"id":26,"left_children":[1,3,5,-1,7,-1,-1,-1,-1],"loss_changes":[4.630721E0,2.191224E0,1.3599253E0,0E0,4.0675225E0,0E0,0E0,0E0,0E0],"parents":[2147483647,0,0,1,1,2,2,4,4],"right_children":[2,4,6,-1,8,-1,-1,-1,-1],"split_conditions":[1.7982343E-1,-1.1382835E-2,6.090927E-2,-3.444289E-3,8.0991555E-3,3.857185E-3,-0E0,2.775184E-3,-2.3267067E-3],"split_indices":[12,1,11,0,1,0,0,0,0],"split_type":[0,0,0,0,0,0,0,0,0],"sum_hessian":[1.0197664E2,6.435957E1,3.761707E1,2.1457384E1,4.290219E1,1.9921564E1,1.7695503E1,1.8944393E1,2.3957796E1],"tree_param":{"num_deleted":"0","num_feature":"15","num_nodes":"9","size_leaf_vector":"1"}},{"base_weights":[6.99752E-2,2.0056073E-1,-3.3130916E-3,-1.2060222E-3,3.3337012E-1,4.293056E-3,-0E0],"categories":[],"categories_nodes":[],"categories_segments":[],"categories_sizes":[],"default_left":[0,0,0,0,0,0,0],"id":27,"left_children":[1,3,-1,-1,5,-1,-1],"loss_changes":[6.1007133E0,4.37951E0,0E0,0E0,2.2147813E0,0E0,0E0],"parents":[2147483647,0,0,1,1,4,4],"right_children":[2,4,-1,-1,6,-1,-1],"split_conditions":[4.5036335E-2,-1.1333724E-2,-3.3130916E-3,-1.2060222E-3,6.2884234E-2,4.293056E-3,-0E0],"split_indices":[5,5,0,0,11,0,0],"split_type":[0,0,0,0,0,0,0],"sum_hessian":[9.623625E1,7.826225E1,1.7973995E1,2.0961702E1,5.7300552E1,4.2599545E1,1.4701008E1],"tree_param":{"num_deleted":"0","num_feature":"15","num_nodes":"7","size_leaf_vector":"1"}},{"base_weights":[6.548391E-2,-4.9896054E-2,2.1322265E-1,7.5754516E-2,-4.1890657E-3,3.7929355E-3,2.2773452E-2,-9.160014E-4,2.7296213E-3,1.2208656E-3,-5.75523E-4],"categories":[],"categories_nodes":[],"categories_segments":[],"categories_sizes":[],"default_left":[0,0,0,0,0,0,0,0,0,0,0],"id":28,"left_children":[1,3,5,7,-1,-1,9,-1,-1,-1,-1],"loss_changes":[2.131616E0,3.7036703E0,1.2066326E0,2.2600768E0,0E0,0E0,4.4119692E-1,0E0,0E0,0E0,0E0],"parents":[2147483647,0,0,1,1,2,2,3,3,6,6],"right_children":[2,4,6,8,-1,-1,10,-1,-1,-1,-1],"split_conditions":[1.5932316E-1,9.8945715E-2,4.7500167E-2,-8.863141E-3,-4.1890657E-3,3.7929355E-3,3.0029165E-2,-9.160014E-4,2.7296213E-3,1.2208656E-3,-5.75523E-4],"split_indices":[12,12,11,12,0,0,9,0,0,0,0],"split_type":[0,0,0,0,0,0,0,0,0,0,0],"sum_hessian":[9.922739E1,5.5633278E1,4.359411E1,4.5408512E1,1.0224764E1,1.5185734E1,2.8408375E1,2.4717255E1,2.0691257E1,1.5944856E1,1.2463519E1],"tree_param":{"num_deleted":"0","num_feature":"15","num_nodes":"11","size_leaf_vector":"1"}},{"base_weights":[-2.126474E-2,-1.6144796E-1,7.5402044E-2,7.504289E-5,-2.9163586E-3,-2.6108767E-3,2.119808E-1,3.2976149E-3,-0E0],"categories":[],"categories_nodes":[],"categories_segments":[],"categories_sizes":[],"default_left":[0,0,0,0,0,0,0,0,0],"id":29,"left_children":[1,3,5,-1,-1,-1,7,-1,-1],"loss_changes":[1.6438123E0,1.4202329E0,3.506073E0,0E0,0E0,0E0,1.2564783E0,0E0,0E0],"parents":[2147483647,0,0,1,1,2,2,6,6],"right_children":[2,4,6,-1,-1,-1,8,-1,-1],"split_conditions":[3.9259192E2,1.6404863E-3,-1.2092371E-2,7.504289E-5,-2.9163586E-3,-2.6108767E-3,4.1759418E2,3.2976149E-3,-0E0],"split_indices":[13,1,1,0,0,0,0,0,0],"split_type":[0,0,0,0,0,0,0,0,0],"sum_hessian":[9.5971886E1,4.0656456E1,5.5315426E1,1.8452274E1,2.2204184E1,1.1224217E1,4.409121E1,2.3906782E1,2.0184427E1],"tree_param":{"num_deleted":"0","num_feature":"15","num_nodes":"9","size_leaf_vector":"1"}},{"base_weights":[2.6933238E-2,1.4410244E-1,-4.978673E-3,-1.5099375E-3,2.4122442E-1,3.0762467E-3,-7.898817E-6],"categories":[],"categories_nodes":[],"categories_segments":[],"categories_sizes":[],"default_left":[0,0,0,0,0,0,0],"id":30,"left_children":[1,3,-1,-1,5,-1,-1],"loss_changes":[7.370634E0,3.3912032E0,0E0,0E0,1.6509843E0,0E0,0E0],"parents":[2147483647,0,0,1,1,4,4],"right_children":[2,4,-1,-1,6,-1,-1],"split_conditions":[3.158921E-2,-2.1272445E0,-4.978673E-3,-1.5099375E-3,4.3159772E2,3.0762467E-3,-7.898817E-6],"split_indices":[7,8,0,0,0,0,0],"split_type":[0,0,0,0,0,0,0],"sum_hessian":[1.0395199E2,9.246703E1,1.148495E1,1.8973787E1,7.349325E1,5.8785534E1,1.4707713E1],"tree_param":{"num_deleted":"0","num_feature":"15","num_nodes":"7","size_leaf_vector":"1"}},{"base_weights":[4.9575984E-2,1.7938568E-1,-3.5025803E-3,-5.184779E-2,2.900626E-1,8.475437E-4,-1.8860854E-3,4.610249E-3,1.1755471E-3],"categories":[],"categories_nodes":[],"categories_segments":[],"categories_sizes":[],"default_left":[0,0,0,0,0,0,0,0,0],"id":31,"left_children":[1,3,-1,5,7,-1,-1,-1,-1],"loss_changes":[5.9065094E0,2.6345017E0,0E0,8.982532E-1,7.608123E-1,0E0,0E0,0E0,0E0],"parents":[2147483647,0,0,1,1,3,3,4,4],"right_children":[2,4,-1,6,8,-1,-1,-1,-1],"split_conditions":[4.5472365E-2,-1.506648E0,-3.5025803E-3,9.4110847E-1,1.4492755E0,8.475437E-4,-1.8860854E-3,4.610249E-3,1.1755471E-3],"split_indices":[5,8,0,4,8,0,0,0,0],"split_type":[0,0,0,0,0,0,0,0,0],"sum_hessian":[9.498697E1,7.7757E1,1.7229969E1,2.3965921E1,5.379108E1,1.0234239E1,1.3731683E1,1.5705045E1,3.8086037E1],"tree_param":{"num_deleted":"0","num_feature":"15","num_nodes":"9","size_leaf_vector":"1"}},{"base_weights":[-0E0,1.3505292E-1,-2.368291E-1,2.0543718E-1,-8.6753524E-4,1.2711458E-3,-4.1128415E-1,3.5584903E-6,3.0198544E-3,-6.472421E-4,-4.9181646E-3],"categories":[],"categories_nodes":[],"categories_segments":[],"categories_sizes":[],"default_left":[0,0,0,0,0,0,0,0,0,0,0],"id":32,"left_children":[1,3,5,7,-1,-1,9,-1,-1,-1,-1],"loss_changes":[4.0657372E0,1.4873375E0,3.8350196E0,9.692631E-1,0E0,0E0,1.4261961E-1,0E0,0E0,0E0,0E0],"parents":[2147483647,0,0,1,1,2,2,3,3,6,6],"right_children":[2,4,6,8,-1,-1,10,-1,-1,-1,-1],"split_conditions":[5.4627395E0,4.965755E-2,-5.111059E-2,3.9797934E2,-8.6753524E-4,1.2711458E-3,8.3557314E-1,3.5584903E-6,3.0198544E-3,-6.472421E-4,-4.9181646E-3],"split_indices":[3,9,9,13,0,0,4,0,0,0,0],"split_type":[0,0,0,0,0,0,0,0,0,0,0],"sum_hessian":[1.0394441E2,6.625248E1,3.7691936E1,5.4275917E1,1.1976561E1,1.1235082E1,2.6456854E1,2.3901123E1,3.0374796E1,1.0731165E1,1.572569E1],"tree_param":{"num_deleted":"0","num_feature":"15","num_nodes":"11","size_leaf_vector":"1"}},{"base_weights":[1.0834061E-2,1.9144773E-1,-1.8469505E-1,3.9977476E-1,-3.9230607E-2,4.8209305E-4,-3.5778305E-3,-0E0,5.418378E-3,1.5624386E-3,-2.0224175E-3,-5.895222E-4,1.0474767E-3],"categories":[],"categories_nodes":[],"categories_segments":[],"categories_sizes":[],"default_left":[0,0,0,0,0,0,0,0,0,0,0,0,0],"id":33,"left_children":[1,3,5,7,9,11,-1,-1,-1,-1,-1,-1,-1],"loss_changes":[4.331405E0,3.6901314E0,2.1675491E0,1.630414E0,1.5778886E0,3.2106695E-1,0E0,0E0,0E0,0E0,0E0,0E0,0E0],"parents":[2147483647,0,0,1,1,2,2,3,3,4,4,5,5],"right_children":[2,4,6,8,10,12,-1,-1,-1,-1,-1,-1,-1],"split_conditions":[4.894797E0,3.3067603E0,2.9232253E-3,1.716566E-1,1.6404863E-3,-2.0988271E0,-3.5778305E-3,-0E0,5.418378E-3,1.5624386E-3,-2.0224175E-3,-5.895222E-4,1.0474767E-3],"split_indices":[3,8,1,12,1,8,0,0,0,0,0,0,0],"split_type":[0,0,0,0,0,0,0,0,0,0,0,0,0],"sum_hessian":[1.02446045E2,5.602127E1,4.6424774E1,2.7862827E1,2.8158445E1,2.4455715E1,2.1969059E1,1.1698133E1,1.6164694E1,1.0203514E1,1.7954931E1,1.2235944E1,1.221977E1],"tree_param":{"num_deleted":"0","num_feature":"15","num_nodes":"13","size_leaf_vector":"1"}},{"base_weights":[-4.8442673E-2,2.673504E-3,-1.1939229E-1,1.6993782E-2,-4.1740683E-1,2.4279295E-3,-8.6602656E-4,-3.3874242E-4,-5.4669045E-3],"categories":[],"categories_nodes":[],"categories_segments":[],"categories_sizes":[],"default_left":[0,0,0,0,0,0,0,0,0],"id":34,"left_children":[1,-1,3,5,7,-1,-1,-1,-1],"loss_changes":[2.57905E0,0E0,4.424046E0,2.0980074E0,8.817401E-1,0E0,0E0,0E0,0E0],"parents":[2147483647,0,0,2,2,3,3,4,4],"right_children":[2,-1,4,6,8,-1,-1,-1,-1],"split_conditions":[3.57247E2,2.673504E-3,1.8998006E-1,9.283419E-3,8.970468E-1,2.4279295E-3,-8.6602656E-4,-3.3874242E-4,-5.4669045E-3],"split_indices":[13,0,2,5,4,0,0,0,0],"split_type":[0,0,0,0,0,0,0,0,0],"sum_hessian":[9.7465744E1,1.0216479E1,8.724926E1,6.4023285E1,2.3225973E1,1.8945667E1,4.507762E1,1.0987009E1,1.2238963E1],"tree_param":{"num_deleted":"0","num_feature":"15","num_nodes":"9","size_leaf_vector":"1"}},{"base_weights":[2.2460839E-2,-1.8401848E-1,1.4693901E-1,7.234746E-4,-4.638938E-3,2.64313E-1,-4.5822863E-2,4.2167846E-3,-1.0710865E-3,-3.1223204E-3,1.80031E-3],"categories":[],"categories_nodes":[],"categories_segments":[],"categories_sizes":[],"default_left":[0,0,0,0,0,0,0,0,0,0,0],"id":35,"left_children":[1,3,5,-1,-1,7,9,-1,-1,-1,-1],"loss_changes":[3.1038451E0,3.842889E0,2.1102533E0,0E0,0E0,3.884098E0,2.795215E0,0E0,0E0,0E0,0E0],"parents":[2147483647,0,0,1,1,2,2,5,5,6,6],"right_children":[2,4,6,-1,-1,8,10,-1,-1,-1,-1],"split_conditions":[-3.0928927E-3,3.920059E1,6.670376E1,7.234746E-4,-4.638938E-3,4.1714853E2,7.325582E1,4.2167846E-3,-1.0710865E-3,-3.1223204E-3,1.80031E-3],"split_indices":[7,6,6,0,0,13,6,0,0,0,0],"split_type":[0,0,0,0,0,0,0,0,0,0,0],"sum_hessian":[1.0168433E2,3.342446E1,6.8259865E1,1.9450127E1,1.3974336E1,4.3343548E1,2.491632E1,3.1385342E1,1.1958205E1,1.1708507E1,1.3207814E1],"tree_param":{"num_deleted":"0","num_feature":"15","num_nodes":"11","size_leaf_vector":"1"}},{"base_weights":[-1.5973859E-2,1.146303E-1,-2.922332E-1,-3.4327237E-3,2.4428627E-1,-0E0,-4.0642247E-3,2.1062554E-3,-2.5202483E-3,4.134926E-3,-0E0],"categories":[],"categories_nodes":[],"categories_segments":[],"categories_sizes":[],"default_left":[0,0,0,0,0,0,0,0,0,0,0],"id":36,"left_children":[1,3,5,7,9,-1,-1,-1,-1,-1,-1],"loss_changes":[4.326606E0,1.4202738E0,1.1896288E0,3.012842E0,1.7525909E0,0E0,0E0,0E0,0E0,0E0,0E0],"parents":[2147483647,0,0,1,1,2,2,3,3,4,4],"right_children":[2,4,6,8,10,-1,-1,-1,-1,-1,-1],"split_conditions":[1.8736283E-1,9.9587643E-1,-1.0075875E-2,8.1280535E-1,1.2500851E-1,-0E0,-4.0642247E-3,2.1062554E-3,-2.5202483E-3,4.134926E-3,-0E0],"split_indices":[2,4,7,4,2,0,0,0,0,0,0],"split_type":[0,0,0,0,0,0,0,0,0,0,0],"sum_hessian":[9.570814E1,6.650033E1,2.9207806E1,3.5864822E1,3.0635508E1,1.1734705E1,1.74731E1,1.793012E1,1.79347E1,1.4433503E1,1.6202005E1],"tree_param":{"num_deleted":"0","num_feature":"15","num_nodes":"11","size_leaf_vector":"1"}},{"base_weights":[-5.2114442E-2,3.587917E-2,-4.202492E-3,1.668889E-1,-2.3257051E-1,-1.0394431E-3,2.606934E-3,-7.485215E-5,-2.9363558E-3],"categories":[],"categories_nodes":[],"categories_segments":[],"categories_sizes":[],"default_left":[0,0,0,0,0,0,0,0,0],"id":37,"left_children":[1,3,-1,5,7,-1,-1,-1,-1],"loss_changes":[3.8949122E0,3.5133698E0,0E0,2.1882863E0,1.0891235E-1,0E0,0E0,0E0,0E0],"parents":[2147483647,0,0,1,1,3,3,4,4],"right_children":[2,4,-1,6,8,-1,-1,-1,-1],"split_conditions":[4.7900848E-2,4.186469E2,-4.202492E-3,-2.6769293E-2,4.3004153E2,-1.0394431E-3,2.606934E-3,-7.485215E-5,-2.9363558E-3],"split_indices":[5,0,0,5,0,0,0,0,0],"split_type":[0,0,0,0,0,0,0,0,0],"sum_hessian":[9.371708E1,8.072962E1,1.2987458E1,5.9298767E1,2.1430857E1,1.223432E1,4.706445E1,1.0463657E1,1.09672E1],"tree_param":{"num_deleted":"0","num_feature":"15","num_nodes":"9","size_leaf_vector":"1"}},{"base_weights":[8.7085634E-2,2.1484105E-1,-1.3837712E-1,3.5978344E-1,-3.599547E-2,-0E0,-2.108646E-1,5.4330444E-3,5.147028E-4,-2.48188E-3,1.9391488E-3,-3.692121E-3,-0E0],"categories":[],"categories_nodes":[],"categories_segments":[],"categories_sizes":[],"default_left":[0,0,0,0,0,0,0,0,0,0,0,0,0],"id":38,"left_children":[1,3,5,7,9,-1,11,-1,-1,-1,-1,-1,-1],"loss_changes":[3.6552935E0,3.3425333E0,6.036981E-1,2.1698012E0,2.2755709E0,0E0,1.338151E0,0E0,0E0,0E0,0E0,0E0,0E0],"parents":[2147483647,0,0,1,1,2,2,3,3,4,4,6,6],"right_children":[2,4,6,8,10,-1,12,-1,-1,-1,-1,-1,-1],"split_conditions":[1.8321393E-1,4.1714853E2,8.0986166E-1,4.8627094E-3,3.409627E0,-0E0,9.943163E-1,5.4330444E-3,5.147028E-4,-2.48188E-3,1.9391488E-3,-3.692121E-3,-0E0],"split_indices":[2,13,4,1,8,0,4,0,0,0,0,0,0],"split_type":[0,0,0,0,0,0,0,0,0,0,0,0,0],"sum_hessian":[1.0392613E2,6.946893E1,3.4457203E1,4.3801918E1,2.5667013E1,1.1734582E1,2.272262E1,2.0646786E1,2.3155132E1,1.5196317E1,1.04706955E1,1.0489842E1,1.2232777E1],"tree_param":{"num_deleted":"0","num_feature":"15","num_nodes":"13","size_leaf_vector":"1"}},{"base_weights":[7.119707E-2,-2.3563363E-1,1.955175E-1,-0E0,-3.7759277E-3,4.185732E-3,-0E0,1.2547293E-3,-2.1807377E-3],"categories":[],"categories_nodes":[],"categories_segments":[],"categories_sizes":[],"default_left":[0,0,0,0,0,0,0,0,0],"id":39,"left_children":[1,3,5,-1,-1,-1,7,-1,-1],"loss_changes":[4.291099E0,1.173181E0,3.712608E0,0E0,0E0,0E0,1.7282362E0,0E0,0E0],"parents":[2147483647,0,0,1,1,2,2,6,6],"right_children":[2,4,6,-1,-1,-1,8,-1,-1],"split_conditions":[-2.0818515E0,-6.4681925E-2,2.3509855E0,-0E0,-3.7759277E-3,4.185732E-3,1.4324981E-1,1.2547293E-3,-2.1807377E-3],"split_indices":[8,11,8,0,0,0,2,0,0],"split_type":[0,0,0,0,0,0,0,0,0],"sum_hessian":[9.146748E1,2.1473083E1,6.99944E1,1.0988137E1,1.0484946E1,2.8643974E1,4.1350426E1,2.7386156E1,1.3964271E1],"tree_param":{"num_deleted":"0","num_feature":"15","num_nodes":"9","size_leaf_vector":"1"}},{"base_weights":[-5.654752E-2,7.354534E-2,-2.1840869E-1,2.0890522E-1,-2.2899294E-3,-3.317594E-1,9.594148E-4,-0E0,3.0401351E-3,-0E0,-4.5462474E-3],"categories":[],"categories_nodes":[],"categories_segments":[],"categories_sizes":[],"default_left":[0,0,0,0,0,0,0,0,0,0,0],"id":40,"left_children":[1,3,5,7,-1,9,-1,-1,-1,-1,-1],"loss_changes":[2.6675987E0,3.1712193E0,2.5469842E0,1.2436879E0,0E0,2.0941E0,0E0,0E0,0E0,0E0,0E0],"parents":[2147483647,0,0,1,1,2,2,3,3,5,5],"right_children":[2,4,6,8,-1,10,-1,-1,-1,-1,-1],"split_conditions":[5.036344E0,7.583979E-2,2.7315485E-1,3.2978399E0,-2.2899294E-3,3.920059E1,9.594148E-4,-0E0,3.0401351E-3,-0E0,-4.5462474E-3],"split_indices":[3,11,2,3,0,6,0,0,0,0,0],"split_type":[0,0,0,0,0,0,0,0,0,0,0],"sum_hessian":[1.0217684E2,5.6247288E1,4.5929554E1,4.3282413E1,1.2964875E1,3.5688194E1,1.0241362E1,1.4666929E1,2.8615484E1,1.1226168E1,2.4462027E1],"tree_param":{"num_deleted":"0","num_feature":"15","num_nodes":"11","size_leaf_vector":"1"}},{"base_weights":[2.2835411E-4,7.86826E-2,-2.5794124E-3,-3.698165E-2,3.042613E-1,3.2142657E-4,-2.3474826E-3,4.414567E-3,-0E0],"categories":[],"categories_nodes":[],"categories_segments":[],"categories_sizes":[],"default_left":[0,0,0,0,0,0,0,0,0],"id":41,"left_children":[1,3,-1,5,7,-1,-1,-1,-1],"loss_changes":[2.204744E0,2.8120084E0,0E0,1.2022951E0,1.171648E0,0E0,0E0,0E0,0E0],"parents":[2147483647,0,0,1,1,3,3,4,4],"right_children":[2,4,-1,6,8,-1,-1,-1,-1],"split_conditions":[7.719852E-2,1.716566E-1,-2.5794124E-3,9.8945715E-2,9.01223E-1,3.2142657E-4,-2.3474826E-3,4.414567E-3,-0E0],"split_indices":[11,12,0,12,4,0,0,0,0],"split_type":[0,0,0,0,0,0,0,0,0],"sum_hessian":[9.768214E1,8.321879E1,1.446335E1,5.7608093E1,2.5610691E1,4.5146526E1,1.246157E1,1.2928027E1,1.2682665E1],"tree_param":{"num_deleted":"0","num_feature":"15","num_nodes":"9","size_leaf_vector":"1"}},{"base_weights":[-4.3275893E-2,5.397785E-2,-4.465734E-3,1.5534744E-1,-2.147384E-3,-0E0,5.4723853E-3],"categories":[],"categories_nodes":[],"categories_segments":[],"categories_sizes":[],"default_left":[0,0,0,0,0,0,0],"id":42,"left_children":[1,3,-1,5,-1,-1,-1],"loss_changes":[4.603053E0,2.6839237E0,0E0,4.292394E0,0E0,0E0,0E0],"parents":[2147483647,0,0,1,1,3,3],"right_children":[2,4,-1,6,-1,-1,-1],"split_conditions":[2.4955295E-1,4.3149684E-2,-4.465734E-3,3.4610566E-2,-2.147384E-3,-0E0,5.4723853E-3],"split_indices":[2,5,0,5,0,0,0],"split_type":[0,0,0,0,0,0,0],"sum_hessian":[9.120308E1,7.846384E1,1.2739243E1,6.2737328E1,1.5726507E1,5.254248E1,1.0194846E1],"tree_param":{"num_deleted":"0","num_feature":"15","num_nodes":"7","size_leaf_vector":"1"}},{"base_weights":[1.0739559E-2,1.0908023E-1,-2.5983686E-3,-6.876486E-2,3.9710207E-3,3.4793498E-4,-2.663448E-3],"categories":[],"categories_nodes":[],"categories_segments":[],"categories_sizes":[],"default_left":[0,0,0,0,0,0,0],"id":43,"left_children":[1,3,-1,5,-1,-1,-1],"loss_changes":[3.150687E0,5.362175E0,0E0,1.6304244E0,0E0,0E0,0E0],"parents":[2147483647,0,0,1,1,3,3],"right_children":[2,4,-1,6,-1,-1,-1],"split_conditions":[4.5036335E-2,2.2118993E-2,-2.5983686E-3,6.6584004E-3,3.9710207E-3,3.4793498E-4,-2.663448E-3],"split_indices":[5,5,0,5,0,0,0],"split_type":[0,0,0,0,0,0,0],"sum_hessian":[1.0342218E2,8.2941574E1,2.0480604E1,5.3838455E1,2.910312E1,3.7408936E1,1.6429516E1],"tree_param":{"num_deleted":"0","num_feature":"15","num_nodes":"7","size_leaf_vector":"1"}},{"base_weights":[-0E0,1.6369516E-1,-1.4946035E-1,-3.9623468E-4,4.617592E-3,-2.3963588E-1,8.300274E-4,-1.2577949E-3,1.0218207E-3,-0E0,-3.3729437E-3],"categories":[],"categories_nodes":[],"categories_segments":[],"categories_sizes":[],"default_left":[0,0,0,0,0,0,0,0,0,0,0],"id":44,"left_children":[1,3,5,7,-1,9,-1,-1,-1,-1,-1],"loss_changes":[2.9390059E0,3.2551463E0,1.6781106E0,7.263079E-1,0E0,9.5316434E-1,0E0,0E0,0E0,0E0,0E0],"parents":[2147483647,0,0,1,1,2,2,3,3,5,5],"right_children":[2,4,6,8,-1,10,-1,-1,-1,-1,-1],"split_conditions":[3.072367E-3,-2.9585143E-3,1.0752815E0,-1.1334105E-2,4.617592E-3,7.8581303E-1,8.300274E-4,-1.2577949E-3,1.0218207E-3,-0E0,-3.3729437E-3],"split_indices":[1,1,4,9,0,4,0,0,0,0,0],"split_type":[0,0,0,0,0,0,0,0,0,0,0],"sum_hessian":[1.0017617E2,4.708379E1,5.309238E1,3.464346E1,1.2440331E1,4.1130505E1,1.1961872E1,1.8957825E1,1.56856365E1,1.6943663E1,2.4186842E1],"tree_param":{"num_deleted":"0","num_feature":"15","num_nodes":"11","size_leaf_vector":"1"}},{"base_weights":[-1.9829889E-1,-3.2612854E-1,-0E0,-2.75689E-4,-4.0451628E-1,2.3477334E-3,-1.1491447E-1,-4.935256E-3,-4.1562406E-4,-0E0,-2.1583685E-3],"categories":[],"categories_nodes":[],"categories_segments":[],"categories_sizes":[],"default_left":[0,0,0,0,0,0,0,0,0,0,0],"id":45,"left_children":[1,3,5,-1,7,-1,9,-1,-1,-1,-1],"loss_changes":[2.72365E0,9.5718145E-1,1.6507288E0,0E0,7.913413E-1,0E0,5.809499E-1,0E0,0E0,0E0,0E0],"parents":[2147483647,0,0,1,1,2,2,4,4,6,6],"right_children":[2,4,6,-1,8,-1,10,-1,-1,-1,-1],"split_conditions":[1.3516179E-1,3.7739502E2,2.1195471E-1,-2.75689E-4,1.3066409E-2,2.3477334E-3,1.3166665E-2,-4.935256E-3,-4.1562406E-4,-0E0,-2.1583685E-3],"split_indices":[12,0,12,0,7,0,7,0,0,0,0],"split_type":[0,0,0,0,0,0,0,0,0,0,0],"sum_hessian":[9.418659E1,5.4126865E1,4.0059727E1,1.6719707E1,3.7407158E1,1.0461813E1,2.9597914E1,2.4938652E1,1.2468504E1,1.59027195E1,1.3695193E1],"tree_param":{"num_deleted":"0","num_feature":"15","num_nodes":"11","size_leaf_vector":"1"}},{"base_weights":[1.0255291E-1,3.2873893E-1,-1.0882901E-1,-0E0,4.124238E-1,6.666313E-2,-3.1652127E-3,5.2882815E-3,9.7650377E-4,1.8980469E-3,-7.508602E-4],"categories":[],"categories_nodes":[],"categories_segments":[],"categories_sizes":[],"default_left":[0,0,0,0,0,0,0,0,0,0,0],"id":46,"left_children":[1,3,5,-1,7,9,-1,-1,-1,-1,-1],"loss_changes":[5.77392E0,1.4363861E0,2.699039E0,0E0,4.9989605E-1,9.3683827E-1,0E0,0E0,0E0,0E0,0E0],"parents":[2147483647,0,0,1,1,2,2,4,4,5,5],"right_children":[2,4,6,-1,8,10,-1,-1,-1,-1,-1],"split_conditions":[1.5556538E-1,-2.6922182E-3,3.8380057E2,-0E0,5.988543E-2,2.3406541E-1,-3.1652127E-3,5.2882815E-3,9.7650377E-4,1.8980469E-3,-7.508602E-4],"split_indices":[2,1,0,0,11,2,0,0,0,0,0],"split_type":[0,0,0,0,0,0,0,0,0,0,0],"sum_hessian":[9.868165E1,4.7274822E1,5.1406826E1,1.2440423E1,3.48344E1,2.893409E1,2.2472734E1,1.8146566E1,1.6687834E1,1.7444277E1,1.1489813E1],"tree_param":{"num_deleted":"0","num_feature":"15","num_nodes":"11","size_leaf_vector":"1"}},{"base_weights":[7.788175E-2,3.757944E-1,-7.130309E-2,4.7244276E-3,4.7489113E-4,3.75645E-2,-3.8139315E-3,-1.5667198E-3,3.1185474E-3],"categories":[],"categories_nodes":[],"categories_segments":[],"categories_sizes":[],"default_left":[0,0,0,0,0,0,0,0,0],"id":47,"left_children":[1,3,5,-1,-1,7,-1,-1,-1],"loss_changes":[5.467986E0,5.4350567E-1,3.1731062E0,0E0,0E0,4.1390805E0,0E0,0E0,0E0],"parents":[2147483647,0,0,1,1,2,2,5,5],"right_children":[2,4,6,-1,-1,8,-1,-1,-1],"split_conditions":[1.19064525E-1,6.649711E1,6.494997E1,4.7244276E-3,4.7489113E-4,4.527695E-3,-3.8139315E-3,-1.5667198E-3,3.1185474E-3],"split_indices":[2,6,6,0,0,7,0,0,0],"split_type":[0,0,0,0,0,0,0,0,0],"sum_hessian":[1.0015067E2,3.0585873E1,6.95648E1,1.7884605E1,1.2701267E1,5.5606117E1,1.3958681E1,3.29296E1,2.2676517E1],"tree_param":{"num_deleted":"0","num_feature":"15","num_nodes":"9","size_leaf_vector":"1"}},{"base_weights":[3.5511717E-2,-3.2055E-3,1.15990214E-1,2.2541726E-1,-1.9083428E-3,3.0170674E-3,1.290547E-4],"categories":[],"categories_nodes":[],"categories_segments":[],"categories_sizes":[],"default_left":[0,0,0,0,0,0,0],"id":48,"left_children":[1,-1,3,5,-1,-1,-1],"loss_changes":[3.2952814E0,0E0,3.7775936E0,9.388728E-1,0E0,0E0,0E0],"parents":[2147483647,0,0,2,2,3,3],"right_children":[2,-1,4,6,-1,-1,-1],"split_conditions":[-1.10410854E-1,-3.2055E-3,4.474919E0,5.523839E0,-1.9083428E-3,3.0170674E-3,1.290547E-4],"split_indices":[12,0,8,3,0,0,0],"split_type":[0,0,0,0,0,0,0],"sum_hessian":[9.916071E1,1.0490649E1,8.867007E1,6.971799E1,1.8952078E1,4.4750305E1,2.4967686E1],"tree_param":{"num_deleted":"0","num_feature":"15","num_nodes":"7","size_leaf_vector":"1"}},{"base_weights":[-9.800713E-2,-8.578308E-5,-3.6179957E-3,-2.5280243E-1,1.2048547E-1,-7.505943E-6,-3.1168708E-3,2.6372373E-3,-1.0986435E-3],"categories":[],"categories_nodes":[],"categories_segments":[],"categories_sizes":[],"default_left":[0,0,0,0,0,0,0,0,0],"id":49,"left_children":[1,3,-1,5,7,-1,-1,-1,-1],"loss_changes":[2.5925744E0,3.3678248E0,0E0,2.3401213E-1,2.7272959E0,0E0,0E0,0E0,0E0],"parents":[2147483647,0,0,1,1,3,3,4,4],"right_children":[2,4,-1,6,8,-1,-1,-1,-1],"split_conditions":[7.4646495E-2,1E0,-3.6179957E-3,-2.2842918E-2,4.1759418E2,-7.505943E-6,-3.1168708E-3,2.6372373E-3,-1.0986435E-3],"split_indices":[11,10,0,5,0,0,0,0,0],"split_type":[0,0,0,0,0,0,0,0,0],"sum_hessian":[1.0438892E2,8.618912E1,1.819981E1,2.6975473E1,5.9213642E1,1.0242584E1,1.673289E1,3.8293816E1,2.0919827E1],"tree_param":{"num_deleted":"0","num_feature":"15","num_nodes":"9","size_leaf_vector":"1"}},{"base_weights":[-1.8053774E-2,7.475424E-2,-4.0337984E-3,-6.253776E-2,3.5839048E-1,4.14441E-4,-3.1411683E-3,4.525712E-3,6.426294E-4],"categories":[],"categories_nodes":[],"categories_segments":[],"categories_sizes":[],"default_left":[0,0,0,0,0,0,0,0,0],"id":50,"left_children":[1,3,-1,5,7,-1,-1,-1,-1],"loss_changes":[4.836516E0,4.458345E0,0E0,2.3462057E0,2.1307993E-1,0E0,0E0,0E0,0E0],"parents":[2147483647,0,0,1,1,3,3,4,4],"right_children":[2,4,-1,6,8,-1,-1,-1,-1],"split_conditions":[4.5472365E-2,2.1722231E-2,-4.0337984E-3,4.183829E2,4.2802166E-2,4.14441E-4,-3.1411683E-3,4.525712E-3,6.426294E-4],"split_indices":[5,9,0,0,11,0,0,0,0],"split_type":[0,0,0,0,0,0,0,0,0],"sum_hessian":[1.0762272E2,9.113669E1,1.6486029E1,6.428804E1,2.6848646E1,4.8584854E1,1.570319E1,1.3681112E1,1.3167534E1],"tree_param":{"num_deleted":"0","num_feature":"15","num_nodes":"9","size_leaf_vector":"1"}},{"base_weights":[1.4019442E-1,-1.4471796E-1,2.82931E-1,-0E0,-2.4951813E-3,-0E0,3.6998906E-3],"categories":[],"categories_nodes":[],"categories_segments":[],"categories_sizes":[],"default_left":[0,0,0,0,0,0,0],"id":51,"left_children":[1,3,5,-1,-1,-1,-1],"loss_changes":[4.9559193E0,6.145678E-1,1.8049092E0,0E0,0E0,0E0,0E0],"parents":[2147483647,0,0,1,1,2,2],"right_children":[2,4,6,-1,-1,-1,-1],"split_conditions":[2.2756463E-2,1.0231284E0,4.842122E1,-0E0,-2.4951813E-3,-0E0,3.6998906E-3],"split_indices":[12,4,6,0,0,0,0],"split_type":[0,0,0,0,0,0,0],"sum_hessian":[9.839768E1,3.045754E1,6.794014E1,1.6977005E1,1.3480536E1,1.9178343E1,4.87618E1],"tree_param":{"num_deleted":"0","num_feature":"15","num_nodes":"7","size_leaf_vector":"1"}},{"base_weights":[-8.406124E-2,6.2545426E-2,-2.0871815E-1,-1.409567E-2,2.2937213E-3,-0E0,-3.0288357E-1,1.0363632E-3,-2.0053058E-3,-4.694574E-4,-4.541755E-3],"categories":[],"categories_nodes":[],"categories_segments":[],"categories_sizes":[],"default_left":[0,0,0,0,0,0,0,0,0,0,0],"id":52,"left_children":[1,3,5,7,-1,-1,9,-1,-1,-1,-1],"loss_changes":[2.3941214E0,9.7959876E-1,1.5445662E0,1.2823913E0,0E0,0E0,1.1991506E0,0E0,0E0,0E0,0E0],"parents":[2147483647,0,0,1,1,2,2,3,3,6,6],"right_children":[2,4,6,8,-1,-1,10,-1,-1,-1,-1],"split_conditions":[1.4451419E-1,4.1491903E-2,8.0986166E-1,4.1714853E2,2.2937213E-3,-0E0,1.235759E0,1.0363632E-3,-2.0053058E-3,-4.694574E-4,-4.541755E-3],"split_indices":[2,9,4,13,0,0,8,0,0,0,0],"split_type":[0,0,0,0,0,0,0,0,0,0,0],"sum_hessian":[1.05860085E2,4.7250374E1,5.860971E1,3.4542286E1,1.2708087E1,1.9192823E1,3.941689E1,2.0606693E1,1.3935593E1,2.1967535E1,1.7449352E1],"tree_param":{"num_deleted":"0","num_feature":"15","num_nodes":"11","size_leaf_vector":"1"}},{"base_weights":[-0E0,-3.32337E-3,1.389621E-1,2.404224E-1,-1.3069294E-3,-0E0,3.5330371E-3],"categories":[],"categories_nodes":[],"categories_segments":[],"categories_sizes":[],"default_left":[0,0,0,0,0,0,0],"id":53,"left_children":[1,-1,3,5,-1,-1,-1],"loss_changes":[5.5112753E0,0E0,2.720139E0,1.7062976E0,0E0,0E0,0E0],"parents":[2147483647,0,0,2,2,3,3],"right_children":[2,-1,4,6,-1,-1,-1],"split_conditions":[1E0,-3.32337E-3,4.3704763E-2,-2.6922182E-3,-1.3069294E-3,-0E0,3.5330371E-3],"split_indices":[14,0,5,1,0,0,0],"split_type":[0,0,0,0,0,0,0],"sum_hessian":[9.915307E1,2.5225634E1,7.392744E1,5.7198475E1,1.6728958E1,2.2410711E1,3.4787766E1],"tree_param":{"num_deleted":"0","num_feature":"15","num_nodes":"7","size_leaf_vector":"1"}},{"base_weights":[-1.3738089E-2,9.923272E-2,-4.1347337E-3,2.951153E-1,-4.7147427E-2,5.0822657E-4,4.080513E-3,1.754204E-3,-2.2615981E-3],"categories":[],"categories_nodes":[],"categories_segments":[],"categories_sizes":[],"default_left":[0,0,0,0,0,0,0,0,0],"id":54,"left_children":[1,3,-1,5,7,-1,-1,-1,-1],"loss_changes":[5.765349E0,3.0578368E0,0E0,5.514078E-1,2.7984993E0,0E0,0E0,0E0,0E0],"parents":[2147483647,0,0,1,1,3,3,4,4],"right_children":[2,4,-1,6,8,-1,-1,-1,-1],"split_conditions":[4.515412E-2,3.9104434E2,-4.1347337E-3,3.6792853E2,1.5364164E0,5.0822657E-4,4.080513E-3,1.754204E-3,-2.2615981E-3],"split_indices":[5,0,0,0,8,0,0,0,0],"split_type":[0,0,0,0,0,0,0,0,0],"sum_hessian":[1.0162497E2,8.314337E1,1.84816E1,3.4135143E1,4.9008224E1,1.8175123E1,1.5960022E1,1.9445679E1,2.9562548E1],"tree_param":{"num_deleted":"0","num_feature":"15","num_nodes":"9","size_leaf_vector":"1"}},{"base_weights":[2.1598313E-2,-2.8618383E-1,1.5646693E-1,-4.9977045E-4,-3.7603714E-3,2.7747178E-1,-0E0,3.324409E-3,2.781352E-4,-2.8628444E-3,1.9324174E-3],"categories":[],"categories_nodes":[],"categories_segments":[],"categories_sizes":[],"default_left":[0,0,0,0,0,0,0,0,0,0,0],"id":55,"left_children":[1,3,5,-1,-1,7,9,-1,-1,-1,-1],"loss_changes":[4.909787E0,1.2844276E-1,1.6425447E0,0E0,0E0,2.1377754E-1,3.1644301E0,0E0,0E0,0E0,0E0],"parents":[2147483647,0,0,1,1,2,2,5,5,6,6],"right_children":[2,4,6,-1,-1,8,10,-1,-1,-1,-1],"split_conditions":[1E0,6.368604E-3,2.5617395E-2,-4.9977045E-4,-3.7603714E-3,4.183829E2,3.632226E-2,3.324409E-3,2.781352E-4,-2.8628444E-3,1.9324174E-3],"split_indices":[10,7,5,0,0,0,5,0,0,0,0],"split_type":[0,0,0,0,0,0,0,0,0,0,0],"sum_hessian":[1.0061681E2,2.4978832E1,7.563798E1,1.4238892E1,1.0739941E1,3.8566006E1,3.7071976E1,2.560668E1,1.2959326E1,1.3158009E1,2.3913965E1],"tree_param":{"num_deleted":"0","num_feature":"15","num_nodes":"11","size_leaf_vector":"1"}},{"base_weights":[3.8421746E-2,1.9891733E-1,-4.651924E-3,3.017942E-1,-2.0141457E-3,4.6533654E-3,-2.6676845E-4],"categories":[],"categories_nodes":[],"categories_segments":[],"categories_sizes":[],"default_left":[0,0,0,0,0,0,0],"id":56,"left_children":[1,3,-1,5,-1,-1,-1],"loss_changes":[1.0023091E1,4.676981E0,0E0,5.00283E0,0E0,0E0,0E0],"parents":[2147483647,0,0,1,1,3,3],"right_children":[2,4,-1,6,-1,-1,-1],"split_conditions":[2.2239995E-1,7.719852E-2,-4.651924E-3,4.1714853E2,-2.0141457E-3,4.6533654E-3,-2.6676845E-4],"split_indices":[2,11,0,13,0,0,0],"split_type":[0,0,0,0,0,0,0],"sum_hessian":[1.05851364E2,8.636406E1,1.9487305E1,7.2653076E1,1.3710985E1,4.775435E1,2.489873E1],"tree_param":{"num_deleted":"0","num_feature":"15","num_nodes":"7","size_leaf_vector":"1"}},{"base_weights":[-4.471519E-2,2.3773648E-3,-1.3719383E-1,-4.0023127E-1,5.2722893E-3,-5.8869267E-4,-4.847157E-3,2.7632813E-3,-1.5952862E-3],"categories":[],"categories_nodes":[],"categories_segments":[],"categories_sizes":[],"default_left":[0,0,0,0,0,0,0,0,0],"id":57,"left_children":[1,-1,3,5,7,-1,-1,-1,-1],"loss_changes":[3.0042863E0,0E0,3.7567544E0,1.4920378E-1,3.471502E0,0E0,0E0,0E0,0E0],"parents":[2147483647,0,0,2,2,3,3,4,4],"right_children":[2,-1,4,6,8,-1,-1,-1,-1],"split_conditions":[-3.4677062E-2,2.3773648E-3,-1.8994833E-4,3.8084232E1,4.507372E-3,-5.8869267E-4,-4.847157E-3,2.7632813E-3,-1.5952862E-3],"split_indices":[11,0,7,6,1,0,0,0,0],"split_type":[0,0,0,0,0,0,0,0,0],"sum_hessian":[9.637787E1,1.7230711E1,7.9147156E1,2.3916279E1,5.5230877E1,1.0459379E1,1.34569E1,2.0618763E1,3.4612114E1],"tree_param":{"num_deleted":"0","num_feature":"15","num_nodes":"9","size_leaf_vector":"1"}},{"base_weights":[-5.7625156E-2,1.6981119E-3,-1.2551425E-1,-2.6752758E-1,1.1081213E-1,-3.4620084E-3,-5.4403217E-6,4.531494E-3,-1.956046E-3],"categories":[],"categories_nodes":[],"categories_segments":[],"categories_sizes":[],"default_left":[0,0,0,0,0,0,0,0,0],"id":58,"left_children":[1,-1,3,5,7,-1,-1,-1,-1],"loss_changes":[1.853865E0,0E0,3.5804226E0,9.9095106E-1,5.2773094E0,0E0,0E0,0E0,0E0],"parents":[2147483647,0,0,2,2,3,3,4,4],"right_children":[2,-1,4,6,8,-1,-1,-1,-1],"split_conditions":[3.799295E1,1.6981119E-3,3.632226E-2,1.0506512E0,4.515412E-2,-3.4620084E-3,-5.4403217E-6,4.531494E-3,-1.956046E-3],"split_indices":[6,0,5,4,5,0,0,0,0],"split_type":[0,0,0,0,0,0,0,0,0],"sum_hessian":[9.913058E1,1.5950756E1,8.3179825E1,5.377594E1,2.9403883E1,3.635143E1,1.7424511E1,1.3167571E1,1.6236311E1],"tree_param":{"num_deleted":"0","num_feature":"15","num_nodes":"9","size_leaf_vector":"1"}},{"base_weights":[-7.880364E-2,1.7829603E-1,-2.0437808E-1,-4.9523264E-4,3.1610336E-3,-3.1711143E-1,9.505219E-4,5.498295E-4,-4.222256E-3],"categories":[],"categories_nodes":[],"categories_segments":[],"categories_sizes":[],"default_left":[0,0,0,0,0,0,0,0,0],"id":59,"left_children":[1,3,5,-1,-1,7,-1,-1,-1],"loss_changes":[3.8488493E0,1.6123376E0,3.1983106E0,0E0,0E0,3.036077E0,0E0,0E0,0E0],"parents":[2147483647,0,0,1,1,2,2,5,5],"right_children":[2,4,6,-1,-1,8,-1,-1,-1],"split_conditions":[8.1280535E-1,1.4377329E-1,1.5557456E-2,-4.9523264E-4,3.1610336E-3,-2.7663019E-2,9.505219E-4,5.498295E-4,-4.222256E-3],"split_indices":[4,2,7,0,0,7,0,0,0],"split_type":[0,0,0,0,0,0,0,0,0],"sum_hessian":[9.711951E1,2.7878841E1,6.924066E1,1.01873045E1,1.7691538E1,5.229947E1,1.6941195E1,1.0474934E1,4.1824535E1],"tree_param":{"num_deleted":"0","num_feature":"15","num_nodes":"9","size_leaf_vector":"1"}},{"base_weights":[-0E0,-1.0758539E-1,1.3066027E-1,-3.014169E-3,-0E0,2.984323E-3,-2.5201177E-2,2.5009976E-3,-1.50328E-3,-2.7798642E-3,1.9297752E-3],"categories":[],"categories_nodes":[],"categories_segments":[],"categories_sizes":[],"default_left":[0,0,0,0,0,0,0,0,0,0,0],"id":60,"left_children":[1,3,5,-1,7,-1,9,-1,-1,-1,-1],"loss_changes":[1.6392245E0,1.2113284E0,1.7236301E0,0E0,2.310902E0,0E0,2.46323E0,0E0,0E0,0E0,0E0],"parents":[2147483647,0,0,1,1,2,2,4,4,6,6],"right_children":[2,4,6,-1,8,-1,10,-1,-1,-1,-1],"split_conditions":[4.0230978E2,-2.0818515E0,2.3097578E-2,-3.014169E-3,1.8114556E0,2.984323E-3,5.734733E-2,2.5009976E-3,-1.50328E-3,-2.7798642E-3,1.9297752E-3],"split_indices":[0,8,11,0,8,0,11,0,0,0,0],"split_type":[0,0,0,0,0,0,0,0,0,0,0],"sum_hessian":[9.664409E1,5.4053905E1,4.259018E1,1.1493468E1,4.2560436E1,1.9195969E1,2.3394213E1,1.2455525E1,3.0104912E1,1.1691005E1,1.1703209E1],"tree_param":{"num_deleted":"0","num_feature":"15","num_nodes":"11","size_leaf_vector":"1"}},{"base_weights":[-7.835097E-3,5.638072E-2,-3.1941864E-3,-1.3347735E-1,2.3906918E-1,3.8863477E-4,-3.4489247E-3,3.8909945E-3,8.506642E-4],"categories":[],"categories_nodes":[],"categories_segments":[],"categories_sizes":[],"default_left":[0,0,0,0,0,0,0,0,0],"id":61,"left_children":[1,3,-1,5,7,-1,-1,-1,-1],"loss_changes":[2.6470857E0,3.7949193E0,0E0,2.3121722E0,4.837699E-1,0E0,0E0,0E0,0E0],"parents":[2147483647,0,0,1,1,3,3,4,4],"right_children":[2,4,-1,6,8,-1,-1,-1,-1],"split_conditions":[5.80149E-2,4.527695E-3,-3.1941864E-3,-7.1889358E-3,1.17357215E-2,3.8863477E-4,-3.4489247E-3,3.8909945E-3,8.506642E-4],"split_indices":[9,7,0,1,7,0,0,0,0],"split_type":[0,0,0,0,0,0,0,0,0],"sum_hessian":[1.00150536E2,8.7166954E1,1.2983577E1,4.138143E1,4.5785526E1,2.4688026E1,1.6693405E1,1.2170159E1,3.3615364E1],"tree_param":{"num_deleted":"0","num_feature":"15","num_nodes":"9","size_leaf_vector":"1"}},{"base_weights":[5.599029E-2,1.5705593E-1,-2.2248386E-3,-0E0,4.0491233E-3,1.9990257E-3,-2.4266993E-3],"categories":[],"categories_nodes":[],"categories_segments":[],"categories_sizes":[],"default_left":[0,0,0,0,0,0,0],"id":62,"left_children":[1,3,-1,5,-1,-1,-1],"loss_changes":[3.3416944E0,3.3385527E0,0E0,3.6076818E0,0E0,0E0,0E0],"parents":[2147483647,0,0,1,1,3,3],"right_children":[2,4,-1,6,-1,-1,-1],"split_conditions":[6.912025E1,5.9685875E1,-2.2248386E-3,4.9409275E1,4.0491233E-3,1.9990257E-3,-2.4266993E-3],"split_indices":[6,6,0,6,0,0,0],"split_type":[0,0,0,0,0,0,0],"sum_hessian":[9.8644104E1,7.821055E1,2.0433554E1,5.4576702E1,2.3633846E1,3.1423162E1,2.3153538E1],"tree_param":{"num_deleted":"0","num_feature":"15","num_nodes":"7","size_leaf_vector":"1"}},{"base_weights":[-0E0,3.4556533E-3,-9.459277E-2,2.3622056E-3,-1.8414043E-1,-4.4879667E-4,-3.3364256E-3],"categories":[],"categories_nodes":[],"categories_segments":[],"categories_sizes":[],"default_left":[0,0,0,0,0,0,0],"id":63,"left_children":[1,-1,3,-1,5,-1,-1],"loss_changes":[3.9830508E0,0E0,3.1216836E0,0E0,1.1530726E0,0E0,0E0],"parents":[2147483647,0,0,2,2,4,4],"right_children":[2,-1,4,-1,6,-1,-1],"split_conditions":[7.2746384E-1,3.4556533E-3,3.57247E2,2.3622056E-3,4.183829E2,-4.4879667E-4,-3.3364256E-3],"split_indices":[4,0,13,0,0,0,0],"split_type":[0,0,0,0,0,0,0],"sum_hessian":[9.888004E1,1.642708E1,8.2452965E1,1.1696473E1,7.075649E1,4.6827568E1,2.3928923E1],"tree_param":{"num_deleted":"0","num_feature":"15","num_nodes":"7","size_leaf_vector":"1"}},{"base_weights":[-1.3552355E-2,-1.4961636E-1,1.22276574E-1,1.719155E-3,-2.905872E-1,-6.374321E-2,3.6636693E-3,-3.9492534E-3,-0E0,2.2104115E-3,-2.8281936E-3],"categories":[],"categories_nodes":[],"categories_segments":[],"categories_sizes":[],"default_left":[0,0,0,0,0,0,0,0,0,0,0],"id":64,"left_children":[1,3,5,-1,7,9,-1,-1,-1,-1,-1],"loss_changes":[2.2228298E0,3.454586E0,3.0933886E0,0E0,1.3918281E0,3.0673814E0,0E0,0E0,0E0,0E0,0E0],"parents":[2147483647,0,0,1,1,2,2,4,4,5,5],"right_children":[2,4,6,-1,8,10,-1,-1,-1,-1,-1],"split_conditions":[3.982216E2,3.5420508E2,5.9950127E1,1.719155E-3,1.3027388E-2,-1.995071E-2,3.6636693E-3,-3.9492534E-3,-0E0,2.2104115E-3,-2.8281936E-3],"split_indices":[13,13,6,0,1,9,0,0,0,0,0],"split_type":[0,0,0,0,0,0,0,0,0,0,0],"sum_hessian":[9.889549E1,5.257582E1,4.6319668E1,1.3193892E1,3.938193E1,2.8154781E1,1.8164888E1,2.5659582E1,1.3722346E1,1.021789E1,1.7936892E1],"tree_param":{"num_deleted":"0","num_feature":"15","num_nodes":"11","size_leaf_vector":"1"}},{"base_weights":[3.9483067E-2,-1.5051517E-1,2.9379904E-1,-1.205933E-2,-3.73557E-3,4.215352E-3,-0E0,-1.6745147E-3,1.8486461E-3],"categories":[],"categories_nodes":[],"categories_segments":[],"categories_sizes":[],"default_left":[0,0,0,0,0,0,0,0,0],"id":65,"left_children":[1,3,5,7,-1,-1,-1,-1,-1],"loss_changes":[5.7979116E0,1.6107962E0,1.8998137E0,1.9411138E0,0E0,0E0,0E0,0E0,0E0],"parents":[2147483647,0,0,1,1,2,2,3,3],"right_children":[2,4,6,8,-1,-1,-1,-1,-1],"split_conditions":[1.5660304E-1,3.3560653E0,6.494997E1,3.0700678E-1,-3.73557E-3,4.215352E-3,-0E0,-1.6745147E-3,1.8486461E-3],"split_indices":[12,8,6,8,0,0,0,0,0],"split_type":[0,0,0,0,0,0,0,0,0],"sum_hessian":[9.787375E1,5.610639E1,4.176736E1,4.38871E1,1.2219293E1,2.5838789E1,1.5928572E1,2.82052E1,1.5681899E1],"tree_param":{"num_deleted":"0","num_feature":"15","num_nodes":"9","size_leaf_vector":"1"}},{"base_weights":[-0E0,-2.9193974E-1,1.0221834E-1,-0E0,-4.1664606E-3,-8.500874E-3,2.887279E-1,1.3687091E-3,-3.9266343E-3,3.728574E-3,1.09295266E-4],"categories":[],"categories_nodes":[],"categories_segments":[],"categories_sizes":[],"default_left":[0,0,0,0,0,0,0,0,0,0,0],"id":66,"left_children":[1,3,5,-1,-1,7,9,-1,-1,-1,-1],"loss_changes":[3.6180248E0,9.1665435E-1,2.1621435E0,0E0,0E0,4.2997932E0,4.438169E-1,0E0,0E0,0E0,0E0],"parents":[2147483647,0,0,1,1,2,2,5,5,6,6],"right_children":[2,4,6,-1,-1,8,10,-1,-1,-1,-1],"split_conditions":[3.6722952E2,5.7571075E1,1.0695816E0,-0E0,-4.1664606E-3,9.60429E-1,4.7374996E1,1.3687091E-3,-3.9266343E-3,3.728574E-3,1.09295266E-4],"split_indices":[0,6,4,0,0,4,6,0,0,0,0],"split_type":[0,0,0,0,0,0,0,0,0,0,0],"sum_hessian":[1.0136856E2,2.1424013E1,7.994455E1,1.0715424E1,1.070859E1,5.278934E1,2.715521E1,4.107874E1,1.17106E1,1.54535885E1,1.1701622E1],"tree_param":{"num_deleted":"0","num_feature":"15","num_nodes":"11","size_leaf_vector":"1"}},{"base_weights":[1.3812125E-1,3.7969568E-1,-0E0,4.9178335E-3,7.967745E-4,-9.26543E-2,2.0840736E-3,6.821745E-4,-3.3082382E-3],"categories":[],"categories_nodes":[],"categories_segments":[],"categories_sizes":[],"default_left":[0,0,0,0,0,0,0,0,0],"id":67,"left_children":[1,3,5,-1,-1,7,-1,-1,-1],"loss_changes":[3.5196397E0,3.421235E-1,1.7731678E0,0E0,0E0,2.8387685E0,0E0,0E0,0E0],"parents":[2147483647,0,0,1,1,2,2,5,5],"right_children":[2,4,6,-1,-1,8,-1,-1,-1],"split_conditions":[1.19064525E-1,4.0096757E-3,1.8887894E-2,4.9178335E-3,7.967745E-4,1.4128702E-3,2.0840736E-3,6.821745E-4,-3.3082382E-3],"split_indices":[2,1,1,0,0,1,0,0,0],"split_type":[0,0,0,0,0,0,0,0,0],"sum_hessian":[9.8865204E1,2.8819166E1,7.004604E1,1.3900852E1,1.4918314E1,5.134667E1,1.8699373E1,3.2399487E1,1.8947182E1],"tree_param":{"num_deleted":"0","num_feature":"15","num_nodes":"9","size_leaf_vector":"1"}},{"base_weights":[-3.6443144E-2,2.3336988E-3,-1.3180195E-1,5.2970164E-2,-3.7961367E-1,3.7478446E-3,-7.771919E-4,-4.8013884E-3,-8.273989E-5],"categories":[],"categories_nodes":[],"categories_segments":[],"categories_sizes":[],"default_left":[0,0,0,0,0,0,0,0,0],"id":68,"left_children":[1,-1,3,5,7,-1,-1,-1,-1],"loss_changes":[3.0199242E0,0E0,4.6458054E0,3.0270712E0,1.0378623E0,0E0,0E0,0E0,0E0],"parents":[2147483647,0,0,2,2,3,3,4,4],"right_children":[2,-1,4,6,8,-1,-1,-1,-1],"split_conditions":[3.920059E1,2.3336988E-3,5.0638084E0,2.1807811E0,1.9875698E-2,3.7478446E-3,-7.771919E-4,-4.8013884E-3,-8.273989E-5],"split_indices":[6,0,3,8,7,0,0,0,0],"split_type":[0,0,0,0,0,0,0,0,0],"sum_hessian":[9.9366905E1,1.94303E1,7.993661E1,4.7985252E1,3.1951353E1,1.0674412E1,3.731084E1,2.0719519E1,1.1231834E1],"tree_param":{"num_deleted":"0","num_feature":"15","num_nodes":"9","size_leaf_vector":"1"}},{"base_weights":[7.289545E-2,2.5718877E-1,-1.3277441E-1,3.7806008E-3,-0E0,1.4521943E-3,-3.0719203E-1,-0E0,-4.388224E-3],"categories":[],"categories_nodes":[],"categories_segments":[],"categories_sizes":[],"default_left":[0,0,0,0,0,0,0,0,0],"id":69,"left_children":[1,3,5,-1,-1,-1,7,-1,-1],"loss_changes":[4.4876847E0,1.8743258E0,3.2348874E0,0E0,0E0,0E0,1.6867433E0,0E0,0E0],"parents":[2147483647,0,0,1,1,2,2,6,6],"right_children":[2,4,6,-1,-1,-1,8,-1,-1],"split_conditions":[5.0092864E0,3.683127E0,3.920059E1,3.7806008E-3,-0E0,1.4521943E-3,3.7739502E2,-0E0,-4.388224E-3],"split_indices":[3,8,6,0,0,0,0,0,0],"split_type":[0,0,0,0,0,0,0,0,0],"sum_hessian":[9.6105804E1,5.1930237E1,4.417557E1,3.1774218E1,2.015602E1,1.5465964E1,2.8709606E1,1.0980538E1,1.7729069E1],"tree_param":{"num_deleted":"0","num_feature":"15","num_nodes":"9","size_leaf_vector":"1"}},{"base_weights":[4.5063052E-2,2.4904135E-1,-1.1617641E-1,1.952249E-2,3.9801723E-3,1.7330532E-1,-3.138806E-1,2.958917E-3,-1.9372299E-3,2.6305579E-3,-0E0,-5.104038E-3,-0E0],"categories":[],"categories_nodes":[],"categories_segments":[],"categories_sizes":[],"default_left":[0,0,0,0,0,0,0,0,0,0,0,0,0],"id":70,"left_children":[1,3,5,7,-1,9,11,-1,-1,-1,-1,-1,-1],"loss_changes":[4.101128E0,1.3957248E0,4.4935966E0,2.7336771E0,0E0,5.057671E-1,2.9616027E0,0E0,0E0,0E0,0E0,0E0,0E0],"parents":[2147483647,0,0,1,1,2,2,3,3,5,5,6,6],"right_children":[2,4,6,8,-1,10,12,-1,-1,-1,-1,-1,-1],"split_conditions":[1.4128702E-3,-1.1382835E-2,3.7628245E0,3.756024E1,3.9801723E-3,7.173136E1,2.2215165E-2,2.958917E-3,-1.9372299E-3,2.6305579E-3,-0E0,-5.104038E-3,-0E0],"split_indices":[1,1,3,6,0,6,1,0,0,0,0,0,0],"split_type":[0,0,0,0,0,0,0,0,0,0,0,0,0],"sum_hessian":[1.0185795E2,4.5303116E1,5.6554836E1,2.4925196E1,2.037792E1,2.139864E1,3.5156197E1,1.1210291E1,1.3714904E1,1.0937159E1,1.0461481E1,1.8445662E1,1.6710535E1],"tree_param":{"num_deleted":"0","num_feature":"15","num_nodes":"13","size_leaf_vector":"1"}},{"base_weights":[-2.5427887E-2,3.3063288E-3,-1.5028489E-1,-3.5523552E-1,-0E0,-0E0,-5.4156734E-3,1.2274493E-3,-1.4855406E-3],"categories":[],"categories_nodes":[],"categories_segments":[],"categories_sizes":[],"default_left":[0,0,0,0,0,0,0,0,0],"id":71,"left_children":[1,-1,3,5,7,-1,-1,-1,-1],"loss_changes":[4.7456923E0,0E0,2.260024E0,2.3913045E0,1.2973621E0,0E0,0E0,0E0,0E0],"parents":[2147483647,0,0,2,2,3,3,4,4],"right_children":[2,-1,4,6,8,-1,-1,-1,-1],"split_conditions":[7.2857386E-1,3.3063288E-3,2.0115104E-2,3.784672E2,4.11591E2,-0E0,-5.4156734E-3,1.2274493E-3,-1.4855406E-3],"split_indices":[4,0,12,13,0,0,0,0,0],"split_type":[0,0,0,0,0,0,0,0,0],"sum_hessian":[8.962841E1,1.6911364E1,7.271705E1,2.271384E1,5.0003204E1,1.0485253E1,1.2228587E1,2.5345715E1,2.465749E1],"tree_param":{"num_deleted":"0","num_feature":"15","num_nodes":"9","size_leaf_vector":"1"}},{"base_weights":[-5.7594933E-2,-1.6895726E-1,3.169246E-3,-2.0168595E-2,-4.5788935E-3,-1.7404923E-3,2.2337527E-3],"categories":[],"categories_nodes":[],"categories_segments":[],"categories_sizes":[],"default_left":[0,0,0,0,0,0,0],"id":72,"left_children":[1,3,-1,5,-1,-1,-1],"loss_changes":[5.1254444E0,3.5627995E0,0E0,3.1954901E0,0E0,0E0,0E0],"parents":[2147483647,0,0,1,1,3,3],"right_children":[2,4,-1,6,-1,-1,-1],"split_conditions":[2.2591181E-2,1.1113919E-2,3.169246E-3,5.9334743E1,-4.5788935E-3,-1.7404923E-3,2.2337527E-3],"split_indices":[1,1,0,6,0,0,0],"split_type":[0,0,0,0,0,0,0],"sum_hessian":[1.0359971E2,8.614386E1,1.7455853E1,6.620827E1,1.9935593E1,4.483761E1,2.1370657E1],"tree_param":{"num_deleted":"0","num_feature":"15","num_nodes":"7","size_leaf_vector":"1"}},{"base_weights":[5.0346583E-2,-2.3611292E-2,2.9461107E-3,2.856514E-1,-1.727751E-1,4.737103E-3,-0E0,-3.3976575E-3,3.3831532E-4],"categories":[],"categories_nodes":[],"categories_segments":[],"categories_sizes":[],"default_left":[0,0,0,0,0,0,0,0,0],"id":73,"left_children":[1,3,-1,5,7,-1,-1,-1,-1],"loss_changes":[2.3021154E0,4.507596E0,0E0,2.0848503E0,2.7933674E0,0E0,0E0,0E0,0E0],"parents":[2147483647,0,0,1,1,3,3,4,4],"right_children":[2,4,-1,6,8,-1,-1,-1,-1],"split_conditions":[2.8356624E-1,-2.1689972E-2,2.9461107E-3,2.1273834E-1,3.120637E-2,4.737103E-3,-0E0,-3.3976575E-3,3.3831532E-4],"split_indices":[12,9,0,2,9,0,0,0,0],"split_type":[0,0,0,0,0,0,0,0,0],"sum_hessian":[9.8581436E1,7.9461655E1,1.9119781E1,2.0696726E1,5.876493E1,1.0452641E1,1.0244085E1,3.1610596E1,2.7154333E1],"tree_param":{"num_deleted":"0","num_feature":"15","num_nodes":"9","size_leaf_vector":"1"}},{"base_weights":[-1.4263956E-2,-3.6556777E-1,1.2367183E-1,-0E0,-5.122298E-3,2.8305843E-1,-1.0597703E-1,3.7343104E-3,-0E0,-3.6130808E-3,2.486651E-3],"categories":[],"categories_nodes":[],"categories_segments":[],"categories_sizes":[],"default_left":[0,0,0,0,0,0,0,0,0,0,0],"id":74,"left_children":[1,3,5,-1,-1,7,9,-1,-1,-1,-1],"loss_changes":[5.919696E0,1.619741E0,3.5101495E0,0E0,0E0,1.2412362E0,4.5113306E0,0E0,0E0,0E0,0E0],"parents":[2147483647,0,0,1,1,2,2,5,5,6,6],"right_children":[2,4,6,-1,-1,8,10,-1,-1,-1,-1],"split_conditions":[1E0,9.0751743E-1,1.0958695E-2,-0E0,-5.122298E-3,1.1739484E0,2.3245176E-2,3.7343104E-3,-0E0,-3.6130808E-3,2.486651E-3],"split_indices":[14,4,1,0,0,4,1,0,0,0,0],"split_type":[0,0,0,0,0,0,0,0,0,0,0],"sum_hessian":[9.7841095E1,2.497645E1,7.286465E1,1.0988335E1,1.3988116E1,4.4209816E1,2.8654829E1,3.0047398E1,1.4162419E1,1.8190226E1,1.0464604E1],"tree_param":{"num_deleted":"0","num_feature":"15","num_nodes":"11","size_leaf_vector":"1"}},{"base_weights":[2.5121888E-2,2.147768E-1,-1.4515294E-1,5.442203E-3,-4.085201E-3,3.449255E-2,-2.9107422E-1,1.9471555E-3,-1.7153374E-3,-7.1031257E-4,1.7785899E-3,-0E0,-4.533489E-3],"categories":[],"categories_nodes":[],"categories_segments":[],"categories_sizes":[],"default_left":[0,0,0,0,0,0,0,0,0,0,0,0,0],"id":75,"left_children":[1,3,5,-1,7,9,11,-1,-1,-1,-1,-1,-1],"loss_changes":[3.8485956E0,4.71574E0,1.9235965E0,0E0,1.7326627E0,7.271847E-1,2.0841975E0,0E0,0E0,0E0,0E0,0E0,0E0],"parents":[2147483647,0,0,1,1,2,2,4,4,5,5,6,6],"right_children":[2,4,6,-1,8,10,12,-1,-1,-1,-1,-1,-1],"split_conditions":[2.8626595E-2,5.269278E0,3.9134558E2,5.442203E-3,3.908293E1,3.7271417E2,3.1744874E0,1.9471555E-3,-1.7153374E-3,-7.1031257E-4,1.7785899E-3,-0E0,-4.533489E-3],"split_indices":[11,3,13,0,6,0,3,0,0,0,0,0,0],"split_type":[0,0,0,0,0,0,0,0,0,0,0,0,0],"sum_hessian":[9.736591E1,4.760358E1,4.9762333E1,1.4891391E1,3.2712193E1,2.2654865E1,2.710747E1,1.1481085E1,2.1231108E1,1.193819E1,1.0716674E1,1.1669723E1,1.5437747E1],"tree_param":{"num_deleted":"0","num_feature":"15","num_nodes":"13","size_leaf_vector":"1"}},{"base_weights":[7.7635124E-2,1.7571051E-1,-2.506114E-3,-8.6473025E-2,3.8619316E-1,1.4336021E-3,-4.0557506E-3,-0E0,5.1498734E-3],"categories":[],"categories_nodes":[],"categories_segments":[],"categories_sizes":[],"default_left":[0,0,0,0,0,0,0,0,0],"id":76,"left_children":[1,3,-1,5,7,-1,-1,-1,-1],"loss_changes":[3.9973874E0,5.8811283E0,0E0,4.3932114E0,2.3584518E0,0E0,0E0,0E0,0E0],"parents":[2147483647,0,0,1,1,3,3,4,4],"right_children":[2,4,-1,6,8,-1,-1,-1,-1],"split_conditions":[4.5472365E-2,3.3938685E-3,-2.506114E-3,4.0790363E2,1.6398266E-2,1.4336021E-3,-4.0557506E-3,-0E0,5.1498734E-3],"split_indices":[5,5,0,13,9,0,0,0,0],"split_type":[0,0,0,0,0,0,0,0,0],"sum_hessian":[1.02817955E2,8.508828E1,1.7729677E1,3.8398563E1,4.6689713E1,2.3701298E1,1.4697267E1,1.5916865E1,3.0772848E1],"tree_param":{"num_deleted":"0","num_feature":"15","num_nodes":"9","size_leaf_vector":"1"}},{"base_weights":[6.0619574E-2,3.040146E-1,-5.5307977E-2,4.534269E-3,-0E0,-2.3099893E-1,1.2694894E-1,-3.3626105E-3,-0E0,2.910409E-3,-6.436908E-4],"categories":[],"categories_nodes":[],"categories_segments":[],"categories_sizes":[],"default_left":[0,0,0,0,0,0,0,0,0,0,0],"id":77,"left_children":[1,3,5,-1,-1,7,9,-1,-1,-1,-1],"loss_changes":[3.740483E0,1.8232026E0,3.1340156E0,0E0,0E0,1.0615697E0,1.8458536E0,0E0,0E0,0E0,0E0],"parents":[2147483647,0,0,1,1,2,2,5,5,6,6],"right_children":[2,4,6,-1,-1,8,10,-1,-1,-1,-1],"split_conditions":[8.1280535E-1,1.0958695E-2,1.0915049E0,4.534269E-3,-0E0,1.3501212E-2,1.3095381E0,-3.3626105E-3,-0E0,2.910409E-3,-6.436908E-4],"split_indices":[4,1,4,0,0,7,4,0,0,0,0],"split_type":[0,0,0,0,0,0,0,0,0,0,0],"sum_hessian":[1.0779168E2,3.2325146E1,7.546653E1,1.7894995E1,1.4430151E1,3.9857414E1,3.5609116E1,2.291711E1,1.6940306E1,1.9176268E1,1.643285E1],"tree_param":{"num_deleted":"0","num_feature":"15","num_nodes":"11","size_leaf_vector":"1"}},{"base_weights":[-0E0,1.5603429E-1,-8.244217E-2,-2.56443E-4,2.922864E-3,-2.7622756E-1,1.1924176E-1,-4.049788E-3,1.410232E-4,2.7998073E-3,-1.2761249E-3],"categories":[],"categories_nodes":[],"categories_segments":[],"categories_sizes":[],"default_left":[0,0,0,0,0,0,0,0,0,0,0],"id":78,"left_children":[1,3,5,-1,-1,7,9,-1,-1,-1,-1],"loss_changes":[1.4768443E0,1.3044196E0,3.5332825E0,0E0,0E0,2.1413944E0,2.2022634E0,0E0,0E0,0E0,0E0],"parents":[2147483647,0,0,1,1,2,2,5,5,6,6],"right_children":[2,4,6,-1,-1,8,10,-1,-1,-1,-1],"split_conditions":[-8.066554E-3,-1.6047357E-2,1.1558085E-2,-2.56443E-4,2.922864E-3,3.4610566E-2,4.5036335E-2,-4.049788E-3,1.410232E-4,2.7998073E-3,-1.2761249E-3],"split_indices":[1,5,1,0,0,5,5,0,0,0,0],"split_type":[0,0,0,0,0,0,0,0,0,0,0],"sum_hessian":[9.685489E1,2.8895498E1,6.795939E1,1.2717082E1,1.6178417E1,3.5302055E1,3.265733E1,2.410691E1,1.1195146E1,2.1419235E1,1.1238095E1],"tree_param":{"num_deleted":"0","num_feature":"15","num_nodes":"11","size_leaf_vector":"1"}},{"base_weights":[-1.9126171E-2,6.712504E-2,-1.5918112E-1,2.3132358E-1,-2.0734044E-3,7.665502E-4,-2.8538597E-1,-0E0,3.3186616E-3,-4.136424E-3,-2.407321E-5],"categories":[],"categories_nodes":[],"categories_segments":[],"categories_sizes":[],"default_left":[0,0,0,0,0,0,0,0,0,0,0],"id":79,"left_children":[1,3,5,7,-1,-1,9,-1,-1,-1,-1],"loss_changes":[1.4745843E0,3.566812E0,1.8452287E0,1.0746393E0,0E0,0E0,8.772304E-1,0E0,0E0,0E0,0E0],"parents":[2147483647,0,0,1,1,2,2,3,3,6,6],"right_children":[2,4,6,8,-1,-1,10,-1,-1,-1,-1],"split_conditions":[1.084853E-2,4.186469E2,-5.3089046E-1,-1.2135199E-2,-2.0734044E-3,7.665502E-4,1.5660304E-1,-0E0,3.3186616E-3,-4.136424E-3,-2.407321E-5],"split_indices":[1,0,8,7,0,0,12,0,0,0,0],"split_type":[0,0,0,0,0,0,0,0,0,0,0],"sum_hessian":[9.560328E1,5.7970192E1,3.7633087E1,3.9534206E1,1.8435982E1,1.1725126E1,2.590796E1,1.5709909E1,2.3824299E1,1.2218707E1,1.3689254E1],"tree_param":{"num_deleted":"0","num_feature":"15","num_nodes":"11","size_leaf_vector":"1"}},{"base_weights":[-3.330768E-2,1.304901E-1,-2.088356E-1,-1.0434721E-1,3.39795E-3,-3.3995548E-1,-0E0,4.7734188E-4,-2.3377724E-3,-0E0,-5.1283925E-3,3.6943017E-4,-4.013321E-4],"categories":[],"categories_nodes":[],"categories_segments":[],"categories_sizes":[],"default_left":[0,0,0,0,0,0,0,0,0,0,0,0,0],"id":80,"left_children":[1,3,5,7,-1,9,11,-1,-1,-1,-1,-1,-1],"loss_changes":[3.50888E0,3.54045E0,1.5723999E0,9.607208E-1,0E0,2.5119944E0,6.531172E-2,0E0,0E0,0E0,0E0,0E0,0E0],"parents":[2147483647,0,0,1,1,2,2,3,3,5,5,6,6],"right_children":[2,4,6,8,-1,10,12,-1,-1,-1,-1,-1,-1],"split_conditions":[4.8627094E-3,1.8188813E0,3.982216E2,-3.0230894E0,3.39795E-3,1.8114556E0,1.4391522E-1,4.7734188E-4,-2.3377724E-3,-0E0,-5.1283925E-3,3.6943017E-4,-4.013321E-4],"split_indices":[1,8,13,8,0,8,12,0,0,0,0,0,0],"split_type":[0,0,0,0,0,0,0,0,0,0,0,0,0],"sum_hessian":[9.9840195E1,5.0026035E1,4.981416E1,2.3686718E1,2.6339317E1,2.617758E1,2.363658E1,1.0240192E1,1.3446527E1,1.0729203E1,1.5448376E1,1.0223054E1,1.3413526E1],"tree_param":{"num_deleted":"0","num_feature":"15","num_nodes":"13","size_leaf_vector":"1"}},{"base_weights":[2.7322687E-2,1.654918E-1,-2.7204224E-1,3.1753948E-1,-1.8997764E-3,-4.3860865E-3,-0E0,3.7210758E-4,4.160335E-3],"categories":[],"categories_nodes":[],"categories_segments":[],"categories_sizes":[],"default_left":[0,0,0,0,0,0,0,0,0],"id":81,"left_children":[1,3,5,7,-1,-1,-1,-1,-1],"loss_changes":[4.7524185E0,5.1320267E0,1.8136492E0,1.1244822E0,0E0,0E0,0E0,0E0,0E0],"parents":[2147483647,0,0,1,1,2,2,3,3],"right_children":[2,4,6,8,-1,-1,-1,-1,-1],"split_conditions":[6.6425674E1,4.186469E2,7.325582E1,4.5586956E1,-1.8997764E-3,-4.3860865E-3,-0E0,3.7210758E-4,4.160335E-3],"split_indices":[6,0,6,6,0,0,0,0,0],"split_type":[0,0,0,0,0,0,0,0,0],"sum_hessian":[9.6587105E1,7.143107E1,2.5156042E1,5.2748688E1,1.8682379E1,1.2951954E1,1.2204087E1,1.9936708E1,3.281198E1],"tree_param":{"num_deleted":"0","num_feature":"15","num_nodes":"9","size_leaf_vector":"1"}},{"base_weights":[-6.468308E-2,8.133892E-3,-3.411728E-3,-2.250896E-1,2.1543889E-1,2.2524984E-5,-3.3207668E-3,3.2104638E-3,-0E0],"categories":[],"categories_nodes":[],"categories_segments":[],"categories_sizes":[],"default_left":[0,0,0,0,0,0,0,0,0],"id":82,"left_children":[1,3,-1,5,7,-1,-1,-1,-1],"loss_changes":[2.4970434E0,4.8697414E0,0E0,1.4413702E0,1.3457153E0,0E0,0E0,0E0,0E0],"parents":[2147483647,0,0,1,1,3,3,4,4],"right_children":[2,4,-1,6,8,-1,-1,-1,-1],"split_conditions":[7.583979E-2,3.4815709E-3,-3.411728E-3,3.781747E2,1.7137004E-1,2.2524984E-5,-3.3207668E-3,3.2104638E-3,-0E0],"split_indices":[11,7,0,13,2,0,0,0,0],"split_type":[0,0,0,0,0,0,0,0,0],"sum_hessian":[9.6106316E1,8.089157E1,1.5214743E1,3.539245E1,4.5499123E1,1.1467386E1,2.3925062E1,2.8048096E1,1.7451027E1],"tree_param":{"num_deleted":"0","num_feature":"15","num_nodes":"9","size_leaf_vector":"1"}},{"base_weights":[-2.6447464E-2,1.5390423E-1,-2.5945222E-1,2.9921132E-1,-1.9593157E-3,-0E0,-4.035884E-3,3.4858491E-3,2.3784225E-4],"categories":[],"categories_nodes":[],"categories_segments":[],"categories_sizes":[],"default_left":[0,0,0,0,0,0,0,0,0],"id":83,"left_children":[1,3,5,7,-1,-1,-1,-1,-1],"loss_changes":[5.0350347E0,3.974646E0,2.1154447E0,2.4691725E-1,0E0,0E0,0E0,0E0,0E0],"parents":[2147483647,0,0,1,1,2,2,3,3],"right_children":[2,4,6,8,-1,-1,-1,-1,-1],"split_conditions":[5.036344E0,4.515412E-2,3.7922754E2,6.2884234E-2,-1.9593157E-3,-0E0,-4.035884E-3,3.4858491E-3,2.3784225E-4],"split_indices":[3,5,13,11,0,0,0,0,0],"split_type":[0,0,0,0,0,0,0,0,0],"sum_hessian":[9.780287E1,5.4624863E1,4.3178005E1,4.1636417E1,1.2988445E1,1.8213488E1,2.4964518E1,2.9975985E1,1.1660434E1],"tree_param":{"num_deleted":"0","num_feature":"15","num_nodes":"9","size_leaf_vector":"1"}},{"base_weights":[9.0945005E-2,1.8704796E-1,-2.6338808E-3,2.611787E-1,-1.6400575E-3,4.500144E-3,1.3315554E-4],"categories":[],"categories_nodes":[],"categories_segments":[],"categories_sizes":[],"default_left":[0,0,0,0,0,0,0],"id":84,"left_children":[1,3,-1,5,-1,-1,-1],"loss_changes":[4.2143354E0,3.018745E0,0E0,3.4697585E0,0E0,0E0,0E0],"parents":[2147483647,0,0,1,1,3,3],"right_children":[2,4,-1,6,-1,-1,-1],"split_conditions":[4.4543833E-2,7.694803E0,-2.6338808E-3,2.7464373E-2,-1.6400575E-3,4.500144E-3,1.3315554E-4],"split_indices":[5,3,0,11,0,0,0],"split_type":[0,0,0,0,0,0,0],"sum_hessian":[1.0153421E2,8.580526E1,1.5728949E1,7.531086E1,1.0494405E1,3.5826225E1,3.948463E1],"tree_param":{"num_deleted":"0","num_feature":"15","num_nodes":"7","size_leaf_vector":"1"}},{"base_weights":[9.774633E-3,-2.5110047E-3,1.1017999E-1,2.4709734E-1,-2.4285924E-3,-0E0,4.664043E-3],"categories":[],"categories_nodes":[],"categories_segments":[],"categories_sizes":[],"default_left":[0,0,0,0,0,0,0],"id":85,"left_children":[1,-1,3,5,-1,-1,-1],"loss_changes":[3.1230206E0,0E0,5.054756E0,4.2779436E0,0E0,0E0,0E0],"parents":[2147483647,0,0,2,2,3,3],"right_children":[2,-1,4,6,-1,-1,-1],"split_conditions":[-2.0818515E0,-2.5110047E-3,4.515412E-2,5.6474888E1,-2.4285924E-3,-0E0,4.664043E-3],"split_indices":[8,0,5,6,0,0,0],"split_type":[0,0,0,0,0,0,0],"sum_hessian":[1.04047615E2,2.1977348E1,8.207027E1,6.333917E1,1.87311E1,3.3088623E1,3.0250546E1],"tree_param":{"num_deleted":"0","num_feature":"15","num_nodes":"7","size_leaf_vector":"1"}},{"base_weights":[-7.133781E-2,7.085313E-2,-2.0806141E-1,-1.4226541E-1,2.9253569E-3,1.0470294E-3,-3.1018013E-1,-2.748912E-3,2.785458E-4,-5.1102426E-4,-4.4470946E-3],"categories":[],"categories_nodes":[],"categories_segments":[],"categories_sizes":[],"default_left":[0,0,0,0,0,0,0,0,0,0,0],"id":86,"left_children":[1,3,5,7,-1,-1,9,-1,-1,-1,-1],"loss_changes":[2.4386032E0,3.315455E0,2.5299444E0,1.0928559E0,0E0,0E0,1.0939541E0,0E0,0E0,0E0,0E0],"parents":[2147483647,0,0,1,1,2,2,3,3,6,6],"right_children":[2,4,6,8,-1,-1,10,-1,-1,-1,-1],"split_conditions":[1.5556538E-1,3.6218846E0,3.8084232E1,1.4661835E-2,2.9253569E-3,1.0470294E-3,1.9623238E-1,-2.748912E-3,2.785458E-4,-5.1102426E-4,-4.4470946E-3],"split_indices":[2,3,6,7,0,0,2,0,0,0,0],"split_type":[0,0,0,0,0,0,0,0,0,0,0],"sum_hessian":[1.0079639E2,4.8186623E1,5.2609764E1,2.4094477E1,2.4092144E1,1.0476688E1,4.2133076E1,1.3381658E1,1.071282E1,2.1657267E1,2.0475811E1],"tree_param":{"num_deleted":"0","num_feature":"15","num_nodes":"11","size_leaf_vector":"1"}},{"base_weights":[-8.234836E-2,1.983782E-3,-1.7912431E-1,-3.1345597E-1,1.0253801E-2,-7.9729495E-4,-4.965168E-3,2.774381E-3,-3.1711566E-3],"categories":[],"categories_nodes":[],"categories_segments":[],"categories_sizes":[],"default_left":[0,0,0,0,0,0,0,0,0],"id":87,"left_children":[1,-1,3,5,7,-1,-1,-1,-1],"loss_changes":[3.2858744E0,0E0,2.5904672E0,1.3925204E0,4.634505E0,0E0,0E0,0E0,0E0],"parents":[2147483647,0,0,2,2,3,3,4,4],"right_children":[2,-1,4,6,8,-1,-1,-1,-1],"split_conditions":[3.920059E1,1.983782E-3,1.6618494E-2,3.319135E-3,3.158921E-2,-7.9729495E-4,-4.965168E-3,2.774381E-3,-3.1711566E-3],"split_indices":[6,0,7,1,7,0,0,0,0],"split_type":[0,0,0,0,0,0,0,0,0],"sum_hessian":[9.857736E1,1.9930716E1,7.8646645E1,4.52664E1,3.3380245E1,2.8586306E1,1.6680092E1,2.0901367E1,1.2478879E1],"tree_param":{"num_deleted":"0","num_feature":"15","num_nodes":"9","size_leaf_vector":"1"}},{"base_weights":[9.565161E-2,-1.782179E-1,2.1534455E-1,1.2737312E-4,-3.3022945E-3,2.7046582E-1,-0E0,-0E0,3.126595E-3],"categories":[],"categories_nodes":[],"categories_segments":[],"categories_sizes":[],"default_left":[0,0,0,0,0,0,0,0,0],"id":88,"left_children":[1,3,5,-1,-1,7,-1,-1,-1],"loss_changes":[4.3051147E0,1.4906788E0,1.3017893E0,0E0,0E0,8.387499E-1,0E0,0E0,0E0],"parents":[2147483647,0,0,1,1,2,2,5,5],"right_children":[2,4,6,-1,-1,8,-1,-1,-1],"split_conditions":[1E0,3.784672E2,5.335291E0,1.2737312E-4,-3.3022945E-3,3.6777347E2,-0E0,-0E0,3.126595E-3],"split_indices":[10,13,3,0,0,13,0,0,0],"split_type":[0,0,0,0,0,0,0,0,0],"sum_hessian":[1.0849226E2,2.896747E1,7.9524796E1,1.3984249E1,1.498322E1,6.45484E1,1.4976393E1,1.0183048E1,5.4365353E1],"tree_param":{"num_deleted":"0","num_feature":"15","num_nodes":"9","size_leaf_vector":"1"}},{"base_weights":[-1.0327718E-1,-1.6522679E-1,1.2235423E-3,-2.0750223E-1,1.99062E-4,-0E0,-3.094485E-3],"categories":[],"categories_nodes":[],"categories_segments":[],"categories_sizes":[],"default_left":[0,0,0,0,0,0,0],"id":89,"left_children":[1,3,-1,5,-1,-1,-1],"loss_changes":[1.7343547E0,9.436927E-1,0E0,1.7036705E0,0E0,0E0,0E0],"parents":[2147483647,0,0,1,1,3,3],"right_children":[2,4,-1,6,-1,-1,-1],"split_conditions":[2.8624766E-2,1.869463E-2,1.2235423E-3,1.1850165E-1,1.99062E-4,-0E0,-3.094485E-3],"split_indices":[7,1,0,2,0,0,0],"split_type":[0,0,0,0,0,0,0],"sum_hessian":[9.654912E1,8.132859E1,1.5220527E1,6.9623245E1,1.1705343E1,2.6029793E1,4.3593456E1],"tree_param":{"num_deleted":"0","num_feature":"15","num_nodes":"7","size_leaf_vector":"1"}},{"base_weights":[-1.3589278E-1,-3.3461103E-1,2.5561104E-2,-4.400195E-1,-0E0,-5.716378E-2,2.4626646E-3,-5.7301467E-4,-5.3311945E-3,6.136422E-4,-2.2872998E-3],"categories":[],"categories_nodes":[],"categories_segments":[],"categories_sizes":[],"default_left":[0,0,0,0,0,0,0,0,0,0,0],"id":90,"left_children":[1,3,5,7,-1,9,-1,-1,-1,-1,-1],"loss_changes":[3.8059156E0,1.6204238E0,1.5198692E0,4.561963E-1,0E0,1.3698039E0,0E0,0E0,0E0,0E0,0E0],"parents":[2147483647,0,0,1,1,2,2,3,3,5,5],"right_children":[2,4,6,8,-1,10,-1,-1,-1,-1,-1],"split_conditions":[8.034546E-2,2.2143573E-2,1.8255316E-2,-2.6998343E-2,-0E0,4.8627094E-3,2.4626646E-3,-5.7301467E-4,-5.3311945E-3,6.136422E-4,-2.2872998E-3],"split_indices":[12,9,1,7,0,1,0,0,0,0,0],"split_type":[0,0,0,0,0,0,0,0,0,0,0],"sum_hessian":[9.632565E1,4.1148594E1,5.5177055E1,2.794733E1,1.3201265E1,4.2228115E1,1.2948937E1,1.07308035E1,1.7216526E1,2.5326042E1,1.6902075E1],"tree_param":{"num_deleted":"0","num_feature":"15","num_nodes":"11","size_leaf_vector":"1"}},{"base_weights":[2.0774893E-2,-2.6310718E-1,1.6553465E-1,-4.3674503E-3,3.2310566E-4,2.5200284E-1,-2.2157033E-3,3.0013332E-3,-0E0,-1.1108293E-3,5.2747515E-4],"categories":[],"categories_nodes":[],"categories_segments":[],"categories_sizes":[],"default_left":[0,0,0,0,0,0,0,0,0,0,0],"id":91,"left_children":[1,3,5,-1,-1,7,9,-1,-1,-1,-1],"loss_changes":[4.768016E0,2.491461E0,1.4138315E0,0E0,0E0,4.0641332E-1,3.152541E-1,0E0,0E0,0E0,0E0],"parents":[2147483647,0,0,1,1,2,2,5,5,6,6],"right_children":[2,4,6,-1,-1,8,10,-1,-1,-1,-1],"split_conditions":[-1.1334105E-2,-1.601638E-3,4.167049E2,-4.3674503E-3,3.2310566E-4,1.8918887E-1,8.892144E-1,3.0013332E-3,-0E0,-1.1108293E-3,5.2747515E-4],"split_indices":[9,1,13,0,0,2,4,0,0,0,0],"split_type":[0,0,0,0,0,0,0,0,0,0,0],"sum_hessian":[9.780112E1,2.793519E1,6.986593E1,1.6712898E1,1.1222291E1,4.6721645E1,2.3144285E1,3.4499836E1,1.2221806E1,1.0443036E1,1.2701248E1],"tree_param":{"num_deleted":"0","num_feature":"15","num_nodes":"11","size_leaf_vector":"1"}},{"base_weights":[-6.0002092E-2,-3.0500442E-1,2.867059E-2,-3.7766136E-3,-3.897051E-4,1.293394E-1,-2.31026E-3,-0E0,3.2118026E-3],"categories":[],"categories_nodes":[],"categories_segments":[],"categories_sizes":[],"default_left":[0,0,0,0,0,0,0,0,0],"id":92,"left_children":[1,3,5,-1,-1,7,-1,-1,-1],"loss_changes":[2.7648182E0,7.842922E-2,2.4792585E0,0E0,0E0,2.0816128E0,0E0,0E0,0E0],"parents":[2147483647,0,0,1,1,2,2,5,5],"right_children":[2,4,6,-1,-1,8,-1,-1,-1],"split_conditions":[-5.706702E-2,-1.4386135E0,4.4064198E0,-3.7766136E-3,-3.897051E-4,9.08036E-3,-2.31026E-3,-0E0,3.2118026E-3],"split_indices":[12,8,8,0,0,1,0,0,0],"split_type":[0,0,0,0,0,0,0,0,0],"sum_hessian":[1.0051951E2,2.3226244E1,7.729327E1,1.1995285E1,1.123096E1,6.209356E1,1.5199708E1,4.0223198E1,2.1870361E1],"tree_param":{"num_deleted":"0","num_feature":"15","num_nodes":"9","size_leaf_vector":"1"}},{"base_weights":[1.9658143E-2,8.508173E-2,-1.5678363E-3,-1.4533617E-2,2.9529189E-3,2.229927E-3,-1.2073476E-3],"categories":[],"categories_nodes":[],"categories_segments":[],"categories_sizes":[],"default_left":[0,0,0,0,0,0,0],"id":93,"left_children":[1,3,-1,5,-1,-1,-1],"loss_changes":[1.303386E0,2.189177E0,0E0,1.8507072E0,0E0,0E0,0E0],"parents":[2147483647,0,0,1,1,3,3],"right_children":[2,4,-1,6,-1,-1,-1],"split_conditions":[4.417954E-2,1.3115511E-2,-1.5678363E-3,-2.8718334E-2,2.9529189E-3,2.229927E-3,-1.2073476E-3],"split_indices":[5,7,0,7,0,0,0],"split_type":[0,0,0,0,0,0,0],"sum_hessian":[9.756691E1,7.90873E1,1.8479605E1,5.674717E1,2.2340132E1,1.1226041E1,4.552113E1],"tree_param":{"num_deleted":"0","num_feature":"15","num_nodes":"7","size_leaf_vector":"1"}},{"base_weights":[-0E0,-2.0872715E-3,7.632019E-2,1.7036933E-1,-6.748151E-2,2.7054346E-3,-0E0,-2.2246856E-3,1.0455244E-3],"categories":[],"categories_nodes":[],"categories_segments":[],"categories_sizes":[],"default_left":[0,0,0,0,0,0,0,0,0],"id":94,"left_children":[1,-1,3,5,7,-1,-1,-1,-1],"loss_changes":[1.8771E0,0E0,1.3916621E0,1.0239434E0,1.3444306E0,0E0,0E0,0E0,0E0],"parents":[2147483647,0,0,2,2,3,3,4,4],"right_children":[2,-1,4,6,8,-1,-1,-1,-1],"split_conditions":[-5.706702E-2,-2.0872715E-3,2.1962608E-1,4.1642404E2,9.050055E-3,2.7054346E-3,-0E0,-2.2246856E-3,1.0455244E-3],"split_indices":[12,0,12,13,1,0,0,0,0],"split_type":[0,0,0,0,0,0,0,0,0],"sum_hessian":[9.827317E1,2.1481573E1,7.6791595E1,4.9514587E1,2.7277006E1,2.7590584E1,2.1924004E1,1.5865112E1,1.1411894E1],"tree_param":{"num_deleted":"0","num_feature":"15","num_nodes":"9","size_leaf_vector":"1"}},{"base_weights":[-1.1710601E-3,2.0863062E-1,-1.8724184E-1,3.0861226E-1,-1.7161155E-4,-3.6463797E-1,4.1229498E-2,7.066486E-5,5.0156526E-3,-4.6047918E-3,-0E0,-1.4224842E-3,2.7657961E-3],"categories":[],"categories_nodes":[],"categories_segments":[],"categories_sizes":[],"default_left":[0,0,0,0,0,0,0,0,0,0,0,0,0],"id":95,"left_children":[1,3,5,7,-1,9,11,-1,-1,-1,-1,-1,-1],"loss_changes":[4.5283017E0,1.5246301E0,3.0781493E0,1.7734725E0,0E0,9.7485447E-1,2.022122E0,0E0,0E0,0E0,0E0,0E0,0E0],"parents":[2147483647,0,0,1,1,2,2,3,3,5,5,6,6],"right_children":[2,4,6,8,-1,10,12,-1,-1,-1,-1,-1,-1],"split_conditions":[1.4128702E-3,4.1601913E2,3.985293E2,5.7925407E-2,-1.7161155E-4,1.3359505E-1,1.5686966E-2,7.066486E-5,5.0156526E-3,-4.6047918E-3,-0E0,-1.4224842E-3,2.7657961E-3],"split_indices":[1,13,13,12,0,12,1,0,0,0,0,0,0],"split_type":[0,0,0,0,0,0,0,0,0,0,0,0,0],"sum_hessian":[9.653851E1,4.2279774E1,5.425874E1,2.9831228E1,1.2448546E1,2.965229E1,2.460645E1,1.7707266E1,1.2123962E1,1.9461542E1,1.0190748E1,1.3662285E1,1.0944165E1],"tree_param":{"num_deleted":"0","num_feature":"15","num_nodes":"13","size_leaf_vector":"1"}},{"base_weights":[-0E0,2.3201436E-3,-6.1057255E-2,2.0469609E-3,-1.4050889E-1,-2.7202086E-3,5.9713837E-4],"categories":[],"categories_nodes":[],"categories_segments":[],"categories_sizes":[],"default_left":[0,0,0,0,0,0,0],"id":96,"left_children":[1,-1,3,-1,5,-1,-1],"loss_changes":[1.7114043E0,0E0,2.1737614E0,0E0,2.4795966E0,0E0,0E0],"parents":[2147483647,0,0,2,2,4,4],"right_children":[2,-1,4,-1,6,-1,-1],"split_conditions":[7.260358E-1,2.3201436E-3,3.6330334E2,2.0469609E-3,1.0849721E0,-2.7202086E-3,5.9713837E-4],"split_indices":[4,0,13,0,4,0,0],"split_type":[0,0,0,0,0,0,0],"sum_hessian":[9.77646E1,1.5395432E1,8.236917E1,1.2432962E1,6.993621E1,4.3061028E1,2.6875183E1],"tree_param":{"num_deleted":"0","num_feature":"15","num_nodes":"7","size_leaf_vector":"1"}},{"base_weights":[6.1797928E-2,1.4028642E-1,-2.1351606E-3,2.0765595E-1,-1.658923E-3,-5.742223E-4,3.0940825E-3],"categories":[],"categories_nodes":[],"categories_segments":[],"categories_sizes":[],"default_left":[0,0,0,0,0,0,0],"id":97,"left_children":[1,3,-1,5,-1,-1,-1],"loss_changes":[2.7646904E0,2.454545E0,0E0,2.838415E0,0E0,0E0,0E0],"parents":[2147483647,0,0,1,1,3,3],"right_children":[2,4,-1,6,-1,-1,-1],"split_conditions":[7.719852E-2,5.7447296E-2,-2.1351606E-3,-2.1272445E0,-1.658923E-3,-5.742223E-4,3.0940825E-3],"split_indices":[11,9,0,8,0,0,0],"split_type":[0,0,0,0,0,0,0],"sum_hessian":[1.0746905E2,9.027073E1,1.7198318E1,7.930489E1,1.0965836E1,2.0480186E1,5.8824707E1],"tree_param":{"num_deleted":"0","num_feature":"15","num_nodes":"7","size_leaf_vector":"1"}},{"base_weights":[-1.1695276E-2,2.026482E-1,-2.1902059E-1,-0E0,3.124462E-1,1.6408113E-3,-3.9284673E-1,4.3031825E-3,-0E0,-3.5001056E-5,-5.392777E-3],"categories":[],"categories_nodes":[],"categories_segments":[],"categories_sizes":[],"default_left":[0,0,0,0,0,0,0,0,0,0,0],"id":98,"left_children":[1,3,5,-1,7,-1,9,-1,-1,-1,-1],"loss_changes":[5.4158444E0,1.3950698E0,5.1262074E0,0E0,1.2579255E0,0E0,2.2132702E0,0E0,0E0,0E0,0E0],"parents":[2147483647,0,0,1,1,2,2,4,4,6,6],"right_children":[2,4,6,-1,8,-1,10,-1,-1,-1,-1],"split_conditions":[1.529298E-1,1.064718E-1,3.6550085E2,-0E0,3.96174E0,1.6408113E-3,-1.1722028E-2,4.3031825E-3,-0E0,-3.5001056E-5,-5.392777E-3],"split_indices":[2,2,13,0,3,0,9,0,0,0,0],"split_type":[0,0,0,0,0,0,0,0,0,0,0],"sum_hessian":[1.0151578E2,4.7652477E1,5.38633E1,1.9109737E1,2.854274E1,1.5191014E1,3.8672287E1,1.7112738E1,1.1430001E1,1.5234175E1,2.343811E1],"tree_param":{"num_deleted":"0","num_feature":"15","num_nodes":"11","size_leaf_vector":"1"}},{"base_weights":[6.775738E-2,-1.943858E-1,2.4180232E-1,3.0783571E-2,-4.1215117E-3,4.273216E-3,-1.417538E-3,1.7451284E-3,-8.0971763E-4],"categories":[],"categories_nodes":[],"categories_segments":[],"categories_sizes":[],"default_left":[0,0,0,0,0,0,0,0,0],"id":99,"left_children":[1,3,5,7,-1,-1,-1,-1,-1],"loss_changes":[5.8772907E0,2.9661145E0,6.3953843E0,7.4388885E-1,0E0,0E0,0E0,0E0,0E0],"parents":[2147483647,0,0,1,1,2,2,3,3],"right_children":[2,4,6,8,-1,-1,-1,-1,-1],"split_conditions":[1.6942288E-3,-2.3542095E-2,4.515412E-2,2.100221E-1,-4.1215117E-3,4.273216E-3,-1.417538E-3,1.7451284E-3,-8.0971763E-4],"split_indices":[7,9,5,2,0,0,0,0,0],"split_type":[0,0,0,0,0,0,0,0,0],"sum_hessian":[1.0747683E2,4.0125782E1,6.735104E1,2.1691286E1,1.8434498E1,4.6382698E1,2.0968348E1,1.0946028E1,1.0745257E1],"tree_param":{"num_deleted":"0","num_feature":"15","num_nodes":"9","size_leaf_vector":"1"}}]},"name":"gbtree"},"learner_model_param":{"base_score":"[5.2380955E-1]","boost_from_average":"1","num_class":"0","num_feature":"15","num_target":"1"},"objective":{"name":"binary:logistic","reg_loss_param":{"scale_pos_weight":"1"}}},"version":[3,1,2]}